-2.906532717325784401e-02,-2.606954828791541862e-02,-2.491842006360590542e-02,-1.608009849332639463e-02,9.376364234690959254e-03,2.676249324603676566e-02,4.907631349846466179e-02,5.034499547237594741e-02,6.554303595031178709e-02,-5.016678153473135351e-03,-4.987603173635443699e-02,-3.168513866280463914e-02,-1.120935753098689733e-03,-3.285270289364996404e-02,-6.953932299860817075e-04,7.881581227184405319e-03,2.267092927709382991e-02,-6.320969229459424965e-02,4.833064268425516820e-03,-1.172253512872621639e-02,-5.514554291557314386e-02,-3.261111478188466386e-03,4.948145289220577323e-03,1.343184536010878435e-02,-1.283956338432835388e-02,3.558739680231889912e-02,-4.104454211073824133e-02,4.524521592088216228e-03,1.555890363077890373e-02,-5.180544757004448136e-02,3.560966795999654256e-03,4.022684868403050840e-02,-1.958283016967965126e-02,-3.472381774454798287e-02,3.615505467681696949e-02,4.182248101770324328e-02,2.698349873988335063e-02,7.325249350974809802e-03,-2.849785704227587868e-02,5.195625706601476879e-02,3.204224204394904435e-02,-2.474013614122507962e-02,-2.463123087840328462e-02,2.939199187562970342e-02,4.834464475692164948e-02,2.275113781869364527e-02,2.299772241577773685e-02,-1.025206992123118416e-02,-1.599132013185364763e-03,-1.076602671604161635e-02,-5.074766488371356549e-02,-8.443726941976890943e-02,-7.395991659291133169e-02,2.497864671643520648e-02,1.133508072175839175e-02,2.188292943741841981e-02,2.045497629524045333e-02,3.683145651424628297e-02,1.146510057602747289e-02,5.971993595948862921e-02,-1.246309014894245171e-02,-2.266780994804732004e-03,-2.548501517561198304e-02,-7.129363786949714787e-02,-1.246330690223495727e-02,7.291802539317606205e-03,-1.130818424921452639e-02,3.550898474882294847e-02,-9.642750210559592611e-03,3.584642689437748941e-02,-1.031518787374983114e-02,5.726221560141139290e-03,-2.082901855020949031e-02,1.155393126434748653e-02,2.109782652030766856e-02,-1.881223401598272615e-02,-9.136553605520830734e-02,1.090067053419788851e-02,-4.370939824273534918e-02,-1.899327029920638843e-02,2.418030053554707723e-02,-4.259358390754264950e-02,-3.513726131144317283e-02,-1.631671837423664256e-02,3.756181428667043198e-03,1.567948220487471248e-02,2.599723272435638943e-02,-8.469872114950927067e-02,-1.076797865074894528e-02,-2.443580907886518452e-03,-2.282228253487006767e-02,5.930021961893901933e-03,-3.722233889664156720e-03,-2.969305690567575554e-02,1.337876279690574863e-02,4.405991445331427364e-02,-1.786598683995706564e-03,-5.045879304188157638e-02,-3.743827351651977248e-02,-8.816147814066225760e-03,-4.407023358699815874e-03,9.815398363971669995e-03,1.767608440696748565e-02,-3.611082694430124002e-02,7.048944571973422835e-02,2.112971105258664578e-02,-6.125884435936724409e-02,3.160959815947395057e-02,-5.076893253364821862e-02,3.516045831053190923e-05,2.166867875513537461e-02,5.938162429259662839e-02,-3.355169394564416069e-02,3.638726788030646492e-03,6.781288912630344112e-02,5.353651609647330778e-02,-4.931500856453371190e-02,3.940873022619573000e-03,1.560589632194296292e-02,1.888600956790446525e-02,-2.350194993103337654e-02,-2.440655634508272567e-02,-2.383463130973293917e-02,-5.383964996883133097e-03,9.974852629052382430e-03,-6.891749940023456089e-02,1.764233298167605310e-02,-1.079971051816484319e-02,-3.365022941335823331e-02,-2.839214849251238404e-02,3.513705409383859057e-02,1.618421383799209176e-02,-7.984253474364468028e-03,-8.742578955052678416e-03,3.421067692766326801e-03,-5.792069115633268969e-03,2.575926641602650433e-02,-3.990469710788525914e-02,4.662919913497389629e-02,-8.490890390850220314e-04,-2.638612958311528645e-02,2.535539978253545379e-02,2.901362410427964916e-02,6.791659035292181741e-03,-6.166853097223861692e-03,4.073843881220074598e-02,1.697891381726738050e-02,-3.570246200602004982e-02,-1.819523849506759616e-03,3.132393496483865114e-02,6.030388379453502368e-02,-2.600039244652259038e-02,-3.155204838652646976e-02,-2.740093524215521381e-02,-4.186773913851860734e-02,-1.196616815581364075e-02,2.297235173483621121e-02,-3.794500423049539800e-02,2.520515479356744484e-02,2.052639570956166226e-02,3.099032412098842379e-02,1.203274552659588416e-02,1.307886592950983570e-02,3.147556226941831264e-02,1.874945898988564577e-02,-3.251380483058332813e-03,-2.561772023205067562e-03,1.801441622587860933e-02,-2.530378542622030782e-02,2.997574510600121891e-03,-3.784718518106009594e-02,-5.839545668424294886e-03,1.656420089968404716e-02,2.647509832819810657e-02,-7.218754664788941747e-03,-5.343701159385338841e-06,4.676130296493707927e-02,-2.133866142277682579e-02,2.159964070195053223e-02,-1.212722471491932408e-02,-2.161440817391723293e-02,-7.031148150683597109e-02,-9.620387856452363232e-03,1.430238727733005623e-02,-3.562136311087890639e-02,-2.331677730983139352e-02,-2.580444060542629384e-02,-6.875681530903308102e-03,-2.740557482109912124e-02,3.878087470863106866e-03,3.903625530776294855e-03,-1.984290142288747290e-03,2.130758411978960279e-02,5.443281751435490555e-03,2.386724058400302613e-03,4.707157700296059344e-02,3.031911651751595729e-02,2.810039336117639217e-02,1.245452043148372739e-02,1.280860367363394203e-02,-1.406859504860520811e-02,7.178207678471013563e-03,-2.596834566350466125e-02,1.094054487452143787e-02,6.011002218434454217e-03,-1.262435204899300251e-02,-1.451934462360630548e-02,6.858521698439154837e-03,6.706980948962168454e-02,1.593310652568515756e-02,3.855022443676027477e-02,2.724457655277405174e-02,3.866220244867026035e-02,4.494939145737804342e-02,-1.478989706565804127e-03,-1.722364300274864188e-02,3.707527867792646814e-02,-1.012183694864519749e-02,-1.323595200513856193e-02,1.142265074510201255e-02,-4.347636616103748436e-02,3.656510152647167444e-03,2.897271090976217059e-02,1.227904462878581446e-02,2.689019902777544085e-03,-1.906169426324828484e-02,1.316028672044061883e-02,-1.215860656550465414e-02,1.516211156729467720e-02,-1.655826155356710308e-02,6.156442699945129451e-03,2.313546978224184994e-02,1.939236998844448209e-02,4.643188266988615420e-02,-1.237626828066796386e-02,-4.489143672460503554e-02,-5.453920075574033438e-02,1.294530290968464240e-02,2.667773615141192517e-02,-1.571497856700215454e-02,3.202243113275654585e-02,1.100946589799858127e-02,3.985545541212149462e-02,2.670273267667807801e-02,-9.146840516555383802e-04,-8.889540682380023609e-03,7.122432224494235076e-02,2.252591776696704143e-02,-1.692993166695011542e-02,-3.144293757315333449e-02,-3.720162860610178729e-02,-1.600518024702611911e-02,-5.053717009907965352e-02,3.159212241365905172e-02,1.216715683527300890e-02,-2.255662332667321933e-03
7.350425902039772752e-02,-3.144383575169931722e-02,2.345048218968643142e-02,-8.237127702704741955e-03,-6.081722924966392017e-03,-7.501235624827290796e-03,-1.383840696711310068e-02,5.854590432055254562e-02,1.317653287284224761e-02,2.049132266910906955e-02,5.578458119621355037e-03,4.481510960512557346e-02,-3.830929312661651709e-02,-5.687554247624246329e-02,4.810314946800508390e-02,-1.882569971655542393e-02,5.645978340767095378e-03,-6.317618176797889368e-03,-3.325670743270901786e-02,-1.594863704736927635e-03,8.190659728240783088e-03,-9.616210317791355766e-03,-2.511145696164272800e-02,4.665279700915759414e-02,3.708493821780010913e-02,6.653577203670874365e-03,3.819409574675542568e-03,3.709648917929835726e-02,3.218929682277225229e-02,7.187140117688619115e-03,9.579159867572609524e-03,-5.183310262832074855e-02,2.074951537245099328e-02,4.696032704120946602e-03,2.090347901206475456e-02,-3.828006969827021932e-02,2.167728713362554460e-02,5.458688125955730303e-02,2.333306721692949767e-02,-5.644473747766830772e-03,3.810866458873436724e-02,1.167750990141172736e-02,-3.868670033094778749e-02,-1.616485030531791822e-02,3.444826308908752535e-03,2.494215555988346655e-02,4.154154685791008189e-02,-2.514472044498754222e-02,1.578490309934643373e-03,2.903679258449883005e-02,4.126498400551441292e-02,2.168570810543225813e-02,-3.656248116348619764e-02,-1.666101220188931364e-02,4.247638606969727712e-04,-1.414261207339998112e-02,-4.965737252448743783e-03,-3.163850873995845137e-02,-5.683536810643981078e-03,1.140679889933644657e-02,-6.002472773905350410e-03,-2.990630396484135868e-04,-2.697342818605573227e-03,4.228303277228773888e-03,-1.391426258286056379e-02,-2.096304024918719047e-02,-2.411818758802692264e-04,-3.007407256195511122e-02,2.933208451808538841e-02,-1.700787604295940156e-02,-3.858640348388008012e-02,6.109863131193116192e-02,-3.241451086610536853e-02,-3.180146246341247762e-02,-2.942241945986451886e-03,1.876872347870003205e-02,1.667592507642074590e-02,3.158444220923505019e-02,4.523474642814105315e-03,-5.123383785093704040e-02,3.199436515607582184e-03,7.217424421754202370e-04,-4.899299053168796464e-02,3.210200527198212028e-02,2.636068388938146712e-02,3.452255972774466442e-02,-9.952807635776873135e-03,1.228134939410176728e-02,3.362227157212117207e-03,6.246830940038246120e-03,-6.863242272922968901e-02,-2.648470719899820650e-02,2.970458920399633718e-02,-3.548998272677723193e-02,-2.307189598917957010e-02,-6.450665059435649329e-02,1.330140586697026173e-02,-4.822629471776677945e-02,-3.532733177053835882e-02,4.471508288369606399e-02,1.331196219702181563e-02,-6.311881997279712719e-02,6.937435185793672243e-02,-2.854867600325164748e-02,3.680606059534678037e-02,-1.234184590111861955e-02,-1.546041489577349749e-02,3.074506295741359641e-02,-2.485777575943553912e-03,1.132489072840089060e-02,3.596683259791932930e-02,-2.843358745273473834e-02,-2.642223299236214767e-02,-2.090818763261570110e-02,2.337559830018136678e-02,1.686195682209723143e-02,2.317205659193833603e-04,4.261707182001903821e-02,-2.167938687266281195e-02,2.616700200418525107e-02,1.756394618384384682e-02,-3.344471735794514455e-02,-1.017218061698098829e-02,6.620711027491678335e-02,5.101394121401772269e-05,-4.903844447732185613e-03,3.069662803647369483e-03,1.191404689502583748e-02,-8.787609443445105334e-03,-4.197186433824619950e-02,-1.074591753293725228e-02,-5.811965256008482655e-02,4.909327711811657668e-02,-6.477516154244549428e-03,-2.525240678145521112e-02,5.199998857012582375e-03,4.782919686466284570e-02,-9.905460702555645217e-03,2.933383651964217766e-03,-3.362033338584434483e-02,-1.266828803357153768e-02,2.859086726949060242e-02,-4.004178136612800143e-02,-3.633280054125450666e-03,-2.590696234845553739e-02,2.279712105316135731e-02,4.381146552363926125e-03,-1.188653890332987611e-04,3.559898675325556816e-02,-3.009962956303475698e-02,1.205190638205226941e-02,5.306663047952706741e-02,-2.340872442215491747e-02,-3.941000995801042378e-02,3.063920969258174254e-02,-5.490477014516004228e-02,-6.279121295338119246e-02,-6.984478216350968952e-03,1.361463680821911951e-02,1.278768621184698737e-02,1.737102708740423471e-03,-1.515064174338891755e-02,3.561921387178526577e-02,-8.206756569643617813e-03,1.918299734480479954e-02,2.771939763555298850e-02,-4.109269583487254462e-02,2.514655372953129159e-02,3.388591747585686931e-02,1.851651820150258115e-02,-2.004455686839896195e-02,-4.200071173350247017e-03,-5.062434596518102653e-02,-4.637457528424113878e-02,3.640095985401319012e-02,1.779678590156511583e-03,1.886708223914309451e-02,-2.101707585607591119e-02,3.054602547377071459e-02,5.147930218859983476e-02,6.143253421654683993e-02,6.093132642866209286e-03,4.288391054045825879e-02,3.342792349523296402e-02,1.957927202593755592e-02,1.743055478311077502e-02,2.900871861963799994e-04,-2.126213519654399434e-02,1.599807168845275573e-02,4.534582952168061953e-03,-1.036166062122677659e-02,-1.913782745745873370e-02,-8.484272510420554081e-02,-3.506055232071060568e-02,-2.833128001086614861e-02,8.294133818543316869e-03,-5.429865272640511942e-02,6.093338175425868503e-03,-2.295705632138921037e-02,2.314071712858822849e-02,4.584818025620394227e-02,1.182156113432758331e-02,-3.327974729543293347e-02,-4.901794157256892520e-02,-4.078111936153647199e-02,-3.117888412821141764e-02,3.983318186108010528e-02,1.766624010435454903e-02,-4.739772543224835682e-02,-2.168838342371757696e-02,3.571496760868506787e-02,-1.113263843758032640e-02,1.943019201930472339e-02,-3.328901439060646256e-02,4.193730220557505967e-02,7.366187937045128031e-02,-7.981564420845042862e-03,-1.799184185963244266e-03,2.690805021544847089e-02,7.900019538708414994e-04,3.669646783429189596e-02,7.133515612783820903e-02,2.333611233518261691e-02,-1.872303668959746786e-02,-1.880638010049258749e-03,-1.154558098529119906e-02,-6.367887908322586443e-02,-2.237438121309139744e-02,-1.661096869877832886e-03,4.983272168378158340e-02,-2.534067301148070286e-02,3.977901165467229161e-02,-2.839819120966687732e-02,5.042414794641290193e-02,-1.727166894539395106e-02,-3.080443541577844728e-04,-5.896267404433411935e-02,4.151618313798766807e-02,-5.509686494015585828e-02,3.245788078036871555e-02,-6.866112926344140888e-03,3.884865366268670100e-02,-2.784282461800859781e-02,-6.317151938465097316e-03,-2.305486933479448594e-02,-1.729725523025551354e-02,2.119055919117454265e-02,-2.114040907215737966e-02,-1.342460309902115262e-02,3.760962885394667637e-02,2.804456054593358616e-02,7.079647372827656444e-03,2.821062682791910040e-02,4.545045772637006792e-02,-1.645352390966927855e-02,1.244583345243525756e-02
-8.236755229006791079e-03,5.069273438880789184e-02,1.380354708964899764e-02,3.599103819557086109e-02,3.136112425714118745e-02,-1.708450323715636140e-02,5.149556353942619236e-02,-1.204764364488372132e-02,-3.243748797915083082e-02,-8.009438832196876315e-03,3.903528889236737576e-02,-5.439721117445779630e-02,3.014312407779991265e-02,7.666165328265101692e-03,3.842111388500639262e-03,-7.464002667788616902e-03,-1.682156884494104970e-02,1.014924532383885969e-02,2.934949338660678558e-02,7.220634438820425390e-03,7.214520373151860066e-02,4.311032882376866077e-02,7.212108513444314903e-03,-1.979094934281305351e-03,1.037717542915883168e-01,4.211623673111632854e-02,1.994497182382843140e-02,-4.529787995544754670e-02,1.756627061614981968e-03,5.282858263768940715e-02,2.845324682023058892e-03,7.582194859467719650e-02,5.208621974551599226e-02,3.758912094919919511e-02,3.598022991843208285e-02,4.985438349815579651e-02,-3.802536894592976197e-02,-3.112682356943804671e-02,-3.423727216670484613e-03,-3.198789060992013322e-02,9.702499909219747948e-03,-3.554583808604345335e-02,-1.403604863605876878e-02,4.386108216229569340e-02,-2.141124425280664656e-02,4.643718747722157432e-03,5.635535774344491849e-02,3.150780792789794043e-03,-1.388981660318010063e-02,-1.595096128856227438e-02,-5.286901420117391670e-02,6.165170067704089235e-02,4.971153114915608656e-02,8.492251199269095288e-03,-2.522262936102745781e-02,-2.852052564971555709e-02,2.218813779530546398e-02,-8.788788691980358933e-03,5.183552226791161843e-02,-1.712309797080713986e-02,-1.548601473431968772e-02,5.791655720156631965e-02,-2.432046130636585785e-02,3.515186925104599180e-02,-2.185070913775902235e-02,1.121547332366803519e-02,2.693622792880627156e-02,-1.578794809871687105e-02,-1.409288453520033020e-02,2.246918754038989413e-02,-1.277229191329038588e-02,7.994171701521241014e-02,4.641870808791569852e-02,-8.980814288409076727e-04,2.476079272454483754e-02,2.535773268957965988e-03,4.174216816884440857e-03,6.601268640419329092e-02,-1.224692693707680330e-02,-2.477706548542446888e-02,2.172263817709256528e-02,-6.406485921346988244e-02,9.290137118613479850e-02,2.364041541752588335e-02,8.365410079018814615e-02,1.661753413713689190e-02,2.367948473822282032e-02,-6.075940880494975702e-03,-7.223520878364597837e-03,-1.962929421782777170e-02,1.713308236327227771e-02,-2.130342810934837683e-02,-1.618242773692860417e-02,1.451486252626235651e-02,2.081834874452875156e-02,-1.667387315863798694e-02,4.527237021197930145e-02,4.514310428899539346e-02,-1.340178435090173814e-02,1.024125107128895547e-02,2.896713176219875563e-02,-8.124004855911134276e-03,-3.650963886699094135e-02,3.596342766915829742e-02,5.822994664439313205e-03,5.464920030555918753e-03,-1.126658984706150474e-02,-4.475983219545454084e-03,-2.100143071798856245e-02,7.097208817657638114e-02,-4.889652345901733532e-02,-7.831826311117774664e-02,1.485309358293350826e-02,9.179726942679279503e-04,1.693947003018508304e-03,8.746976599174909398e-03,1.314726022234593422e-02,6.356085867571906189e-02,1.561205250058211695e-02,-2.084172114886154517e-02,1.383060530064100964e-02,3.068431516482997973e-02,2.837874199608666353e-02,-1.120944153525140798e-02,-1.630599764878785593e-02,-5.184897641667506746e-02,9.763592974426388293e-02,-2.951268601324611232e-02,1.184296202075900070e-02,8.119543691961841891e-03,1.934092877032737856e-02,1.093971481375996362e-03,2.044729241222891999e-02,2.394929114894758446e-02,3.296984476529654477e-03,1.612501198642426678e-02,-2.786560939037480145e-02,-2.417036241405260896e-02,-1.913611484807521343e-02,4.537781444516439389e-02,-3.513381796354476255e-02,7.094984723560375170e-03,-1.135013748415221761e-03,-2.607819201985689048e-02,-6.505052655565917406e-03,1.769267782450195670e-02,2.993975992970668992e-02,-1.479534006437895760e-02,-2.114788532656804165e-02,4.132780531823630060e-02,3.321442456893919370e-02,-1.628172184357530973e-03,4.556494953289106850e-03,-3.757680926766569784e-02,4.122194822313085538e-02,2.947087322439512734e-03,3.643467176399569924e-03,3.737654144180293115e-03,1.083320509957741082e-02,1.221006971810828338e-02,3.581093312065915246e-02,-1.696293951272588238e-02,4.340877428744489147e-02,5.482507323128935767e-02,1.708297572906411835e-02,-2.892165687219104206e-02,-5.720606909686500041e-02,-2.855142902141560857e-02,4.579007924764157134e-03,5.393834737683782243e-03,3.667431239737337784e-02,-3.159888245976202881e-02,-3.029585840759723564e-04,1.291297641188490428e-02,1.713735371703338159e-02,-3.851835855551970222e-02,1.966370522310059363e-02,1.262424730011703182e-02,-1.378069297043360217e-02,7.467006611084347177e-03,3.653924355625354226e-02,2.057874916060127221e-02,-7.213169519062123669e-02,-3.506095992093417879e-02,1.727960343165794652e-02,1.355441543100334781e-02,-7.860197817582476520e-04,-2.642412185852587025e-02,6.849314070397830023e-02,4.937024591843993879e-03,-4.732655457169682167e-02,-5.419380179593371455e-02,1.480507350525677758e-02,-4.020965309671086646e-02,-1.251768191621779750e-03,4.370262456626725078e-02,3.548125794741184558e-02,3.765926709142687623e-02,2.912447306076468984e-02,-2.499352881036093210e-02,2.273091670386346436e-02,-3.439984098197716115e-03,-3.854580886865677930e-02,-8.440358048582473349e-03,3.199871582767572359e-02,5.029051011528303666e-02,-5.759655919679603333e-04,-3.399894595304186334e-02,-4.950138259927478607e-02,-2.476682555791292692e-02,-4.339844418258447661e-02,-2.087226360167847988e-02,4.122371091219138861e-02,-1.193411011293675147e-02,1.680441633469929169e-02,7.727309181756544798e-02,6.999222359705330188e-02,-3.055914297250187164e-02,-4.955902047462583219e-03,9.189129196420195086e-03,-1.493459834957189432e-02,-1.865695019161609652e-02,-8.992308712731624659e-03,-4.841850069150355554e-03,-1.513891160180224314e-02,-2.399837705679967736e-02,4.344432044137784554e-02,-3.599867458608030368e-02,2.316172147155364305e-03,3.182188093405611401e-02,-7.828835146179788373e-02,-2.007015989800195466e-02,-5.507569950951295146e-02,-2.225273568509573627e-02,-4.225224899788674465e-02,1.101807042016827651e-02,2.090849322632601370e-02,-1.609530618529711812e-02,-1.456606668679554049e-03,-2.303485831660277705e-02,1.595378599722562657e-02,-4.802719489371812950e-02,2.009257785507916408e-02,-2.313179365760880193e-02,3.225922824751743107e-02,7.956482688814303303e-03,1.633344522991810391e-02,7.125726339909894264e-03,-6.231857118413931806e-03,3.931638201840117336e-02,-9.742830855238519827e-03,-5.341732138758482906e-02,-2.074790645495258601e-02,1.091934767843048479e-02,5.685423620682741527e-03,1.804933944897339423e-02
-1.421053534746176579e-02,3.236275278551808271e-02,-4.392415310366940689e-02,2.863996415743422924e-02,-1.617324436882168134e-02,3.308078359660897999e-02,4.820346044459975637e-02,-4.813170233428192002e-02,1.679319482027828367e-02,1.556565241578566385e-02,-9.965143400156440193e-03,-4.297241129851464558e-02,-1.526344796036957843e-02,1.251370675003302081e-03,1.372549010094286336e-02,-3.239023136413590048e-02,-3.248226648482723661e-02,7.319798106259915553e-03,-2.821716622664797308e-02,-5.199752792375410271e-02,-2.011840316186888980e-02,1.405042193125709965e-02,1.981203163931514674e-02,2.862300511350468132e-02,-2.741779926869403888e-02,-3.763963607036253239e-02,-3.609293646526701843e-02,1.994321863348883991e-02,-1.639567532044802073e-02,-1.218270127776206399e-02,-2.289474829130503514e-02,1.322808836626566606e-02,1.213901760920780030e-03,4.752083692146497930e-03,3.240127364849496733e-02,7.635038856356169377e-03,-2.100058132332285193e-02,-2.718440881429604397e-02,-1.250594583882433213e-02,-3.671813630181556144e-03,-1.779222736771352356e-02,-3.295551309473637031e-02,2.034729162555471912e-02,9.290262154088461477e-04,4.688659252536200861e-02,-1.981525030610463770e-02,4.150436172079890323e-02,3.647830251201095164e-02,2.345856801387217680e-02,-4.437017001773042174e-02,-4.405700518539706206e-02,2.975721530987975039e-02,1.531919266414910608e-02,6.751405669127748255e-02,-1.647410083841302844e-02,3.484100264751592568e-03,-1.585497636611407635e-02,3.270892997527901497e-02,-6.994047556357992079e-02,-3.559845836514330397e-02,1.717076050837524140e-02,-3.471009272809059271e-02,-1.569768321654398113e-02,6.041356601919019298e-03,4.651283861195357194e-03,-1.903993872476784227e-02,-2.104808445871339528e-02,1.277785264825934304e-02,-1.330789385973291713e-03,2.085452018718488704e-02,6.147335104542293524e-03,-7.192872821188120436e-03,9.840489383374452850e-03,-2.904940639149562395e-02,1.352602484349158321e-02,-4.579546675987932608e-03,-2.780929975761639930e-02,2.328548566455553026e-02,-7.035181703060723081e-03,-7.866011145261626869e-02,-1.669168683319823638e-03,-1.678181575284771673e-02,-2.788706951249502602e-02,4.535208965274116488e-03,-2.813435424365049939e-02,2.906110323391727576e-02,-2.418361486513386296e-02,3.232124247216240642e-02,-3.010250713705792721e-03,1.351450243180183329e-02,-4.671830352228022003e-03,-2.928182474282850067e-03,9.652537936982929709e-03,-2.134062488772908023e-02,3.084167051371327142e-02,2.873121927501046807e-02,3.262000627434558792e-02,8.367564030215908413e-04,3.906065644732100405e-03,6.076409424184268243e-02,2.537597177191013367e-02,4.543343364010243163e-02,2.837158751460477565e-02,-3.811422309994128010e-02,-3.784437239606527198e-02,-5.162896846024050274e-02,-9.660700162815418629e-03,-1.523860656880362055e-02,-3.169913624905028315e-02,-1.753764655389641186e-02,8.607276466665520973e-03,-5.194028517373271234e-05,1.047887555412885946e-02,-3.313353141446602479e-02,5.041473484219401863e-03,-3.842125383694305115e-04,1.600663559643633604e-02,2.507703520803314726e-02,3.523428660564180415e-02,3.846403067488885635e-02,1.501558466798922885e-05,-1.279382084069157453e-02,4.874157381140533513e-02,-5.309508786103942640e-02,-1.540473165412988010e-02,-3.345416835400426975e-02,2.731178959868586081e-02,2.288239759175563284e-02,-2.268081811335289841e-02,-7.270808471334049179e-03,3.817954508751857101e-02,4.005177591647503081e-03,1.206021022617764912e-03,-2.884884264496619805e-02,-1.942334356227254366e-02,1.046475879228037260e-02,-8.346576140878638264e-03,5.982402485261960334e-04,6.043033092434220432e-02,2.111446803454570392e-02,1.580142504995433322e-02,-1.798797098148231799e-02,-1.412457352341713046e-02,-4.601112170554719216e-02,-4.839734934545546902e-03,1.088717903999598599e-02,-7.454403359007755019e-03,3.993019473818621920e-03,9.218195405564256215e-04,-2.263342587746653561e-02,1.072783290866376671e-03,3.508209399396310167e-04,-3.430497793773971960e-02,3.479330165280590526e-03,2.075883968390684550e-02,-4.375095338602693479e-02,-1.185300602874533957e-03,-1.242444571482776219e-02,3.992905142498558851e-02,-1.139478401042645812e-02,-1.437644043687030804e-02,1.631224379831250348e-02,-1.223011149675032501e-02,5.043223123747107850e-02,-1.799868654305941673e-02,1.837782835422260841e-02,-7.064421316490933703e-03,-9.702823512735277156e-03,3.009155136572040298e-02,8.002605060628949218e-03,-1.711650395181071871e-02,-4.074496580114494310e-02,-5.040952696925359022e-02,1.932185975196055311e-02,4.842326591988815702e-03,-2.879087784734741737e-02,2.206827070140542774e-02,-1.617754702604784142e-02,-3.715940964733623064e-02,-6.968769158962761882e-03,-1.841664750317077714e-02,1.601794656799072208e-02,-1.049459123933146713e-02,-4.057039635223933655e-02,-4.878312856196125383e-03,-4.513008973139147166e-03,-3.034107779939273011e-02,-8.747341654728636381e-03,6.624393716876947336e-02,3.773284903481834932e-03,5.111046870073811949e-02,-2.965034783426069229e-02,-3.373909931197383721e-02,6.770973769064304870e-03,-1.556683982745685896e-02,-3.953174602922239489e-02,3.884759397236467026e-03,-1.111397987206465612e-02,-1.895743432970923778e-02,-3.147017969782532620e-02,2.226836451458630989e-02,3.382920868190071595e-02,3.780935865142757805e-03,2.665443532583359337e-02,-8.272029071833665939e-03,4.035846769152830020e-03,2.227616856466372447e-02,1.090442806516888491e-02,-3.198697906949331954e-02,-4.172807068123078091e-03,-4.134063044571635592e-02,1.157351213645400889e-02,8.875420979309588468e-03,-2.727442498052595407e-02,-3.704183827261371686e-02,-3.817754090423097074e-02,-6.137174597212010502e-02,-2.428147431029650805e-02,2.622019959711536369e-02,-4.728769981733435546e-02,-9.648296809692711532e-04,-1.457128242264752122e-03,-5.023279886072493441e-03,1.025838099168640064e-02,2.733478849788907247e-02,-7.190823659224712672e-02,-2.992383888346538193e-02,-4.398902536495220318e-03,-3.281870945093421504e-02,5.747305207140558647e-02,1.203612362276851658e-02,-7.499890563915121247e-05,2.281177638803801380e-02,7.040039249947249722e-02,1.273080478129493161e-02,-2.736686920146931892e-02,-9.396041618366181132e-06,-2.174661959224343660e-02,-5.565808839319850293e-02,4.802589567239189117e-02,-8.455486993961282977e-03,-5.204818636387024966e-02,5.609587779580162657e-03,3.473567166019658065e-02,-6.247399243673890795e-02,5.153664740666475709e-03,4.455505663185086937e-03,-6.030868777014685572e-02,-1.644320367943616704e-02,1.323408447026450628e-02,4.752791492399750101e-02,2.439650004260195473e-02,-1.895070863780896203e-02,-8.173125765545586827e-03,2.681185132343687910e-02,-1.240420908197269884e-03
-2.285502090571377501e-02,4.162746603851187610e-02,-1.582248214207561399e-02,7.079942438411455236e-03,-3.346785212359426609e-02,-2.999334942072740331e-02,-1.926894427594887799e-02,4.991103826819431183e-02,1.126733545823165733e-02,1.255746082930785969e-02,-4.381764249331023681e-02,-7.213315774801131765e-03,-1.911299597558411070e-02,-3.829601941349910967e-03,-2.345832468673420684e-02,1.757320664952208289e-02,-1.871486006333659621e-02,-3.507534257932526378e-02,-5.841362073002813980e-03,-4.658437892236196899e-03,1.136855813424595199e-02,9.469300879916606531e-03,3.531326476702877776e-02,-2.646747858052659122e-02,3.878603969086034248e-02,-2.492578329388710819e-03,1.525679181299077584e-02,4.488502431987054231e-02,-1.856055434627505024e-02,-5.249027393581181964e-05,4.055194460117311772e-02,-3.932673504201508047e-03,-2.213002784546073617e-02,8.811560239618976970e-03,2.482798906970092381e-02,-2.760348264780916258e-02,-1.296650293406097568e-02,-2.318914808369976904e-02,-5.405534842183194050e-02,2.812892121088401629e-02,-5.728282279110633729e-02,2.810848025950195631e-02,4.743024011736662188e-03,3.703940327910497377e-02,2.758529702090725677e-02,1.411207777773892599e-02,4.765120851408125024e-02,1.840445764596460032e-02,2.942111663562328380e-02,-3.719356208776401773e-02,1.502120746612531539e-02,-3.603750722101065323e-03,3.886503857597928269e-02,-2.033958158802723348e-02,5.675400522462666075e-02,3.096543304221289691e-02,-1.855470864938594047e-02,-8.497442651116085544e-03,4.242150410101385577e-02,1.181503960760240529e-02,3.885879888088214495e-02,8.240343873252244100e-02,1.959867157245363811e-02,-6.438766761847956877e-02,-7.708788394548131417e-03,4.165632073908350635e-02,-3.632296674903403438e-02,4.620225109561184457e-02,3.977287206316641732e-02,2.386838771686025304e-02,-4.750488786673672144e-03,-1.317849920903927004e-02,6.872667134030083225e-02,2.638547587811640796e-02,2.510470912729569765e-02,1.419793089612255560e-02,-4.301387475049195386e-02,-1.754635078218442362e-02,-1.797528627127960516e-03,-3.655897794618889751e-02,4.064798507156588969e-02,-8.382440859165841973e-02,-7.903153171441376287e-03,-3.806961413503560931e-02,5.456756999879857489e-02,-9.653031003952389916e-03,-1.134201757321170491e-02,-3.793586753724081939e-02,-8.188992267613763587e-03,1.613185479729524442e-04,1.444818968717154900e-02,1.042939517348014794e-02,4.572906955221772186e-03,4.274278476294608720e-02,1.613892777197719133e-02,3.686784394812682442e-02,-2.996992183280071387e-02,-2.482625714783072771e-02,-5.643536729999052304e-04,-7.329314727904350478e-03,-3.639498383344982879e-02,1.234918919635574590e-02,-7.109377268715812159e-02,-6.120498617678515581e-04,-3.459306733600010265e-03,-1.916144481788856560e-02,-6.611127636374472538e-02,-1.292334172349469956e-02,-1.821722638647895950e-02,3.332701916818402860e-02,-4.358505097642152715e-02,1.106360041900137509e-02,3.028536829813556919e-03,2.396159259783494158e-02,2.186827402295936709e-02,1.169500712287317550e-02,1.658381891506202632e-02,-2.807223250678378846e-03,3.016068138179399394e-02,3.324658437943921879e-02,-7.630314744725798411e-03,9.059793655799065759e-02,2.811683266619247751e-02,-5.408832694758222703e-02,-1.186183605803707748e-02,2.604207627746429193e-02,9.579680032710919182e-03,6.158420289206695958e-02,1.149339272794357332e-02,3.764494452016362014e-02,3.134519195999171254e-02,3.099116617440888719e-02,-4.451296497865332713e-02,9.218050559544102010e-04,8.834554562303399694e-03,-1.630852086484526828e-02,-1.920591416465384713e-02,4.799669911261763428e-02,3.959881493123126872e-02,4.268509635217293541e-02,6.401907956865126280e-03,-5.790961226498119591e-03,-5.611370895345906863e-03,1.445314099572085663e-03,-3.374879342232056396e-03,-7.258173659518110568e-05,2.378099105756801158e-03,2.960859074304447291e-03,5.888817200878348861e-03,2.205632845657855279e-03,-2.354598463219797003e-02,-3.233242591864577548e-02,-1.137598491149196568e-02,1.922195910934593882e-02,-3.466319026808294124e-02,2.828762948118801641e-03,6.626418197161892086e-03,1.694153881246562160e-02,-4.749017479294648236e-02,-2.679959413631524331e-02,3.811485920989653858e-02,-1.567290114110764720e-03,-1.443453625307254337e-02,6.106231669280281354e-02,1.617851242517307636e-02,-6.299637571565991356e-02,-1.579944849508855415e-02,-4.267760220741707855e-02,-9.857427592573120984e-03,3.603484967380686521e-02,-4.570187256048460767e-02,4.082493045442053131e-02,3.083695403445143798e-02,1.651538568850331040e-02,-2.173077535348874600e-02,-4.921802399249529392e-02,1.758429683963160656e-02,4.316765290663593380e-02,8.629379128051546319e-03,1.194867994321382500e-02,-2.654789667862705871e-02,-4.270491607729087064e-02,-2.969707477452375802e-02,-5.291732451594985398e-02,-1.365286776792171315e-02,2.262618725435359621e-02,-1.874273918823171972e-02,1.132761726017590675e-02,-1.690853541994084136e-02,-4.703779612666370014e-02,-1.261657279095537709e-02,-3.421124012163166000e-02,2.200397061958544662e-02,-7.024613555982998914e-02,-2.185855875515568467e-03,-1.002726414105273474e-02,-1.002191966170536651e-02,6.626699245271388053e-03,-3.335808585814049876e-02,8.577232066046077200e-03,1.126215557223331221e-02,2.554635994199851851e-02,5.141164366122050362e-03,-1.874895202879407058e-02,-1.592695684933274902e-02,1.845747174126301932e-02,-3.449712852159111942e-02,-5.480559601531096066e-03,5.099254335736103094e-03,5.084522277149470387e-02,1.653005574005685444e-02,-4.454393892762910367e-02,-3.080419626180402534e-02,3.232767846066383899e-02,1.796581443989912069e-02,-1.982117615397487737e-02,1.176076758304014230e-02,-2.255334221435364647e-02,-9.602793860462251890e-03,6.409408357774475096e-03,-3.813405772350977885e-02,-3.181229657925817300e-02,-8.554104484022707205e-03,4.377709760716426424e-02,-1.292647954749123057e-02,5.117631765145005257e-02,-2.097048382206662814e-02,-1.947971467732769954e-02,-1.311706167547696360e-02,-5.180027664405309484e-02,3.189833819574684759e-02,-2.260242880827991602e-02,3.657865832447629306e-02,-1.665713313407661197e-02,7.099983473936428112e-03,2.062319864578064654e-02,-8.741057286429649090e-03,-7.224894163211398324e-02,-2.110571336111823418e-02,-3.467449625651797263e-02,1.363695470118559371e-03,9.589557229821648113e-03,1.813415121695900745e-02,6.186876517109218127e-02,-2.105840197330944435e-02,-5.190258146191777111e-02,7.581232370105932261e-02,2.351147872427557239e-02,7.518736330175090216e-03,-4.667496214790601422e-02,-4.320790486749818970e-02,1.326794263339955114e-02,8.454350692518946067e-03,-1.204838800601420491e-02,-1.844134960804850315e-02,-3.138644775349701266e-02
-1.720593331412917718e-02,-9.885340525887544288e-04,-3.466755984815995950e-02,3.415625120280875449e-02,-6.488745093590564395e-02,-1.527946444008602793e-02,-3.075035106693128125e-03,1.664780160674299292e-02,1.277619970114042547e-02,-2.365753808598860186e-05,-1.369758497699527337e-02,9.130280699723179738e-02,1.130661983138447207e-02,-6.797444412458659990e-02,1.420612878681439678e-02,2.847752335905754870e-02,9.849284758282396759e-03,-2.662130256415267890e-02,-5.466306871239516585e-02,-5.316318018967723658e-03,-5.171638142668039811e-03,-6.080342094365749628e-02,-1.620202227697845748e-02,2.890195036813381427e-02,5.898758380086543442e-03,2.314673513504983404e-02,5.426402729066138325e-02,6.081559515296864477e-02,-3.339682143384505725e-02,-1.832887699918562749e-02,-3.447073724286753987e-02,-5.274658915441782225e-02,2.907018624650591770e-02,-4.209064340112829428e-02,5.678547860625255544e-02,-1.910163598554736469e-02,1.888853132040554592e-02,2.934382456391738600e-02,2.291275178917639641e-02,6.421339983886346914e-02,-2.445751502395851137e-02,5.778228210021746358e-02,-6.698629206258446822e-02,2.143360687697207223e-02,6.705239950595930087e-02,-2.680689902738829164e-02,-1.070507387207071844e-02,-1.618719933274165301e-02,-2.683682220482981867e-03,-3.504731050070870185e-02,3.643924274374949618e-02,1.821226500417459865e-03,-2.911637490008027115e-02,1.822217998941021849e-02,-4.290777955973834601e-02,-1.700121203593580113e-02,4.970469628084529627e-03,-5.838602548854366064e-04,1.553062363248366474e-02,4.292213415313457514e-02,3.234401774498169013e-02,-4.819331120201610433e-03,1.436335344843069853e-03,9.616053780693132810e-03,-2.774177385504512580e-02,-1.289075258100820867e-02,2.110090245267293857e-02,7.078666834733347846e-02,-1.668831346045908468e-03,-1.748174621420196112e-02,1.611226340518615019e-02,-6.524358104060910823e-02,-1.874294336182475568e-02,-5.139477774029767299e-02,3.565166667480344082e-02,2.720939971232547421e-03,5.632966897365596646e-04,-1.761605216548806432e-02,-1.648824846999174740e-02,3.086818486201291754e-03,-4.800474021768338234e-02,8.471469063843257985e-02,-3.169409921773130162e-02,7.134076541592130130e-03,2.459330886492936373e-03,5.163334917448982736e-02,-2.121889844410925277e-02,2.957377449985294782e-02,4.959585583918667967e-02,9.812709535734414484e-03,-6.306641554914922676e-02,-2.691024540173734755e-02,4.311309268965239638e-02,3.683189512240009345e-02,-3.683583063427384695e-03,2.231909423125501626e-02,5.656707719515521350e-03,-5.381926603659215741e-02,-4.479083573373166677e-03,9.464099252641669860e-03,-3.322820929553457758e-02,8.017977102955877247e-03,2.339718680699471101e-02,4.655458021579468586e-02,5.947119277831876966e-02,1.817764964578960293e-02,-4.046426598727817514e-02,-5.548554565193886297e-03,-4.514405897744299540e-02,1.775443058003891086e-02,-3.200392108556131265e-02,-2.451289141512731987e-02,-2.090394892956671732e-02,2.478135473704698097e-02,-1.799739261204943595e-03,-3.867791811537297630e-03,1.134146290891150516e-02,5.895232545598906582e-03,9.622736460936177905e-03,3.374051962527388482e-02,-1.405530177290728079e-02,1.292101392806077262e-02,8.438725363433395577e-03,3.109303955012993059e-03,1.640869764776438020e-02,-4.944660963941873572e-02,3.016978986074448504e-02,-4.500285963101043063e-02,-5.448204431461698728e-03,7.278916396869892656e-05,8.667905355153144795e-03,2.447718771592046968e-03,1.381127334363442712e-02,2.721018615799154468e-04,6.128656230918532594e-02,2.397606452061336758e-03,5.746093652847359366e-03,3.833720120095816808e-02,2.219197003877165786e-02,-2.846185698755363327e-02,-4.864875974977513062e-03,-4.610475838591351211e-02,-3.594143254431601819e-02,-3.729151796614971898e-02,-1.359321304322710228e-02,-3.201081660178184407e-02,-8.344581801691368025e-03,3.603750107452228374e-02,2.409414161452979458e-02,-2.969588222775026987e-02,3.308523678328121470e-02,-2.946659162454193584e-02,1.689327966956511579e-02,3.131843692461220349e-03,4.841869895388795086e-02,-3.598215777438720786e-02,6.516075428222346116e-03,6.442705471734301581e-02,1.293383110555240472e-03,1.828975844436475304e-02,-4.627806567641710306e-02,4.315407917758228712e-02,2.394869113895810309e-02,9.179923360372672925e-02,-4.431468738511693678e-02,1.030345981699679232e-02,-6.458981376627635773e-02,-1.177786450791787690e-02,-3.481248526376146124e-02,-1.412332628015639316e-02,-1.162263811625779790e-03,-1.183380063151849571e-02,-6.360130135001727802e-02,7.617767737691766294e-02,-6.747394849622597411e-03,1.079640949546615755e-02,3.658030769719813197e-02,-2.481687080406343865e-02,1.471338069440565263e-02,-4.828803321201279725e-02,-4.626770363345589221e-02,2.586502489074752557e-03,7.922266144559994908e-03,-8.374249687470488798e-03,1.213342725487381694e-02,2.948435440693292914e-02,4.169964062706602026e-02,-4.190385501286295923e-03,-5.777519778941999501e-02,1.514845365848924738e-04,5.981766153658515939e-02,7.707436988682462957e-03,-4.345459275897104075e-03,-1.774783824502386767e-02,-3.323763426879335764e-02,4.813911408214294196e-02,-4.620862808791299098e-02,8.419343833854285239e-03,-1.027362728667984698e-02,1.528958025272855563e-02,-2.385285829649535713e-02,7.571006616628377615e-03,1.454353723645538179e-02,-6.401634690553902919e-03,2.635927814524798452e-03,-2.596331225695049788e-02,3.631455488734468273e-02,1.806702944568938998e-02,-1.932420015066663860e-02,4.937247171788577971e-02,8.365552245728831438e-02,2.762745892822831423e-02,2.245010661273439539e-02,4.776767320954929813e-02,1.639078949305252872e-02,-5.845167371044509425e-02,-8.622971907189181523e-03,4.543475194441478487e-03,1.654285078500313325e-02,4.843011861242719866e-03,3.410773320153046018e-02,1.830736108551949543e-02,1.292095971491793484e-02,-1.469095533460743584e-02,-6.001278153509741198e-02,2.337703386682123824e-02,-3.226881502576826183e-02,2.122870739539302332e-02,-1.597778034717863352e-02,-1.556850669854520884e-02,-6.756311280070971537e-02,5.288170070965626107e-02,1.631769507487322926e-02,-3.101084151983163339e-02,-3.838263469581549431e-02,-2.129542735334748887e-02,3.690068843232017365e-02,-3.411313262780336919e-02,-1.229015592308579236e-02,9.330677856833015024e-03,3.900576284440885472e-02,-2.174238647481855843e-02,-5.520255642973102839e-02,1.910775179019342032e-02,-3.302399296645041477e-02,4.047911555074475143e-02,-8.826191251201530308e-02,6.516109078704533653e-02,-1.486717315162135004e-02,-6.032386029222239904e-03,-1.612768234824039915e-02,7.555552569078216596e-02,2.621954558498902632e-02,1.254381106226426165e-02,3.271831684934892875e-02,1.110001241492555163e-02
2.545299818154653226e-02,-2.611382213324602714e-02,2.256768949016854306e-02,-1.323650350523508830e-02,5.075021041458846471e-02,-6.054870586969389457e-02,-4.711358479825926947e-03,-4.878190081743080664e-02,-2.764791917068256874e-02,-9.467210321954589499e-04,9.395693085637851077e-03,1.477715078291157343e-02,-6.051044456285502304e-02,-5.921835784400369951e-02,-2.562102985967055005e-02,-6.024233564921072787e-02,-4.442678119115466007e-03,4.123910110009992858e-02,2.694948736510416679e-02,-3.887585554774076330e-02,-5.236910180206287395e-03,2.460535093490393704e-02,-3.765613611304136077e-02,-3.440156312485804363e-02,-4.848630528364186731e-02,-6.296303425628749229e-02,5.555119036836501933e-02,-8.684019957719727595e-03,2.717576645368744229e-02,-1.765070944912082440e-02,-3.526866849688500144e-02,3.127473103956567718e-03,-2.509934626496563778e-02,2.083921323226710365e-02,1.125172211152692357e-02,-1.977855226089156662e-02,-1.025007815265677538e-02,-2.878262224640427969e-02,1.936917917585018883e-02,2.884465962777020900e-02,4.052418316945373411e-02,-4.533069062801835941e-02,3.547696019730869205e-02,2.086705295954404890e-02,-1.076480006514995459e-02,2.945547727771739496e-02,-9.941790948799444222e-03,9.927554533014283644e-02,-1.482451752065814740e-02,9.232555245440202812e-03,3.592162557648806431e-02,4.162005298992687424e-02,-2.994562693975046097e-02,1.414263712077337698e-02,-1.283064413008914474e-02,8.974466699643909168e-03,6.429939885165439351e-02,1.510559749966496924e-02,1.126503455771793102e-02,2.835751572535866183e-02,-6.403308725964194925e-02,-4.084867989322675530e-02,-1.715307914848709925e-02,2.719947052991491740e-02,-2.201900502958366486e-03,2.662476440428293914e-02,3.641129907749580952e-02,-2.536102965520695487e-02,5.685521122578571229e-03,-1.108534406760794920e-02,2.893904837784638112e-02,8.786077753041673932e-03,-1.961166126978043395e-03,2.173273653314881232e-03,-1.313964488010582743e-02,3.158566234600376083e-02,-1.049733863099538457e-02,4.360492309187440074e-03,5.169003540114409066e-03,-3.715980189667016792e-02,-1.231321807559190851e-02,7.829270998107384222e-03,2.168259339114950168e-02,-2.966124050609616342e-02,-1.640739155415255404e-02,4.153053258748564541e-02,-1.085672660238643471e-02,-5.035832720735282722e-03,5.598467874312877506e-03,-8.911428310972214009e-03,-2.327748906170554535e-03,-2.335748307088812009e-02,2.329508239473212713e-02,3.025906831992422087e-03,-2.625238281386218717e-02,2.746096707559875921e-02,1.142467472821777873e-02,1.197984321265571118e-02,1.175620677940016241e-02,-1.303230816961646957e-02,3.493167078325735975e-02,-4.992100837092468268e-02,7.143373416772250128e-03,-4.799479366233346672e-02,-1.225248619625541290e-02,1.594902523633914826e-02,5.474364416900120989e-02,-7.157939719549771644e-03,5.566453916583192357e-02,4.949852984701681030e-02,-3.634054009632985832e-02,-8.484884541317188819e-03,-3.246197666159844879e-03,3.208374048283971908e-02,3.763672644749038038e-02,-6.251713501716668620e-02,-2.528364929336187131e-02,2.095821474610112378e-03,3.879817664636591237e-03,-3.726265835440401714e-02,9.153480655865946919e-03,-3.409035017650523247e-02,5.356294840512742031e-03,1.257165150195143407e-03,3.246450629731798682e-02,-5.865537527587670261e-03,-1.430928710865378255e-02,-1.711921589229301738e-02,-5.830898555606481293e-02,-1.093123479399360845e-02,1.063545199109735273e-01,1.267926692330600437e-02,-5.103002357576075926e-02,-4.508629982578861266e-03,2.343874299333267852e-02,1.731186536055075512e-02,1.653743051345864939e-02,1.544992469373272607e-02,2.833193939143014914e-02,2.763295078398718754e-02,-5.469141451848906488e-02,-3.423700972333103276e-02,3.162662216644563512e-02,-5.120851196523418247e-02,-1.885362566204699594e-02,3.450909377075241785e-02,-3.121254025482619876e-02,-1.948354367264099052e-02,4.291578614179938911e-02,-1.314624767096518078e-02,-2.961290081867581914e-02,9.352253614231845983e-04,3.796262184724319942e-03,2.511223988046775921e-02,3.260542553737457577e-02,-2.287728363258214465e-02,-6.754962450042441280e-02,-3.755804438022163766e-02,-8.272835818933040389e-03,-7.187582455279491710e-03,-1.194513384939439524e-02,-3.279489335201268146e-02,-4.110780740728278010e-02,-1.985411014683174241e-02,9.706529598200674958e-03,2.130974679005949793e-02,-2.104073549406967111e-03,-2.950141971716876629e-02,-3.401739157178584883e-02,-8.827365207845520520e-03,6.189935093685200798e-03,-1.303013425248321540e-02,5.198538583891929542e-03,-1.712961365761634866e-02,4.867130952156071416e-02,3.723386419511181405e-02,3.542736995509872342e-03,4.942295257290944127e-02,7.338238597506295535e-02,1.531674378036561313e-02,1.920500626555385337e-02,-1.321586906875081352e-03,1.618252045663949937e-02,-5.495777479278695157e-03,-5.894241232808433012e-02,3.894036363123588168e-02,-3.039099202330180008e-02,-4.093064754705493663e-02,1.823082242832323435e-03,-1.862710689027198205e-02,-3.708400258098639574e-02,4.541144034914183086e-03,5.799803453576301594e-03,7.573143861735175120e-02,-4.675683329932903837e-02,4.599598773488620951e-02,-1.664344166193148719e-02,-4.104418384670936032e-03,-2.949517446577185412e-02,-6.557451218858497029e-03,-2.575566343482302636e-02,-4.573079901565439004e-02,4.625561172530722603e-02,-2.782302488592962655e-02,7.555637482636720637e-02,3.586473682776730038e-02,3.548438390559273403e-02,4.579864365769623774e-02,2.461668494023794285e-02,-3.613010078472242426e-02,2.843752690021703403e-02,2.950525623584186047e-02,4.671121097501293451e-02,7.919428073920651776e-03,-3.181948684723280574e-02,8.761566638562536327e-03,6.371495523667385086e-03,-1.433747673285675622e-02,3.717497832174647410e-02,-2.813702844695024560e-02,-4.197218671132928874e-02,-1.883282057847556271e-02,5.842580537513413635e-02,7.184570245001234944e-03,-2.868867536613519884e-02,1.961801218737543873e-02,-5.835960701003816559e-02,-5.216316486663601787e-02,3.020049379864568270e-02,1.197326436741060450e-02,1.337787890558179808e-02,9.454660456175153355e-03,-1.305429643870318918e-03,-8.144520527870869123e-03,1.906306601654495642e-02,5.575264790316964564e-02,3.125804791127765464e-02,2.530606974943804682e-02,2.726538147505621831e-02,-1.024308975434686658e-02,-3.635330513527144924e-02,4.662015016879809959e-02,4.320639647632150415e-03,-1.081154085718935044e-02,-8.004628802419677669e-02,-2.682143552611777199e-02,-5.529290235321396990e-02,-1.627310924894796729e-02,8.024529502943709112e-04,5.977400428254937836e-02,5.582123473383802242e-02,-2.912670678129160654e-02,1.531758629081106035e-02,3.484063122811618257e-02,-1.627771850261688913e-02,1.359391480265824577e-02
-3.184548335929094504e-02,-4.588725724185208077e-02,1.745238226587773889e-02,-7.777784417233333213e-03,1.096879486749322008e-02,3.453671928835611027e-02,6.093995467708331754e-03,3.461360385782843996e-02,4.809425110921775742e-02,1.485380374353686625e-02,-4.043617206068955694e-02,-1.078352212723337339e-02,5.467688519160336311e-03,-8.108741944239000396e-03,-1.499012734501157552e-02,-9.900458076967084617e-03,1.916013630590666927e-02,-2.845260536692427802e-02,3.203165128779193738e-02,3.916007662521001076e-02,1.755338969137356167e-02,-2.386050594129714847e-02,-3.421758140547315197e-02,-1.871981800751387412e-02,1.640672525604369020e-02,-1.705915510057299037e-02,-3.190917210995386499e-02,-1.016218531020005207e-02,1.189855689628916725e-02,3.222863504703783830e-03,-1.802951674471912555e-02,-1.689496979151194900e-02,1.162305257644086383e-02,-2.356778335313537351e-02,1.870193508265119431e-02,-2.028361727507458495e-02,-1.519260560374958817e-02,-3.716661672008737816e-02,-2.012706882556074273e-02,-2.926199708218931231e-02,2.799912711054385744e-02,-2.554208881167863154e-02,7.972763401583017823e-04,-6.111780084059664428e-03,2.324808997030405194e-02,2.303611333439087305e-02,-9.694064128745771489e-03,3.835519885878534152e-02,4.974592153387665319e-03,-2.218011355604057599e-02,-1.363221108946308796e-02,-2.648370229733932116e-02,-2.745955809023128621e-02,1.208515939977247364e-02,-5.104537187164936290e-02,-2.315840568648860204e-03,-6.592297664007022544e-03,4.724882974384323614e-02,3.015987042240168489e-02,2.754572833371182056e-02,1.664687294224052524e-02,9.949162003994184433e-03,-1.697575937882946084e-02,1.232251657657451593e-02,3.517158911211545717e-03,6.458167239770494375e-04,7.894231214026249666e-03,-2.974778389553544341e-03,-1.309113804291425591e-02,1.711803080461536328e-02,-4.016293137822911363e-02,-9.067019889083004214e-03,6.715935601467865057e-02,3.425866177971682858e-02,2.270207537493819025e-02,-1.243629926110250208e-02,-6.880270775691266216e-02,-3.143016685191003801e-02,1.740051061969388226e-03,-9.660514492631744679e-03,2.394312951827128055e-02,-4.483355023189618260e-02,-2.785053426748937758e-02,-1.166017514675064815e-01,-2.677183377705712186e-02,3.162735943024879565e-02,-7.221941885616861914e-03,-7.021932977130777853e-02,-3.554900999726831601e-02,3.796865120997078291e-02,1.732108388007934721e-02,-1.764364046538119402e-02,-8.147316200323696800e-03,-4.767888811719268871e-02,-1.483019753082623002e-02,-2.264890085386597751e-02,-2.752333279519720080e-02,2.898072567564830004e-02,1.125729529515948416e-02,-1.470582052897536490e-02,1.014284440289366443e-02,-5.523749046263155956e-04,3.380067656709639240e-02,-4.562689388342092839e-02,3.007374477434902188e-02,-4.864480204333113816e-02,8.816290634465064752e-03,-1.805317512590285875e-02,7.335635379951623188e-04,1.400696901215435150e-02,1.422376907597001569e-02,1.894514799001352501e-02,7.122580420638693899e-02,-5.223200791671317803e-03,-1.983554267330036452e-02,6.046718515384411768e-03,2.646538559722435777e-02,4.388443862896353881e-02,6.658082501107650229e-03,3.830796072029205024e-02,-1.647841802602347319e-02,-1.020186339789705063e-02,2.748535352883401534e-02,3.446181775145083954e-03,1.971730909943418888e-02,5.394701897294424536e-03,3.573422898003476844e-02,1.532907998629625540e-02,1.368187426318886318e-02,1.946806325463872403e-02,-2.059048529705750918e-02,-1.956190785070294202e-02,2.621105171166026107e-02,-8.475136113763688875e-03,-2.067833345998932107e-02,-1.496380939343204715e-02,-1.803739204862018011e-02,-2.688681897288255213e-02,-1.975726917812808091e-03,-1.947800615824534301e-02,1.244333289526997066e-02,1.362357678502354973e-02,1.357062336163298612e-02,5.767169719214849943e-03,1.060486519679126709e-02,3.502007960507060730e-02,1.344175470945303645e-02,1.124949019048512855e-02,-3.267261517934519095e-03,-1.998781937592376476e-02,2.989566464140706523e-02,1.945788366004436122e-03,3.419112883258551561e-02,-3.030963696437845301e-02,-2.565913173870634778e-02,-1.899748412179222759e-02,-8.192844633424598705e-03,-1.872483758399761875e-02,-6.816306286763210674e-03,-4.219190066002145856e-02,9.411474936058979862e-03,-2.295109051321663970e-03,1.230691178505324661e-02,1.633691477944470768e-02,-1.610819958969127164e-02,-3.431522851589091649e-02,-4.263740188676140574e-02,-4.325186373854657262e-03,-5.625723214201178157e-02,6.583639589984766061e-02,9.277269033107523113e-03,-1.261729395447253564e-02,-7.306866098003583082e-03,5.516127565559841850e-02,2.740776800094762294e-02,-3.322966129270949094e-03,-6.029754597568824301e-03,6.549803427629482047e-03,2.373369620313484779e-02,2.733033794408002912e-02,-6.515136069909012451e-02,-4.728074327459907272e-02,-5.885074083554361901e-02,-1.504572572774219357e-03,1.145648890136538589e-02,-1.422383325853129031e-04,-4.721156342153252222e-02,1.303200800876991696e-03,-5.799712761721529004e-03,1.330373657064590730e-02,1.037146046767750858e-02,-1.824633317996572288e-02,9.948643202221886875e-03,-3.360989979686089535e-02,3.431822557881143709e-02,2.777474689450571549e-02,4.122292246421869338e-02,-7.675511896707714471e-03,4.455362489218876385e-03,3.828980901675998333e-02,2.552199890073161836e-02,3.283429635442987327e-02,1.041743635135262622e-02,1.524348914294797533e-02,-2.097838901027098552e-02,1.368811093972670083e-02,-7.718654865377565320e-04,6.725012360287782945e-03,-9.615061784023102784e-03,-1.096797155599219540e-03,1.464079811060018700e-02,-1.125000993038038216e-03,-5.703175934521945156e-02,3.705972349528072803e-04,-1.198957634323780802e-02,-3.666919447132007889e-03,-3.483858450121392336e-02,-2.258052660300350831e-02,1.821633360318946357e-03,3.978817209828195561e-03,-4.252216460832140832e-02,2.675643984436265610e-02,9.421212162147284130e-02,-3.507695857300725806e-02,6.745385327804343141e-03,1.857596509675681073e-02,3.845193876194839822e-02,6.507096687565226689e-02,5.562664785203835088e-02,-3.920270031453803976e-03,2.004812616936899050e-02,3.371294065740380874e-02,3.965804911337728750e-02,-4.705708232281686360e-02,4.876931878286691613e-02,-4.385665684801241283e-03,2.515285863510686309e-02,1.815944660830369831e-02,-1.185938438544001557e-02,6.120717606168441655e-02,-2.618094738235821756e-02,-3.683415538703817271e-02,2.146863917549971315e-02,-3.770116083077719189e-03,-8.114390508909977498e-03,1.977929680863101461e-02,9.414771127602322709e-02,-1.312265804511350727e-02,1.632730576012585144e-02,7.338907433535748516e-03,2.108727166385169008e-02,-2.855375298592163422e-02,4.799230407094519368e-02,1.796635495580143141e-02,4.532767711898578328e-03,3.508396948670037402e-02
3.956037921293168586e-02,2.770776768136970665e-03,-2.199378551521842529e-02,-2.445799136540233870e-02,-1.532219009578177082e-02,5.895752276251484819e-02,-4.336573754557144361e-02,1.272547900815624265e-02,-7.846749379320072659e-02,-1.909450781763502927e-02,1.649061468748507300e-02,1.214362995364219600e-02,7.933014814159197042e-03,-1.458131637752287622e-02,-3.542796937883065794e-02,2.936719566478407113e-03,-1.988846652165707912e-02,4.217021951833924663e-03,-2.022350271261222007e-02,2.610609572736644762e-02,2.640823034770251824e-03,-2.132485615041042337e-02,-6.305896487287245347e-03,2.518457518858651777e-03,5.157333527115124522e-02,2.126879106125954735e-03,5.343515774703157598e-03,-4.191530358697187486e-02,7.164247141486919076e-04,2.325254406504505614e-02,-5.289672252205425418e-03,2.310584374750407344e-02,-4.021064759989042420e-02,1.754360554419278490e-02,-5.456574776198678742e-03,-7.085833101845075144e-02,-3.661900025648708035e-02,2.669142121052973417e-03,-2.851632603837533572e-02,1.792780092083346571e-02,2.184865332616231157e-02,5.471231875244907811e-02,-2.684605650410502864e-02,-3.936079570464544319e-02,-2.884107899129925365e-02,1.118835537167396817e-02,6.175582065339716049e-03,-1.742449754672108220e-02,-4.113689693985466550e-03,2.972608617187966554e-02,-3.929616627706244980e-02,-4.416366547772388775e-03,-1.458563789597198089e-02,1.765242178389163710e-02,-7.024398544115256597e-03,8.554585293580711791e-03,2.357368041358070057e-02,-1.885969076044251291e-02,-3.328925829674448528e-02,2.776941066622832903e-03,3.638230156908567325e-02,4.086932014772183541e-02,1.626260427387273347e-02,-5.935648908158690923e-02,-1.950341766010530234e-02,-1.702943145548970957e-02,3.567511309002019404e-02,2.900831800889279791e-02,-8.514763838855091138e-03,-2.476555985024188680e-02,-3.482415792653679315e-02,-4.012348873458068677e-03,2.387565080999627318e-02,2.133966357166173968e-03,4.588309989931879142e-03,-2.903186358145821641e-02,3.131010784324018970e-02,-2.358166462652146189e-02,-1.536051805549482584e-02,2.132261215537066892e-02,3.333000795103130409e-02,-4.450754045985117965e-03,5.894277154592887646e-02,-3.362763995956460222e-02,-1.601685171040918843e-02,6.784084670352641573e-03,1.609604303135779568e-02,-1.538555134889088918e-02,-7.309450445235408760e-03,3.249831522514205762e-02,3.207849304385716055e-02,2.530620471791322421e-02,3.097428083671188714e-02,-1.994167800880343108e-02,2.109990005271034433e-02,-7.465866768911905149e-02,2.607253710890270956e-02,6.513504535823270991e-03,1.441816589479214157e-02,2.081634468781308218e-03,5.237798550250955670e-02,3.254128993357723043e-02,2.666433126468742074e-02,-8.835550508817237650e-03,-1.094127069889675764e-02,-2.881104226534021359e-02,1.934083856385386546e-02,-3.904840047005503356e-03,3.369562983458963563e-03,5.060772229467576377e-02,5.054390383646234323e-03,3.123804028797616192e-02,3.330085401789674437e-02,7.772341935264640359e-03,-2.647476937155977816e-02,-8.338825947953662845e-03,1.697755637645213464e-02,5.911382014432655513e-02,-5.650056310929878894e-02,-3.106219406617234668e-02,-1.829120870005998892e-02,1.474354967642145693e-02,2.882175661093165642e-02,-4.566463858557384681e-02,-5.850884663971808730e-02,4.607124968636075457e-02,2.018157766574283501e-02,-1.377068706650871714e-02,-7.824190600547992593e-04,4.741863251232031340e-02,-5.064160345556909665e-02,9.953346697501757809e-03,-2.962308757183478719e-02,-7.965805274640514605e-03,-3.586595767324777216e-03,-1.469533694669433385e-02,1.003313615874364996e-02,1.724552691697514920e-02,-2.886784400466153519e-02,5.455367609094839698e-02,-2.940256077088139117e-02,3.116287764086753467e-02,-1.922915694410610998e-02,-1.206517741498697692e-02,-7.367813112078751281e-02,1.487247273407368712e-03,2.101344365178501802e-02,1.122437512714325944e-02,7.603931654349199362e-03,3.087547979361170494e-02,-2.511555797393049891e-02,9.799972228239645089e-02,-1.179217274625596855e-02,5.979894877282778028e-03,5.713404941318487446e-02,1.092664862751041577e-02,4.332024152352580496e-03,1.277333136686210208e-02,3.981498478464302881e-03,8.341837168431679578e-03,-2.960202070574271746e-02,-9.408866614857678765e-03,-1.453578088781461511e-02,6.593955129601176447e-03,2.320130989638526445e-02,1.014076465521219876e-02,-1.728923524991964056e-02,-2.173162852049755067e-02,-1.392633369788684808e-02,-5.158994502943992783e-02,7.134577379132744750e-03,-1.813306998517090485e-02,7.036999530321249967e-03,-9.081357408143567525e-03,6.055933699932340014e-02,-3.329527360161757543e-02,3.773149080989422754e-02,-1.137410925480022462e-02,2.838995477271561915e-02,2.705785802702122267e-02,-1.401054243863643183e-02,4.331449570484031258e-02,-4.835725098267800934e-03,6.316452057930231102e-03,-1.573009949277960704e-03,4.102983359247132367e-02,-5.176280404305233507e-02,4.521867346578706953e-02,7.090884829539984002e-03,1.009745783959286811e-02,-5.851004927361270341e-02,-4.727139394354910699e-03,-1.580141108846758527e-02,-1.973679848885885948e-02,3.471345546055133735e-02,5.857222652275852204e-02,1.374546903650789714e-02,-5.520387903462231627e-02,3.607063514609819277e-02,1.436828601843360758e-03,-2.682501102219096017e-02,-9.782339337555795086e-03,2.860371517508429259e-02,2.760963346267453905e-02,-1.473636492453731482e-02,1.519339440637695014e-02,-3.206735418017891276e-02,-8.013180260547884959e-02,2.491473596476926136e-02,-2.632663229185065040e-02,2.604212609591141647e-02,1.551682329512929504e-02,2.401047650483096457e-02,1.127843264911249782e-02,-5.079720177113739715e-03,2.381135160067515688e-02,-8.499576475516099072e-02,-1.504204865513860540e-03,3.741846968905019211e-03,-2.956992657521133328e-02,-2.598262980863440610e-02,-9.624698741514588207e-02,5.644221325671722883e-02,-1.357804436572558442e-02,1.418829059862749924e-02,4.092053211181197192e-02,1.967849220897342072e-02,1.848873474100950695e-02,-2.143382832934988280e-04,3.275295364439207574e-02,-9.736050944835523621e-03,9.811414374958271969e-03,1.388720228457670722e-02,1.644793488071534179e-02,-2.470286442834558442e-03,1.382306221873650168e-02,-5.942390286578759506e-03,6.442805933451392804e-03,3.289174124190427650e-02,4.519379208656170918e-03,1.358761168268421068e-02,8.628730082095180734e-03,-7.679624928576646477e-03,2.460150781111661647e-02,-9.316526234947899998e-02,-6.523506483095661834e-02,3.152052977983909807e-03,2.625681812398235684e-02,-1.743842166164550874e-03,1.753628397231775035e-02,-2.019811458306876306e-02,-3.204946999455518097e-03,3.373932032302566497e-02,-9.825680497980373782e-03,3.362302075422429759e-02,-3.615042325328671896e-02
1.198721434591094696e-02,3.344533545729857366e-02,-3.036323007994693943e-02,1.753390654430151546e-02,-1.501915231997642645e-02,2.643728487960466875e-02,5.920716755177820451e-02,6.473547047145628008e-02,-1.208716712086495802e-02,1.267225202766161622e-02,5.687011272571130399e-02,-2.021975255072277003e-02,2.513495508669089801e-02,4.629771688492803627e-02,-1.872657839259023876e-02,7.979617639326090639e-02,2.812134003636252225e-02,-1.549100294528054853e-02,1.034872893890224216e-02,-1.616122472577970204e-02,1.951369816222737683e-02,-1.830363963759746790e-02,1.090950007112676673e-02,-1.989570954935189137e-02,5.483832460362246487e-04,3.354687574445181647e-02,-1.600021393923523050e-02,5.548813797624049804e-02,7.606106620685075537e-02,-2.120066733461143521e-02,2.532077955921544984e-02,2.647160174816578365e-02,-2.255083740628545386e-02,-5.911649499992937401e-02,2.336775710305940765e-02,8.360066835863625909e-03,1.654233915924798251e-02,-5.323900208063696814e-03,1.947424538741941019e-02,3.540392902365826350e-02,-1.621764633636902861e-02,7.823252769491499670e-02,-7.858242378450751298e-02,-2.355240446949454294e-02,2.878651470026428669e-02,2.993607344676407073e-02,4.512069217655616249e-02,-3.957766214149363755e-03,1.783684500882876415e-03,-3.034724991189681042e-03,-3.491381773282724744e-03,2.677541141543612196e-02,1.247761531289440229e-02,-9.097578056093682045e-03,-7.822809943186667669e-02,-4.792858791546826883e-03,1.014958204978154291e-03,-7.004548869436467984e-02,-5.300466075751428252e-02,-5.490920859971497488e-03,3.486690014308350266e-02,3.820050711108487207e-02,-1.729539914985948890e-02,2.678481822783978367e-02,-7.936565619992699133e-03,-5.991998737005427289e-03,-1.473446810859692022e-02,3.031631156347527195e-02,-2.462477275745944983e-03,-3.959294245960394421e-02,-6.146253057922660117e-04,-8.059231532876319493e-03,-3.395726402880732547e-02,4.339698161918441321e-02,2.198800947428943345e-02,4.503432108254780408e-02,-4.711346899248309433e-03,-1.588140393274271520e-02,5.785965205663280361e-03,-1.521425985345396803e-02,5.858319494682120640e-03,2.796791792152935469e-02,-3.145019723815820761e-02,-3.017920459015933574e-02,-5.004136335589743495e-02,8.185478591135527185e-03,4.245968215038631310e-02,2.560530469266988213e-02,-7.107722442304953425e-03,3.845795397654813014e-02,2.487468201060737995e-03,1.047423737842464488e-02,-5.225794305352289559e-02,5.672263799968679278e-03,-2.607769440835111877e-02,-4.837783639102432448e-02,1.132267456439522285e-02,4.027728336332024595e-02,3.785502704554992090e-03,1.135019953947036253e-02,-4.287483912828361776e-02,-2.524631290574419484e-02,-2.746026335321945580e-02,-4.057125020388259624e-03,1.123618660280796371e-02,1.314548797626545647e-02,7.540569694559164093e-02,-1.381908775789819632e-02,-5.314991899642158325e-03,4.859872030932764486e-03,8.185567308727999258e-03,1.319127288292419251e-02,-1.166944142124512300e-02,-1.662235318045657273e-02,2.172850937822983809e-03,7.345786892222019339e-04,-5.701406138438663319e-03,8.326070680235265337e-03,-8.891043128657251252e-04,4.775017210504992060e-02,3.189097284153930012e-02,-3.203813965921065848e-02,-3.592837139431558774e-02,-1.888263843338551171e-02,9.956613063100437644e-03,2.896319639130295193e-02,-1.282727599760126284e-02,3.995303715800337802e-02,1.922706711650514974e-02,2.126207867021392972e-02,-3.809082381592229088e-02,5.969547876572212563e-04,2.730075449978599730e-03,3.765706696751229543e-02,2.212425026938434625e-02,1.223554901368707412e-02,3.637881210786238911e-02,-4.342109887203684376e-02,2.749453215779382870e-02,-1.700143294767024818e-02,6.039487237745042730e-02,3.063863983330336258e-02,-4.942568188551907382e-02,-1.090468383609180004e-02,-1.801533190146853772e-02,-2.313230334008182110e-03,-2.638388632875329418e-02,-3.928412784592467955e-02,1.903118715299021227e-02,-1.737485714930999889e-02,-1.005357941405190907e-03,3.162623984829455222e-03,7.668216482847668714e-02,-3.644150541085740963e-02,4.845558246983010242e-03,3.790542607799195218e-02,3.147375287823882262e-02,1.291184822083810309e-02,-1.360360067038129256e-02,-1.159430305854620459e-02,3.522103388336411678e-02,7.462253132859877902e-03,-2.901711228414656854e-02,2.695884192981895522e-02,1.288852910719273312e-02,1.067431154900350468e-02,-2.550587074810285737e-02,-2.002655956947403323e-02,1.081214730339251709e-02,2.229412652679619092e-02,-1.143661848610768965e-02,-3.385687294774141366e-03,2.927865850884977389e-02,-3.359425919007995309e-02,-5.197875488074836861e-03,2.277532942592317648e-03,2.394215141222835047e-02,-3.621326967127835167e-02,2.622305542023173341e-02,-2.746100579914369927e-02,-4.322690239156626486e-03,1.313743289841442889e-02,-1.127888059102239923e-02,-4.181423967757057214e-02,-2.064754438219307264e-02,2.110336695892637334e-03,4.369837132562658447e-03,3.212646892424127903e-02,-6.228463550937499670e-03,4.124346565368457174e-02,2.206739667803561331e-02,-1.300446797069074525e-02,1.206060502909441640e-03,-3.157825370598241286e-03,2.231440740914854629e-02,-1.068414423617234689e-02,-2.610557318857048906e-02,3.626451414543401669e-02,-3.102280904713102319e-02,1.764036712021428352e-02,1.279576571901086361e-02,-1.445448228909845985e-02,-5.193340073038817811e-02,1.867003389647007086e-02,1.748903469222758481e-02,3.544542449900153075e-02,5.533446835808390057e-02,3.098537697974736507e-02,2.384941899103903279e-02,5.792744436013253125e-03,-2.467737376926254153e-02,-3.399108395041646608e-02,2.099477326413404579e-02,1.206445342917459272e-02,6.238884740143831736e-02,7.236796083412301572e-03,3.880981723730350663e-02,-3.055378871624060341e-02,1.790578432244726778e-02,9.673632803631718180e-03,1.619051333727132558e-02,-6.553069815046576145e-03,3.881161711317707153e-03,-1.785459820050143420e-02,-2.738263312382006182e-02,1.123696092817871211e-03,9.239709781876341912e-03,1.439888772738271002e-03,-6.409953706844374877e-02,-1.250488245509572341e-02,-3.539030782309706552e-02,3.946932660183440772e-02,-3.568400247270551301e-02,1.638848447178626808e-02,-1.496584568180885436e-02,2.019588285956359398e-03,7.131925975162338796e-03,3.792498624568808874e-02,-2.211154209043776978e-02,6.797777822760310562e-02,-1.873506168440549832e-02,2.172317521891543868e-02,1.453147396453896914e-02,-4.238787100529130096e-03,-3.209908715204902278e-03,1.423825553195527845e-02,1.691492536317511924e-02,3.107194542012696632e-03,7.816051203156829108e-03,-2.668724616866357049e-02,5.577130835156917515e-02,-4.649601638836590133e-03,-1.648244613256423519e-02,-6.379832808013983191e-03,-1.509510556229958509e-03,-1.724323868815612337e-02
4.842134349809502220e-03,9.253151683381687087e-02,-2.845532396684067114e-02,4.984465137839483306e-02,-4.109651666341348347e-02,6.568984870571843715e-03,3.707902225699965387e-02,-4.561149940106477840e-02,1.263535168565422043e-02,-1.694715760707085281e-02,6.091429223880520660e-02,7.110003065621092744e-02,-8.180044512050942476e-03,-1.720518856605551816e-02,-4.766967499863644653e-02,1.168564832964421110e-02,1.338222611258732021e-02,-2.897732475246617839e-02,6.270905140268019651e-02,-4.152035298836639216e-02,-6.931080703119920847e-03,5.050282313286509617e-02,-3.998733285439364654e-02,2.098655561015019128e-02,-5.373089534339822032e-02,-7.005156828039622342e-03,3.983575528443490665e-02,2.741465246480965720e-02,-1.067202371042952000e-02,-1.369409604068395556e-02,-2.103063362264152858e-02,-2.250051760558783101e-02,1.545766789806525890e-02,-4.431206903403114156e-02,3.513194103400985990e-03,-2.960951829190511253e-02,-1.410268977576495733e-02,-3.272712112511131505e-02,1.515127223499980469e-02,-2.628095070521738533e-02,7.417851557646039200e-03,4.984355402867114704e-02,2.854537796280106829e-02,-3.668908549551573584e-02,2.718678807913492770e-02,-1.755593787282131238e-02,-7.963590677227979850e-03,6.197901565593308751e-03,1.814785400845214322e-02,-3.574639711393531177e-02,6.230386991850472844e-02,6.390507772251471453e-04,2.433809643066967704e-02,-2.201795886168501915e-02,-2.659477170950899985e-02,-4.741976965903144971e-03,-2.334103074021079329e-03,-6.591168373831603373e-03,-9.031600519443742231e-03,7.698098145785013668e-02,4.371846725451688370e-02,-1.521773156062536381e-02,3.450237635088096444e-02,2.309749209175159662e-03,3.421099329241488601e-02,-2.963633489975473628e-02,-1.961822143459589565e-02,-2.109110405119477005e-02,-3.432136220858347797e-02,6.890660897923026572e-03,-2.999948617388505795e-02,-3.202416957989642505e-03,8.214877870351191061e-03,-1.988390962208768861e-02,-4.328086810505207827e-02,-2.478578409189974643e-02,3.215898507692342700e-02,2.300666608645497019e-02,8.875355987470957733e-05,-1.368083415048564067e-02,1.663815493250807732e-03,4.009354064121239264e-02,2.843427189718873704e-02,4.529634921999986172e-03,-2.814167141046805889e-02,-5.457739692277844071e-03,-6.705183338065938230e-06,1.958869481636205806e-02,-2.903654503692450206e-02,1.983883685917423381e-02,2.230020931870901543e-02,4.176599230339836377e-02,5.025063903930458015e-02,1.625525140726422069e-02,-1.584506370257769692e-02,-1.117042880936828034e-02,3.672586765478353527e-02,-8.810541732361955010e-04,-1.454411484643914655e-02,2.118734226391904077e-02,3.991220016414469968e-02,-3.731128639658617095e-03,2.447337055747361365e-02,4.680962018994239138e-02,-4.705891101257007880e-02,-1.097857484092478603e-02,-1.833606353290390817e-02,-1.026346050983780248e-02,-5.227473237288515068e-03,3.079374690538925693e-02,1.467095035598596628e-03,3.719688778273787938e-03,-1.822463092069346452e-02,-3.951042165492663766e-02,-3.166337507207415969e-02,2.581091337973751704e-02,-4.963956257228940155e-02,-4.002768256879143255e-03,-1.843386079296069346e-02,2.777730776169489227e-02,-4.108007796355522129e-02,1.882038908280959238e-02,3.468076839017434493e-02,-4.065037003433748242e-02,-1.846381910014095740e-02,1.021080498113158090e-02,-9.683566730762266025e-03,-7.886122944221893999e-03,-4.725930799641456931e-02,-1.203541599097225807e-02,-3.080381690393566019e-02,-1.127649274921064745e-02,1.448750935381818220e-02,-2.345420627239907380e-02,6.631668847956463664e-02,-2.157935387494107002e-02,2.398952369510047242e-02,-1.256561312410612793e-02,-4.086714041628072142e-02,-4.507630388060195406e-03,3.183097129319392010e-02,3.648573536500134690e-02,2.215521983327295441e-02,-5.103196530124453831e-03,-3.820964217738297836e-02,-1.536298755874834776e-02,-2.978909129120222571e-02,-2.404196297553251593e-02,-4.889341836979012312e-02,-3.707296367051967495e-02,9.415116057084567391e-03,1.733537745104321570e-02,2.195085059598796476e-02,1.509324276482914770e-02,-4.127244937964762682e-03,-1.499388382255449972e-02,-5.524540894155832021e-02,4.382458995660464332e-03,-1.839950011020409851e-02,1.572218882442455792e-02,-3.612408910952140395e-02,7.511109361899272197e-02,-9.101705724713606699e-03,6.504547310898274419e-03,-4.098157558715904286e-02,-2.151023277560267649e-02,3.870597721990296641e-02,9.891331515842096203e-03,3.857255472669174345e-02,-3.827140703864499813e-03,1.138744002128771506e-02,5.230787972783975531e-02,-4.596569848643747985e-02,3.677310243851587140e-02,-2.294725815232043914e-02,5.343225379678871951e-04,-5.167221681548143063e-03,-3.757755560167180819e-02,-7.295230337110836238e-02,-1.226554271204072580e-02,3.840297526603555361e-03,3.323516867712700967e-02,3.311433573512496953e-02,3.581757852513268309e-02,-5.018974916482087101e-02,4.389250830709915709e-03,2.739854953833600892e-02,-4.802447750232549661e-02,2.811093069052355425e-02,-2.165732738052402687e-03,4.289319639317999699e-02,-1.578003308790329462e-02,4.793577796944293451e-02,-4.821655120157274967e-03,-3.041127765097199898e-02,1.802374415167008054e-02,4.152824264364821105e-02,-1.222577584284232190e-03,-4.719231486059610736e-02,-1.094909250466075470e-02,-2.840802770320155143e-02,2.659710046994870347e-02,-3.202899989178902007e-02,7.852622638018225132e-02,-3.449518442704169185e-02,7.536719705140490153e-03,3.087853713523225352e-02,2.014039736534901578e-02,2.795333490747552857e-02,-2.604631864324634047e-02,-6.873021038754395518e-03,5.255538545572727149e-02,1.844429648296111099e-02,-3.255364328453288353e-02,6.552377682224003186e-02,-1.734668126775311403e-02,-4.755490735479461079e-02,2.686636010607838798e-02,8.324358948514125334e-02,2.943139729046538242e-02,5.394196883709209515e-03,3.219210031394404564e-02,3.817545342249633461e-02,2.737075571301972321e-02,-2.052527744435544282e-02,-1.463412070175582752e-02,-6.018100940155436673e-02,-2.599595755724318918e-02,-4.501938415019051537e-02,3.510382266404617896e-02,9.704317350115718166e-03,2.361686605653622354e-04,-2.415677775056619681e-02,7.548036819286840565e-04,2.735203193742324207e-02,-5.615623570965188466e-02,-7.530833677176537733e-03,-1.255079482473704829e-02,3.899297048872440302e-02,-3.602122813368057591e-02,-1.268019540259498860e-02,3.217451997542690022e-03,-4.215775173074091942e-02,-7.102442846395227820e-03,-6.467046880282863175e-02,-6.062580804903401621e-02,3.023410916297319950e-03,-3.189267411318689321e-02,2.463235062787581114e-02,-2.801464782319445027e-02,-3.075334145375655318e-02,-3.281444415237805279e-02,5.072849373891545610e-02,4.542077753284307073e-02,-3.795761233340527729e-02,-2.618348772020335363e-02
8.701141708629825736e-03,7.740385773035150796e-02,4.967982810106400665e-02,7.647039212999723334e-02,1.056816852566406931e-03,1.901844604425900406e-02,-1.656054753546985780e-03,-1.252923381057714086e-02,-5.174338382362787814e-02,3.388886821121175896e-02,6.147809312878262100e-02,-4.182194998918506434e-02,1.109697779907942161e-02,-6.019757864170311411e-03,1.981966770479054105e-02,-2.100128784305646881e-02,2.363918104796585221e-02,-8.840976571876094092e-02,2.192299430480865174e-02,-5.550994115138346841e-02,7.447212760476301652e-03,-2.289207618747494954e-02,2.254207495157731223e-02,-8.836940211489034344e-03,2.088395554408715646e-02,-4.680825939951246961e-02,-7.375017770927146110e-02,-5.064112886616161519e-03,-4.182630304104563435e-02,-1.930120839763848836e-02,1.051565792303876985e-02,-1.723217788384345459e-02,8.778337610267493429e-03,-6.333516122789652203e-02,-1.867454975161546293e-02,2.705792801577936932e-02,-5.062636642065953922e-04,7.276976009182069272e-02,-5.038033998934737107e-02,-7.163569601647663820e-02,-3.204216705056436854e-02,2.891966059884522669e-02,-1.981422283442317838e-03,4.872241072894020059e-03,1.762648069604844450e-02,6.022411115198041814e-02,-3.878100817260791977e-02,-6.982783397215952537e-02,-9.703720385885397301e-03,-2.175789022231752485e-03,6.270691813326888589e-03,4.433619242836901037e-02,1.238688088613789512e-02,4.887513285040672589e-02,8.915241168178990663e-03,8.284015794880606257e-03,1.942413967196529936e-02,3.989826323194567426e-02,-5.330474366088582168e-03,-2.382224368714553481e-02,-1.799710042459219325e-02,2.581142704738639479e-02,2.744943616645307422e-02,1.344960436073102707e-02,-2.588091075473144403e-02,3.527380344160000077e-03,5.434235357618957124e-02,-3.503313993675675336e-02,-7.707358065388499047e-02,3.381310759197730248e-02,-3.202117325208481829e-02,1.208745122255626631e-03,-2.158931415868971943e-02,-2.512446500429207918e-02,-7.205202182728263904e-03,3.790307641183433135e-02,5.926384980882555553e-02,2.967266376138607414e-02,9.783077268973079665e-02,1.596341477900737466e-02,-4.676758911752605663e-02,-8.140321843459405460e-03,2.198300931436624611e-02,3.850567465279192830e-02,-6.054497344338465037e-02,3.583759961452353399e-02,3.994091582457380031e-03,-7.037534957592876325e-03,3.458018889948595576e-02,-4.000787049132129708e-02,-3.808810775607790466e-02,-2.070324745585813697e-03,1.294030746247098670e-02,2.794439351584779643e-02,1.881620479084048642e-02,-2.227941701633125507e-02,6.845262764417034407e-03,-5.021377169461262863e-02,-2.700687584469144489e-02,3.658168115408296037e-03,2.898949222611051785e-02,-1.888837384134472996e-02,2.081342310840080326e-02,6.035044508606835292e-03,3.111733317506652427e-02,-1.878745271971671987e-02,3.503660291485175687e-02,-4.132677051661275136e-02,-3.000798180026811174e-02,-4.593422104823409458e-02,-1.073003429537931416e-02,-1.592592339795573936e-02,-2.818639151679786306e-02,2.092551910768304310e-03,-5.484660344894645018e-02,-3.765421007849188879e-03,-1.956347188824080277e-03,6.138338311232940589e-03,1.392776573696606450e-02,1.233350658594593386e-03,7.983047937680509687e-03,2.175639438006898158e-02,-1.640803390559147576e-02,-1.830435673705274602e-02,2.657954700691209440e-02,-1.273572594611635696e-02,1.752867387085241258e-02,1.258626771064681391e-02,2.514080260486973792e-02,4.623629223653295123e-02,5.101977568856238404e-02,-1.792546318582757467e-02,1.331702078843090969e-02,-7.559212759001424694e-04,4.802403318532748322e-02,1.372368062099874227e-02,3.506099191262430741e-03,-4.376456964583420178e-02,-4.812592013855053474e-02,-9.088165503989486041e-03,3.587819049044149722e-02,4.001952469973385496e-02,-7.467465043087572797e-05,9.834697646830948062e-03,3.908073799329680326e-02,-1.203881913592933124e-02,3.516371226217226715e-03,-3.061786442687006171e-02,2.579116315284537414e-02,-3.465760901931296684e-02,-1.520623751324435245e-02,4.462139802027798724e-02,5.035773997772038935e-02,-3.592799248307607107e-02,6.542722496446162772e-03,-6.184100275914696139e-03,-9.450451613976559168e-03,1.363360162013068158e-02,-1.199571530821677209e-02,2.901975033317218469e-02,5.043218216755114558e-02,5.451054531628811428e-02,1.711825697285429548e-02,7.230055611896496481e-02,1.045367806742368046e-02,3.404374888998122628e-02,1.187519355337046320e-02,-5.522637537321977569e-02,-1.853298821374397762e-02,1.661210525701528259e-02,-8.984160147852994494e-02,1.258506559470963689e-02,-2.275772486278759138e-02,-1.843448208631972771e-02,2.914981289602621480e-03,7.720082445773995480e-03,1.833479207735111416e-02,7.474498993865813512e-02,-1.894729044772419310e-02,3.160212369395488247e-02,5.182254167114334897e-02,2.733899211534284585e-02,5.672836485443024518e-02,-4.357521244508835018e-02,3.704836039668411851e-02,-3.057889508058052493e-03,4.378811087335368613e-02,-3.281069395424457413e-02,3.488970328153898071e-02,-2.341029758966565316e-02,-4.070743275012165749e-03,3.855603539854199346e-02,1.976864183941660219e-02,-7.715101570204051760e-03,-3.243984383282699779e-02,5.038996048108488474e-02,-5.751138759244989185e-02,3.408247507731795856e-02,1.219988150079647990e-02,-1.021981320850408326e-02,-1.256732028266790806e-02,-2.993856799209858657e-02,-2.161442186636650456e-02,4.331382702473290242e-02,2.188626520639609663e-02,5.523211406236339799e-02,4.786041852358717541e-02,1.778810289100232062e-02,-1.956492313181621562e-02,1.285011478664774970e-02,-5.130593388683395845e-02,3.369026568786685771e-02,-9.335328174672228446e-03,1.932188900166541962e-02,5.579916613590629737e-02,-3.919606548007172585e-03,2.431027239180282712e-02,4.394488657088990030e-02,2.185452951021403523e-02,5.120883058528687831e-02,6.687624245844461801e-02,9.928466467901254575e-03,-2.252927786766894744e-03,-2.656427938370044609e-02,5.932124860524559586e-04,-4.210395050297983249e-02,-2.562723383163980836e-02,2.931588509765396117e-02,1.316265213720235923e-02,2.360888874543414645e-02,3.273868449411733439e-02,1.548533840986402767e-02,2.701970509738203623e-03,-8.065298585569709300e-03,5.153143116110825428e-02,2.347223065429928854e-02,-2.536922937206599268e-03,-6.478447323682709133e-03,2.269673870861493858e-02,3.260249046115275967e-02,-4.142495794455422486e-02,4.656591507541309183e-03,1.963705643223561878e-02,1.226144369186581845e-02,4.053962386200233442e-02,9.738321759256138299e-03,6.555777289583845230e-03,-6.329862426793968558e-03,-1.128790324642884278e-02,3.035904078808578446e-02,4.930243952919566991e-02,3.106073727130226683e-03,-1.577599940374536935e-02,-1.431887350968553095e-02,-6.799078180752772538e-02,-2.659140434143190262e-02
3.119184639254979005e-02,7.480125042182959871e-02,1.710259804503843489e-02,3.171582530493161772e-02,-1.452005861687566401e-02,-1.659092053327763591e-02,1.432884276834481274e-03,6.626947394833812566e-02,-2.669866962501466975e-02,-2.210457475226539764e-02,2.136411192356982638e-02,1.038954992400093098e-02,3.132459704499587771e-02,-1.676362862904535664e-02,6.281814841512586324e-03,-2.596765043652047699e-03,7.503085438383091943e-02,-4.173909174608912004e-02,4.909594335738402121e-02,-2.961867105399963469e-03,-3.554561054185598201e-03,-6.388214826022051672e-03,4.327509978057336032e-02,3.102235820029627597e-02,1.355013181795661041e-02,-1.877526549845148773e-02,9.577489141199492864e-03,2.176165260784054117e-02,-2.577400845557151904e-02,2.733296239532678057e-02,-1.134892255704803010e-02,-2.173509247164361752e-02,-4.401584406671391059e-03,-1.659104185064217904e-02,4.156464638704678721e-02,-1.592982161820897776e-03,4.896186829666698478e-03,-4.775056892836772315e-02,9.313913094400012166e-03,-1.794296909016434086e-02,-2.417013745888838341e-02,-3.023813478745184663e-02,1.924190794576063901e-02,-6.207955015767489121e-02,-1.044879673269327458e-01,2.007623657083884225e-02,-8.321714308748975886e-02,2.522067725578065744e-02,2.315294014716511029e-02,1.814251382274005911e-02,1.422862789552957995e-02,2.027807409590571056e-02,-6.457690755704588448e-02,4.198288355412927580e-02,-4.091472900815017709e-03,-3.379518732216948724e-03,-6.190522108990687694e-02,3.498399266428382087e-02,1.112730507857811330e-02,9.790030354934057752e-03,-4.371819052902596592e-02,-6.030702585335162569e-02,-1.207741827858379267e-02,-5.559904791371500510e-02,1.270394855106748988e-02,1.345716655995623720e-02,8.953653699542228617e-03,-6.370468538982894391e-02,3.539461992187333417e-03,-4.260767457836293209e-02,-2.559274660502239979e-02,9.298481695385937135e-03,2.100737021159689369e-02,-1.446693138290678672e-02,-2.601191235616581374e-02,-2.281132098992066926e-02,1.565740299499776902e-02,-8.589035250128063950e-05,-2.755333283355250115e-02,-4.703619734265625241e-02,3.102732474600945756e-02,1.544291009047334129e-02,3.066061736961827461e-02,1.796282940355040103e-02,4.044517864145937697e-02,2.978017537825650152e-02,-1.243145542227326594e-02,6.954789815345056511e-03,-2.306654900220885679e-02,4.506554203993254348e-02,-5.960279955808010181e-04,-2.229799008699040463e-02,2.449864391054845311e-02,3.733501278956554564e-02,-3.596435708676801526e-04,-3.275751080520577108e-03,3.402765343201969578e-02,-7.007755130588414275e-03,2.491365097137909768e-02,1.972093243935612011e-03,5.466031791301671772e-02,-1.173636414486867868e-02,2.997067922322373817e-02,1.059966138769610940e-02,-3.551944062810270808e-02,-7.073367736136649576e-03,2.636785553987108788e-02,3.902042331552321719e-02,-1.566109575161409029e-02,-1.442873857629700229e-03,-6.615061540260371020e-02,7.373025479979330651e-03,6.099041065082707463e-02,-4.218260846880131365e-02,-5.372734580493294942e-02,-3.988256427367411127e-04,-1.088071854617772951e-03,-2.515294195888046966e-02,-4.816861637656009998e-02,-2.959099059698854298e-02,-5.004060298947045349e-02,-4.215815858962307372e-02,-3.148434113500055143e-02,-1.569919546357682882e-02,-1.637068675096874223e-03,-5.647059883376205798e-03,2.188737301161759394e-02,-2.582784751012266386e-02,-4.228861186629109120e-02,2.452760071185590071e-02,-4.326728193111156057e-02,3.491354235246220405e-02,-2.581589523625284904e-02,2.479402532067387019e-02,-3.079912754911518034e-03,-1.304227705563757236e-02,2.882904764792278141e-02,-9.728831325730470658e-03,3.298146957607742819e-02,-2.553407507784940383e-02,-3.683163758519632236e-02,-1.041684203835742048e-02,6.851494468531652351e-03,1.287689962662957183e-02,-2.516328009522333931e-02,-3.577686835766942693e-03,-2.042532691059388214e-02,-1.461613619005715063e-02,-7.635596118848904379e-02,-8.787294199927877386e-03,4.645837523732070096e-02,4.662800523905937661e-02,2.067464082857715241e-02,1.849812334322817678e-02,-3.705817819991055057e-02,8.629141764470112975e-04,3.827876491595567227e-02,-1.015595181185065428e-03,2.323554168945181873e-03,-5.578531941491975815e-03,-3.467024988753731468e-02,-3.751501836397105882e-02,1.810099936103280391e-02,-7.031206856446771403e-02,8.998356372616226825e-03,-2.124316334218501537e-02,-9.844538191170559838e-02,5.269525424051249574e-03,-1.488064542463680973e-02,1.101069978369562628e-02,4.441673972458376994e-03,-1.891854225658244279e-02,-3.077922650964722007e-02,4.011910762725645618e-02,6.539622567741637700e-03,-4.997582390622334891e-02,5.752906855363775591e-04,4.871216793741074864e-03,7.644206606919970448e-02,2.802339315411761164e-02,-1.870693333623908022e-02,8.832759965958033102e-03,3.775812852357312427e-02,-9.600919527016983299e-03,-9.371249020768648852e-03,3.192047806222342299e-03,-2.178857055990242320e-02,-1.066067373141119969e-02,-2.949900192218268304e-03,1.383628942226604840e-02,8.361596707659943450e-03,2.202676028221574149e-03,-1.025300964397732328e-02,2.518165370717235022e-02,-2.974323088526655001e-02,-6.567428542050918194e-03,-1.116415063252362665e-02,-6.156483805544210597e-02,-5.977801313008030554e-02,1.516636469556712809e-02,6.192343771919704481e-04,3.624347384009829476e-02,7.253562231206653332e-02,1.754260829768709146e-02,-1.821307285979367405e-02,-1.271045780526747345e-03,2.052060847461312579e-02,-3.297346724240853098e-03,-2.185609538727657786e-02,5.748132356422917810e-02,6.759830439504710409e-02,5.853428609700575547e-02,-3.266555493277847888e-02,-2.636853522503819838e-02,-2.349427329718944274e-02,-2.036726886505725240e-02,3.058097613495453296e-02,-2.394490155719893737e-02,-1.169495389964991718e-03,-1.949299173916402804e-03,-2.550355912243014792e-02,2.406527572723314579e-02,3.367479811453351346e-02,-1.852461493622933886e-02,-1.190186992141752283e-02,2.005888557528229255e-02,2.834469279811880488e-02,-5.622204417181584637e-04,1.924486929546587871e-02,-4.968479865081962960e-02,-3.158565061263880758e-02,-2.905189711685696521e-02,-2.486000885879331365e-02,8.911537779581809454e-04,3.521081980590583943e-02,2.617974126645293900e-02,-2.044369687860910986e-02,1.633202523280289156e-02,-5.880377480309550986e-02,5.088343597763360891e-03,-8.794732469826413435e-03,-5.862727426436037392e-03,-3.282609950444125013e-02,1.453308609823519316e-03,6.068896005544225508e-02,6.759665849506360513e-02,-6.262629897258046099e-03,-1.831397761271208848e-03,4.293866142449895978e-02,1.942978253568981156e-02,1.323145900479906533e-03,1.772765416022617155e-02,2.808711227077655137e-02,-3.771462462748621791e-02,6.200244296108799527e-03,4.149304051514953601e-02
-5.123025890975269753e-02,-9.180948956781656914e-03,3.242354933287679847e-02,3.867967943581915313e-02,-5.104648675541983288e-02,-1.260289755925490460e-02,-3.597925179819190869e-03,4.312284340498079988e-02,1.049628613519039584e-02,-4.207335761986333994e-02,-2.348253349044733887e-03,2.243868524915743762e-02,8.166725428756703431e-02,1.712647226197728167e-03,2.675117869323253086e-02,-1.366979183008739697e-02,1.988799715440301916e-03,9.386822876804244405e-04,9.128746955997931942e-03,5.378741288291212334e-03,-6.854552297328859317e-03,1.192716317320550133e-02,1.431568927369350833e-02,-3.134702994605561427e-02,-1.993992895575730576e-02,4.809954027978528140e-02,-3.408176300260224584e-02,3.900224298168767506e-02,7.289028847144194551e-03,5.018442979465728010e-02,3.719210295015709655e-02,2.307922407012426985e-02,-3.873200946779540438e-02,4.111117470419825559e-03,1.027422426232963565e-02,3.763933048804871812e-02,-1.498061977706539871e-02,6.533873504216615447e-02,-4.620275095324966053e-02,3.376677760206362941e-03,-3.785303558066634155e-02,-2.718321295215653244e-02,4.235932825229699744e-02,-2.185676076567488746e-02,9.875508589826226258e-02,-1.155220768193190688e-02,7.768538673499521090e-03,-6.340514968705214527e-02,-2.644091933953924764e-02,-2.849844003250277813e-02,3.962642642963370987e-02,-3.966867728598979376e-02,5.467655983716961793e-02,3.178551432123833190e-03,7.504594476633309058e-03,-7.160785399925508748e-03,2.573082374193609925e-02,2.277565395729757788e-02,-2.988151406092926302e-02,1.542490012909116795e-03,3.715549096206484467e-03,6.883264578144898671e-02,1.620295774610732917e-02,1.833961539267287694e-02,-5.813599328291747109e-03,-8.540125654736059613e-03,3.724179610844414318e-02,-7.130710867122570969e-03,-1.498485526190091940e-02,-2.996515783628791660e-02,2.754650786717881272e-02,-4.658371363232668462e-03,-5.966066738469990791e-03,-4.528018595816592912e-02,-2.712665307055219313e-03,2.125800965345179053e-02,-2.835782560594424240e-02,-2.430580889807897743e-02,1.825312091997513542e-02,1.250465597286193331e-02,9.766451507237960614e-03,3.515900766873646111e-02,-4.148187529682556551e-02,4.018957930485442948e-02,3.792327791078884541e-02,-3.423172639565769809e-02,-6.252723613189827868e-03,-1.621821317347370284e-02,-7.147058024515741403e-03,-3.329767171863561026e-02,5.118000541004816273e-02,-1.204396173264665054e-02,2.208102431319503706e-02,1.306382269381780800e-02,-5.082876670335736979e-02,3.045731723439211100e-02,1.402666543585973612e-02,8.411655810945375608e-03,-3.842231521026250735e-02,-4.983519286091011441e-02,-1.355792562008710858e-02,-5.186306460103181151e-03,1.599938235933736491e-02,2.054764300583494449e-02,1.233863213011905657e-02,1.756989597298255421e-02,-2.235360692188503168e-02,1.850175144022769141e-02,-1.815667983653830933e-02,-4.826573390203927477e-02,5.585380335164479536e-03,-1.976248769237734515e-02,-4.516245125794437695e-03,-5.256567049487897297e-02,2.686683554826339859e-03,3.332130679174034882e-02,-1.055589524494460717e-02,4.273734887969397878e-02,2.882370571671005050e-02,6.540347161719119173e-03,1.339084776614649606e-02,-1.451595905890906008e-02,4.496050709881721508e-02,3.267761519958756709e-03,-8.184712677629712996e-03,6.374279971911255525e-03,-5.113506438416487443e-02,2.440833087770959489e-02,-9.976283916272591507e-03,-4.453233564500910877e-04,7.825416935352139114e-02,2.190299921847069231e-02,-2.187032801469302162e-03,-5.134393548413639270e-03,6.327843350940329237e-02,1.263634089673831102e-03,3.159361431225499173e-02,-5.195862068245234860e-02,-2.768936909598930171e-02,6.832098667673748571e-02,4.399933256474763271e-02,-1.970811175070235483e-02,8.410411466650587545e-03,-1.802558595408600573e-03,-1.673750123039473292e-02,-5.384311657407261573e-03,1.804825173427053106e-02,-1.330300537608829388e-02,1.812642319313486142e-02,-3.354058034358070595e-02,-8.576907876737717082e-03,2.077670625500824264e-02,2.721771429051811353e-02,3.330091405388027701e-03,7.741370428887875410e-02,1.258322107783904457e-02,2.603656300524696821e-02,2.027174496166395112e-02,-2.620056805882953546e-02,-6.120960920617535966e-02,-6.392250046626947457e-02,5.381667811263075168e-02,-4.269726501088511560e-03,3.361838181087144217e-02,2.644570394101909347e-02,-5.787871303222981434e-03,-2.856103471464865222e-04,1.051764235478898184e-02,4.603792967572425260e-02,-2.903578837471782262e-02,-6.695411513746908627e-02,-3.669064834342353892e-02,5.492340073766627945e-02,-8.855007067030464321e-03,-4.662693730112795615e-02,1.838431836927443760e-02,2.520568166131978080e-02,-1.215148905363525565e-02,-3.374251718124923749e-02,1.676909358392919894e-02,-2.118823383395790697e-02,-2.315681365388477103e-02,-1.243053574712103468e-02,3.478052378432654277e-03,-3.074503047277498541e-02,4.160054410392426821e-02,4.239769422016015019e-03,-3.987224899731212774e-02,-5.174719869976742576e-02,1.148980395281404970e-02,5.800523526850120265e-02,-2.706756431788336775e-02,2.147085366760995151e-02,-2.642988392196005468e-02,-2.824124063569928220e-02,4.293032819618157470e-02,6.410575152717051806e-02,4.315716220614197740e-02,-5.129513755167215000e-02,-8.735278550892131358e-03,-7.751129544731834992e-03,5.294872034477262485e-02,-6.263215613973342755e-02,-1.471961851752902339e-02,6.129694111552447255e-02,1.490593700974048724e-02,-1.352735885800114210e-02,-2.353016195058445573e-02,-5.114192438090810894e-02,6.126757047774436353e-03,-1.233357431060719094e-02,-2.942930222108532806e-02,5.732277120953137295e-02,-1.052799646921456431e-02,2.501342445317260299e-02,3.355258384000694288e-02,-2.718362630674210634e-02,-7.708540196025303465e-03,1.752822259273106517e-02,2.210690431620116261e-02,5.806936560291611066e-02,-2.080809923915901555e-02,-3.335923648225309901e-02,-1.878308531291299991e-04,4.304392290835231533e-02,1.783344446720259643e-02,-2.557474791016405707e-02,-3.361275684434736344e-02,-7.035810711405261764e-02,4.790027392396616762e-02,-1.574806894635102580e-02,-6.689256468516583364e-03,2.265068270121237126e-02,-1.836244771728376066e-02,7.638276396789095424e-02,-2.523199322915005080e-02,-3.144466521740751246e-04,-4.604775247264188826e-02,-2.603757091698740908e-02,1.536881435175903657e-02,-3.148535820117894651e-02,-1.410052830326436780e-02,-6.924235959369581979e-03,1.234984989377712825e-02,-1.967044336012475220e-02,-6.314806544578598080e-02,-2.528123630833032168e-02,3.474716894488931451e-02,-1.685047342998456307e-02,-1.376623205963868959e-02,2.019542721320922302e-02,-6.786376056483603599e-03,-4.958126212610643180e-02,-1.606993585017576359e-02,2.306941785130081982e-02,7.169828938789893358e-02
-2.738632189928276103e-02,4.927177021178594067e-03,5.549302265552777565e-03,-4.102527220492732489e-03,6.019361503275652558e-02,2.517853665232131638e-02,-2.129540187440948692e-03,4.738097462556137979e-02,-1.245997177647350899e-02,-3.016987766713595184e-02,-1.624680015575940412e-02,1.303179601446389363e-02,1.928757991401396088e-02,-7.905855069556549583e-03,3.756141534059841830e-02,6.583729655426033556e-02,-3.578261306303526929e-02,2.587279216366012292e-04,4.413006841228972466e-02,-3.426439185477986316e-02,-2.230180639311259844e-02,-3.007433001145985024e-02,-2.036511890030973104e-02,-1.579400346436124827e-02,-4.085875739436320431e-02,3.136503398014922617e-02,9.221512048316515137e-03,1.346682930532856239e-02,-2.341068613302859855e-03,8.210421928458475765e-03,2.241371467222174826e-02,4.787406911636755968e-02,-3.317375367996979602e-02,1.257772264108950521e-03,2.857082952073160959e-02,-4.584558598497344428e-02,-1.045900172099033069e-02,8.448940282672770877e-03,-1.314884019905214994e-02,1.709798640624280580e-02,-3.792306181019961669e-02,-1.935805204202191432e-02,3.482410812497784697e-02,5.820980806656539212e-03,2.876794141382506970e-02,4.208085293954066247e-03,3.491443367871236575e-02,-4.040911189844748064e-02,1.846250278554503743e-02,1.023827485965171473e-03,-4.975026534218823923e-04,3.590306486650440831e-02,2.700219851670873378e-03,-5.983023960167602184e-02,-1.658561065022869790e-02,-4.675732779914195530e-02,-4.332882781734245098e-02,-1.610635820044363856e-02,-4.850949444341734864e-04,3.192761140447631513e-02,1.273691302899142633e-02,8.227603395048634430e-03,4.757674238021999957e-02,1.846811379933104014e-02,-8.773313647382808417e-03,2.589895827900923556e-02,3.894704748785407511e-02,4.689970638042624713e-03,-5.312793129739902531e-03,-2.028237068264761647e-02,3.993948468957448164e-03,-4.946959152482902078e-02,-5.602353682746442735e-03,9.657734413183431330e-03,-5.157459344235413266e-03,-1.441432536295618808e-02,-1.053187093280555653e-01,1.779916014046543232e-02,-6.417106206463750462e-02,1.012582241257226415e-02,-8.856899672778897892e-02,1.668540443617349753e-02,-7.226317593138413542e-02,-3.224255257838797711e-02,1.486970420734939381e-02,1.701670684096351360e-02,2.957264111969122589e-02,3.341546105012071360e-02,2.216800196425928321e-02,-1.171388909137464907e-02,-6.751412870290897546e-03,4.567760746347648837e-02,-1.494393053451835776e-02,-1.078713023954971408e-02,-8.703669637192395017e-03,1.141904499528321494e-02,3.329702086992826493e-02,-2.727816737649457063e-02,-7.430405658114664497e-03,2.865642283924723158e-02,2.200284953127251350e-02,-2.588013624615660094e-03,5.674404988003065031e-02,-4.035966600339175279e-03,-1.238301429519528263e-03,-3.449498658901685444e-02,3.657286675475942411e-02,2.550845208406698952e-03,1.184517653461538041e-02,2.149976125493835780e-02,2.865900816108814600e-02,1.497358361492888076e-02,-1.804953792733612243e-03,1.140590228132604828e-02,1.427340911999812334e-02,3.647552169479303941e-02,2.267108419652428056e-02,-2.345088104885657831e-02,4.680754112150481427e-02,3.023660218747377740e-02,-3.913568610711039980e-02,7.571242742589623376e-02,-5.452102657706678086e-04,3.376827999290799021e-02,1.249615418558040932e-02,-3.188184044290839209e-02,4.272008177625739866e-02,4.788893958033447334e-02,-2.242672832638984565e-02,2.334677773660715286e-02,9.006919872801925908e-02,-1.769898303775773243e-02,-2.263603150372661688e-03,1.093921032049876771e-02,2.999641171029738054e-02,-1.304378477014263120e-02,-2.871277910338205022e-02,-2.441053775404791043e-02,-4.586003274378607636e-02,7.499818349175965161e-03,7.766245524140855463e-03,3.883866287885710117e-02,-7.056491071975658225e-02,-2.088918827070513143e-03,-3.238298560244469437e-02,-1.774010035997210244e-02,2.417566438008131313e-02,3.035261920248631326e-02,1.261341145859166566e-03,-1.317479979697978171e-02,-1.518717011361785107e-02,-2.616896278356145578e-02,4.560475830864906682e-02,-3.723768022909138258e-03,3.491357825756156996e-02,3.806138999270602605e-03,-3.669075316360359551e-02,-2.488139587507400691e-02,3.551590701051577509e-02,-3.302877212556598607e-02,-9.055033909236193806e-03,3.634481267191469467e-02,-6.294945041538883845e-02,2.260317049666710904e-02,-3.643885517581413845e-03,-2.524028199252912556e-03,-2.431641756811384752e-02,-1.650170850644832807e-02,-3.370504643510922882e-02,1.606122467671753512e-03,2.986260382130234703e-02,-1.407520321380308255e-02,-8.970150338853405056e-03,-1.654367753126812293e-02,-2.460062227009407118e-02,3.971746607751570381e-03,1.292737950694600483e-03,-3.597509154715133189e-02,6.519753001198745623e-03,6.536039033434717926e-02,-2.702073192353530648e-02,-1.526714969184722603e-02,-1.994475192137996900e-02,2.004455829565078562e-02,-1.709823257507115529e-02,1.360733049981083069e-02,-1.863238954110246065e-02,-3.119058385768660319e-02,3.691997406880465071e-02,-1.925776842793574736e-02,2.646120331048933128e-02,3.250888874247841176e-02,3.617943320159862906e-04,-4.046396467412174958e-02,-6.073965850948033485e-02,-1.482568691754020118e-02,-1.185187679590107498e-02,1.014904584210695772e-02,2.115610789317358409e-02,-1.577098204498235748e-02,1.590937893414968692e-03,4.185904385975284560e-03,-1.127981416958667021e-02,-4.476955265089174046e-03,7.014049556158147812e-03,7.319502813608334650e-03,2.959186530894708446e-04,2.154054835467338752e-02,4.122666603241735735e-03,-2.260695133570091858e-02,-7.249956044451496412e-03,-3.331708260987475967e-02,1.485908283577832591e-02,-6.775816257281215040e-03,5.072913030641375276e-02,-1.627947666780733826e-02,-1.217084902415538870e-02,2.494513664811546030e-02,-3.867655833592112402e-02,-4.161746987770222408e-03,-4.044891441260730323e-03,2.613651671715957851e-03,6.689988630914278644e-02,-2.094661082274918915e-02,6.633145807513039782e-02,-3.024316147228986798e-02,5.574599483181409340e-03,-2.129619126234216786e-02,1.647470640102365394e-02,-6.957205815719406244e-03,-3.323891511241464786e-02,-5.004082281811855944e-03,-3.250585771612894692e-02,1.902425334489108583e-02,2.786012190841860581e-02,2.437335825755426765e-04,1.291608027548280576e-03,1.029971361638075053e-02,9.622292126571400234e-03,-2.305930970939125413e-02,-1.561752065037824017e-02,3.009194613198442475e-02,-7.147632252682330906e-03,7.850385952478482893e-03,2.289563264413377319e-02,6.911231907093088461e-03,4.509977678896716358e-02,-5.189240580179745738e-02,2.178918645025873166e-02,2.749999484344215709e-03,-2.069656698120446101e-02,-1.476515597357406541e-02,-4.453115841962686228e-02,-2.352047840583069635e-02,-2.286143383934582940e-02,4.684424794342774423e-02
