6.625283434540000377e-03,3.969669731543759919e-03,1.942302808762369840e-02,-6.533066483158758708e-02,6.819769192431379690e-02,-3.028203449897120744e-02,-4.443361975891635396e-02,-2.140728481075328260e-02,-1.778728298210241476e-02,7.648563025764743006e-02,-2.423143156003493628e-02,2.077929783173303180e-03,4.675877818439307110e-02,-5.300732416814783743e-02,-4.506637038174640675e-02,8.875229586685248750e-02,3.864415333366057886e-02,8.330600799759146913e-02,1.317700489238501742e-02,-4.995609033271850366e-03,1.961558563388562937e-02,-4.982890625189710654e-02,-3.550753899998965180e-02,-9.504166929362484195e-03,9.867221830202983421e-03,-1.078480218587871478e-02,8.760300453251519681e-02,8.797887775899699420e-03,5.317485753967023804e-02,-7.816782458753267215e-02,-2.673974034257789456e-02,-1.054449101623698877e-02,-5.878547743318798466e-03,-8.613461601691583050e-03,-6.769497905952313876e-02,-3.521089115436070588e-02,-1.273005142966962717e-02,-5.883244933333074689e-02,-5.320346707335606162e-02,6.395453958787682136e-02,-9.331625209830012382e-03,3.925679956341227711e-02,5.832985416253992639e-02,5.378345032130555509e-02,4.037711833458099836e-02,6.992974540389528156e-03,2.900951419183809415e-02,3.078769180518248910e-02,-2.514477806414913350e-02,6.981046432752151254e-02,-4.462507761281814950e-02,3.208383176505766321e-02,-4.928560571210091612e-02,5.011119706689934339e-02,7.180373600624735154e-03,2.132716290830522984e-02,-4.799542019981922758e-02,4.009690764617208913e-02,5.401936552320045493e-02,-4.930426432202798109e-02,-8.451351197844680918e-02,-5.299782736358489219e-03,5.226934730786727060e-03,9.179814490486569445e-03,-1.750368123176605784e-02,6.662993472426484431e-02,5.502801684606875403e-03,4.643010803117062803e-03,2.580873390184756574e-02,-7.313945303071584837e-03,-6.334892536007291630e-02,4.623843689049636496e-02,-6.564375831903716818e-02,-5.203057639947900742e-02,2.740465391769946954e-02,3.254559653417019027e-02,3.195971585454138869e-02,3.140925695976991457e-03,1.252309830597064279e-02,-2.067465627498176264e-02,1.288281069013570701e-01,3.487061716838957964e-02,2.942395121629580446e-02,1.785787022602179988e-02,6.734429975193051421e-02,-3.601113221190765240e-02,2.694982212376175953e-02,3.874775986659280413e-02,-2.775758787256852288e-03,-6.585569229950989645e-02,2.202527642289079518e-02,6.719556982929886235e-02,-1.678223310957657755e-02,3.341789696667924608e-02,7.252512731682056457e-02,2.087427670568663476e-02,2.042890285334333575e-02,-8.212420283186345690e-03,-6.202409799432779397e-02,-4.230512849756945526e-02,-4.583911927453021562e-02,-9.015991955669242636e-03,-1.668135638761047285e-02,6.162767171197468946e-02,-3.443867837730329312e-02,2.926468879782471999e-02,7.654415580302155638e-03,1.628825274249226518e-02,-7.369739793951778084e-02,-7.217872055987084937e-03,-4.093868272301126598e-02,-3.176527535558960891e-02,-3.980686534766075813e-03,1.716841307095909319e-02,-2.774336030777839121e-02,-3.641686188453413520e-02,3.693934963442598030e-02,-2.139656460004626254e-02,-3.875487800929669491e-02,-4.726200764263604331e-02,-5.914448066603073678e-02,-1.321753454513374367e-03,2.887466635469760137e-02,6.950733194693411998e-02,-3.696617449693512247e-02,4.397335813232416263e-02,3.524701322375198981e-02,-5.060199839574609955e-04
5.312429665086080416e-02,1.182675252453103086e-02,3.651171748497990949e-02,-3.469855363449270841e-02,-5.284869819805160934e-02,-8.131049678302857894e-04,7.456960427436715166e-02,-1.463609471401895214e-03,-2.859681071856574539e-02,1.571472378530685068e-02,1.605287658990020919e-02,5.977737225501263130e-02,-8.967487239916095351e-03,1.064493511986507185e-01,4.456204307111145957e-02,-1.798817838158104851e-02,1.223945846427643425e-01,-2.550193563900941124e-02,-3.207384637761146601e-02,8.938570711695974572e-03,-4.367439777993519651e-02,-1.305887530743376698e-02,7.074834224222023571e-02,7.145476850450994954e-02,2.784829871059763678e-02,2.716740988024462025e-02,-1.263466839518986168e-02,-1.375138602467216231e-03,-4.247783036442268068e-02,-3.671284348339892006e-02,2.998922096928963860e-02,-5.736143639091090957e-02,5.476798005740540157e-04,-2.213233091051686544e-02,8.447422744034986664e-02,-6.226293540874493909e-02,-6.047983176318805741e-04,9.874769203141268992e-02,5.118724363244253617e-02,7.016487621929000384e-02,3.099869979281023522e-02,5.255243321571105575e-02,-6.870022356558465326e-02,-4.559559350436149378e-02,-2.586938244153054976e-03,1.444558441304018281e-01,5.753214375801294495e-02,-1.777918903938954451e-02,2.098210857118029335e-02,2.742656922611177300e-02,1.324628083039390281e-01,1.646389955485731693e-02,7.800054431812310229e-02,7.849930449207067132e-03,1.312141403579231320e-02,4.674047824927993894e-02,-3.863620963621208076e-02,4.495931965332996411e-02,-3.854324763909391938e-02,-3.390183239385531101e-03,6.589707632129251924e-02,3.056654225552895773e-02,-5.803624478098307754e-02,-5.761587494267416364e-03,-2.404116906316278168e-02,-1.524955477313548295e-02,-8.503405400392001143e-03,-2.863942671291050401e-02,4.597050742258353834e-02,5.097453034891327728e-02,1.647973892837518300e-02,2.362276410498223567e-02,-2.611345682998027565e-02,-3.170828016508241837e-02,-1.620741369874297705e-02,-1.215732459930989745e-02,1.171302666042179780e-01,-1.015220212201486689e-03,-2.274721490715956099e-02,-8.219551353479913336e-02,6.998056665801817566e-02,-6.301748765483164427e-02,-7.569729620849816043e-02,5.104098374577342723e-02,-1.937041596268592944e-02,-1.465733180011247888e-02,5.488680201723743733e-03,5.700677596167317424e-02,-4.901584729126122475e-02,2.224948431185215861e-02,2.362546919059461265e-02,4.201259743531422092e-02,-3.796327614516324493e-03,1.222069657545986343e-01,3.989882782233683534e-02,2.540291247665723076e-02,1.358996884831771904e-02,-2.051765713182786277e-02,-8.230802693196810627e-02,5.444141550512711369e-03,-4.283952793726155533e-02,2.818450753320239643e-02,7.762203383579779903e-02,-7.348633854883527931e-03,-2.284338898709812465e-02,-6.075945161458038909e-03,-4.864729768898845563e-03,2.652926037097365353e-02,-8.676604222050762760e-02,1.048602138812451262e-01,9.529376493525412717e-02,4.949506856271512073e-02,-3.751152953467176698e-02,-9.146284461991062431e-02,6.970729342638128101e-02,-5.466514820109280191e-04,-3.047362173048190435e-03,-4.006149129998966968e-02,1.529257337349211252e-02,1.320540169658124090e-02,2.672216661516911909e-02,6.094583215955672734e-02,2.352717236837387899e-02,7.185698677391885551e-03,-2.815058257327801572e-02,5.378531623614884322e-02,6.219275971641301075e-03,-6.033125410087181867e-02
-1.398445401775672003e-02,1.010840370236343311e-04,-9.235787220564194155e-02,-1.101402363574760929e-01,5.663710160179102199e-02,-5.510381751255006427e-02,3.302554210605518348e-02,1.395413750108457328e-02,-2.594116469192377789e-02,7.184964923316300434e-02,2.795343807039890258e-02,3.176164688919222434e-02,1.354709483284035135e-03,-2.592215747766919015e-02,-4.097569742733583181e-02,-2.980131869865619565e-02,4.203154753210552874e-02,-3.646071511017631023e-02,5.543780290439156294e-02,4.152244459291317552e-02,-3.514413725123206877e-02,-6.156956744724902814e-02,8.306845297188487909e-02,9.916445385557239034e-02,9.592126840082394745e-02,-6.655874143817859523e-03,6.856894206603281194e-02,2.469346321113386616e-02,-6.235300944416681534e-02,6.124321531767840804e-02,-5.333206822539447722e-02,3.777613741397289199e-02,6.519915693592960582e-02,-5.480884342666044601e-02,5.727789280855941773e-02,1.158711996012374082e-02,-3.420956378867752879e-03,8.895870812225049537e-03,1.266426830419270511e-01,-9.732465822909664929e-03,-2.165982403395739012e-02,-4.547339205868065198e-02,1.137133499668226654e-02,1.060008830680468084e-01,3.086985634776555961e-03,3.504734310428216093e-02,-2.963044227628502817e-04,6.536526024013238068e-02,-2.777152199904333457e-02,-2.938831024010022178e-02,-1.015014386941940905e-01,-4.240774466437988860e-02,-2.357756959938926353e-02,-8.126257219670608711e-02,-1.384967903383836976e-02,3.758520797048903010e-03,-3.011843839640302432e-04,-1.767674213864279045e-03,-1.522274322447351828e-02,-3.250459471804333089e-02,-2.575990258696426050e-03,8.101480700683474923e-02,-6.648376299175515203e-02,4.823710722760855135e-02,-1.109572498556425368e-01,-6.612383550352086969e-02,-4.505418559276085089e-02,-2.104256114854971896e-02,7.902909470922440949e-02,8.836736089751437428e-02,-3.639329949378023593e-02,-3.374208828625155365e-02,1.622501079005476965e-02,-5.707825557853217491e-02,3.769707120620013896e-02,6.944827082724203127e-02,5.020882829811650072e-02,1.605148683987844133e-02,1.243513884781064088e-01,-1.177811230739119787e-02,5.464728261023445340e-03,-3.577586291300382387e-02,2.624970555206604383e-02,4.763182545029323589e-02,8.583437753078146382e-02,-7.077675656289000861e-02,1.707926972358013440e-02,8.540435221562890297e-03,-1.407810679829724076e-02,8.346623594743693419e-02,5.953723886066925736e-03,-8.078635600353973809e-03,4.801625386205815582e-02,2.633596429039424328e-02,7.460186935324035484e-02,-4.607168089368794683e-02,5.666025746161971327e-02,-3.196289861851305675e-02,1.377695657426821207e-01,6.372206700457141992e-02,5.916547830920570322e-02,3.636613606050476122e-02,1.114796117006554704e-01,-3.144397742432519793e-02,6.139110086628177948e-02,-3.915692416240775658e-02,9.025807571675138752e-02,-2.457570248569102694e-02,7.437160409043458431e-02,3.961571829055073740e-02,-4.347746263596238142e-03,-2.817550087405431072e-02,1.718717096927445398e-02,-6.990054476933216243e-02,-1.214312642830070975e-02,-5.904252500833619133e-02,-3.810134508690700417e-02,-5.599508567222912653e-02,5.007646440922160908e-02,-2.153154225450734042e-03,-1.240508983771918122e-01,3.645932727170362458e-02,8.784700580472065701e-03,5.691074486926585990e-02,2.391779416047266557e-02,4.398639568706534664e-02,7.756013037914907815e-02,4.530180681536749576e-02
1.378571424804669598e-01,-2.480339068013640361e-02,1.429646515310557531e-01,-5.284733021629828970e-02,-1.431966270320216526e-02,4.104205366053380322e-02,5.233918776550792150e-03,2.167721600616073774e-02,1.587954450614060403e-02,1.034709611832868303e-01,2.340482185816850774e-02,2.674170810028988002e-02,8.371388584210961298e-03,7.911179912387594770e-02,2.847048380608103654e-02,4.674738233551133798e-02,3.428560506560741211e-02,1.712510078538341876e-02,-3.274656013543687100e-02,1.633629502890206198e-02,-1.423568323120804648e-02,-5.304091767463791664e-03,8.418400400976076836e-02,-2.028028970986216553e-02,9.607092187882813883e-02,2.419913844793709218e-02,5.658584830436079460e-02,9.110243630462434503e-03,6.748336665544807378e-02,9.474136163456262083e-02,5.247345413966533409e-03,-6.448015129743939200e-02,6.737071651965288906e-03,1.427208180859640581e-02,5.048730192144243456e-02,-3.566749261179998076e-02,-4.251281826938457797e-03,-1.146602406008950630e-02,2.360399802646318337e-02,-7.840316553871702621e-02,1.093451282275404932e-02,-4.356696492038954031e-03,6.349279927321528627e-02,-1.683861021025834931e-02,-5.334208498793557157e-02,9.946948020653727240e-02,7.715707918577639768e-02,-5.776834111543258099e-02,-8.209459765268804776e-02,8.913343645001400861e-02,1.420299845473436129e-01,-5.839346525763533871e-03,4.259650837777625293e-02,6.519049417195942574e-03,2.813989673475774528e-02,-7.003126066734051414e-02,2.995530374454172945e-02,6.381705091794577511e-02,7.459409648462261844e-02,3.961276731473744456e-02,-8.158182904135100055e-03,1.164733031239889929e-02,3.317187543463404054e-02,5.650816936151607794e-02,2.836192442770294961e-02,4.873777004170208593e-02,-2.110181487679074416e-02,7.949621862393348171e-03,9.213456213063421496e-02,4.570281945571678939e-02,1.089718699652427771e-02,4.291720818964166878e-02,-6.889085072668798583e-03,5.283521512745383009e-02,-2.421085238677202212e-02,-1.961340555691680823e-03,-4.173401328384606507e-02,-4.793269181357205644e-02,-1.357736410294003992e-01,-7.429659666160723722e-03,1.178859598284045795e-01,-6.764907099611042196e-03,-1.063090279486614883e-03,-1.434799248838809424e-02,-3.486007680065778686e-02,7.618207408741364643e-03,-3.039559874862155647e-02,-1.490151359675797281e-02,-3.909314780444614335e-02,-3.634636752328502390e-02,-1.279181782858645859e-02,-8.382886197432552061e-03,-4.387712954221733436e-02,3.150301293344450609e-02,4.157172491417301247e-02,-7.186612646953460803e-02,-2.139830848568679417e-02,-4.166982939909671252e-02,-1.646372114705893785e-01,1.923769561255133514e-02,-3.290803345133348073e-02,-6.705756140817008444e-03,7.891647494611474245e-02,-3.639050350469580364e-02,-4.093201979711354188e-02,2.455539024238890047e-02,1.373513188076463595e-02,4.711640407085189441e-02,-6.417736464901438453e-02,-1.931709930323157257e-02,-1.957487198159383376e-03,-5.498795877830624235e-02,-6.742879152391792474e-02,-1.879390806669441541e-02,-2.749727048077139913e-03,5.537000253151291851e-02,-5.898031448368089985e-02,7.756589433072250128e-02,-4.343652345941734216e-02,-2.130566652911445799e-02,-7.513999998936502465e-03,-7.011423323837823185e-02,1.532020476064630682e-02,-3.835794326251572295e-02,-8.326614211040449243e-02,-2.833959565652064208e-02,-1.933731057060913625e-02,9.704485087047333425e-02
3.582364915900598801e-02,-1.365362879339171095e-02,3.377012812194325059e-02,-5.025627844148557871e-02,5.870507698146560510e-02,-2.815371293533351291e-02,-9.856793241911682504e-03,-3.036767240012495234e-02,2.595776937800668878e-03,3.918587276687907073e-02,-1.562456717108147951e-02,1.530292538080729216e-02,7.320054453853230836e-02,-8.549068549392619884e-03,8.032914588104980019e-03,-6.491278518535276154e-02,5.006263526736292983e-03,-8.755123479947155007e-03,6.987048440037840757e-02,8.815481397904924299e-03,-6.173052611398158890e-02,-8.718189317621059548e-05,-1.631249581899948259e-02,-3.209174377058342936e-02,-6.877351462726870790e-04,9.206283928849152975e-03,-6.682641649421844354e-02,2.614712195066115630e-02,1.647188617261834132e-02,-6.909975326694361986e-02,-2.238972742720205661e-02,-1.039981883657127223e-02,7.566595364601541585e-02,-7.652766691497527030e-02,-9.326072889480606365e-02,-2.770613533797427336e-02,-4.611296725897417667e-03,7.113359223150760025e-02,4.098066554695945635e-02,-5.088675203198710084e-02,2.811707030776145963e-02,-4.059189155365251767e-02,2.297074553334655517e-02,-6.578355122920345743e-02,8.371795073115789049e-03,-5.829395001346415750e-02,-2.245753540004431087e-02,4.290602233089489681e-02,-5.337361500864317571e-03,3.086176908150230734e-03,3.721648708836182429e-02,-2.053773808666628162e-02,3.742994335298883979e-02,2.712689694999871268e-02,-7.303608599036934268e-02,5.980478441380368548e-02,3.886284854237342934e-02,-4.163288240682921221e-02,1.639275021798766718e-01,-1.088087619264731416e-02,2.403374583273984108e-02,-3.196933145666834564e-02,-2.210546717638803282e-03,1.182750977532657025e-02,-4.706999476004183024e-03,-6.422554888386292071e-02,2.332425148362213090e-03,-3.252264405889074977e-02,9.122095552988203349e-02,8.695009722025087359e-03,2.228244245897664788e-02,-7.325943300736534325e-02,-1.310889158774395519e-02,-3.166496331125288888e-02,-6.593200635639526186e-02,1.929735392885607512e-02,5.692017314129277361e-02,5.607943107153714329e-02,-4.842967251816957669e-02,-1.618565480045696878e-02,1.944728464767294523e-02,4.056485911908377234e-02,9.221869538987591264e-03,-1.253977979813361843e-01,8.404329411016285556e-02,-8.632049896012343460e-02,5.857004989953855725e-03,3.935317676879225568e-02,4.098836751323110816e-02,8.333708379997575855e-02,-3.204372766893105740e-02,1.675132516466570909e-01,-4.408827354985295904e-02,3.281141477478868862e-02,-5.581134235711541353e-02,5.852599625050975557e-02,2.820504898044094363e-02,2.547102393836029807e-02,5.166406387094003849e-02,-1.946874984484827514e-02,5.987779496381567812e-02,1.823567244223472938e-02,3.204063367274399138e-02,3.188066351630887418e-02,-8.094163187652707314e-02,1.315590600764541748e-02,-4.976024492495836893e-02,6.151891903853308648e-03,-2.028023926958045717e-02,-8.551008526469407178e-02,-2.249974076958147825e-03,5.856901844291097399e-03,5.530948689110490313e-02,7.448908007999711922e-02,-7.916534249495503495e-02,-1.604783794924016099e-02,-7.696859911065227940e-03,-4.706471344134963847e-02,2.479609616352895611e-03,3.443967271241053785e-02,-5.609843722340021772e-03,6.952053090460841300e-02,-8.877188942468141122e-03,1.661834588124719118e-03,-1.220485931351399100e-02,-7.257397820004399258e-02,-1.266201489846848494e-01,4.294610393270046483e-02
3.820523661303242696e-02,-3.268165060194517385e-02,-3.165757927006639799e-02,1.535821942834332456e-03,7.432607866605631802e-03,-1.009464459010646492e-01,-1.020328146561789648e-02,-1.263455511524363105e-02,-2.199559762323408801e-02,-9.906899986218260096e-03,9.005518812105332838e-02,-1.179992652752431988e-02,5.890505811867126351e-02,-2.092226280094268420e-02,2.294474538808590099e-03,-1.254090165687264148e-02,3.796182699040481084e-02,-1.626298883622328715e-03,-1.461574226828898579e-02,1.426589393425862183e-02,1.635012876572010040e-02,-1.442445236045010286e-02,-2.965889971562018015e-02,2.656455528440745256e-02,6.660667052010341149e-02,7.377373921802483914e-02,2.591401017287106243e-02,8.007634864120321758e-03,-2.202149091844822840e-02,-1.720463195287788224e-02,-1.759858309037552054e-02,-4.519798138437178953e-02,-2.188679594591418434e-02,1.109772419701552520e-02,7.509491157650411905e-03,2.202679455124156166e-02,2.258307547631098824e-02,3.522573099417712628e-02,-7.413086227091373638e-03,-5.722103769410148699e-02,-3.892198571092923831e-02,2.400498426383030834e-02,2.493073775221239102e-02,2.192429289362463063e-02,1.383116592572008856e-02,1.617564217626417042e-02,5.117551222568207485e-03,7.140488930793076339e-02,-2.017753359356197745e-03,3.587119115136186420e-02,3.999615626309980382e-02,6.416846996293424201e-04,-1.283251826576033844e-02,9.217417716721533136e-03,4.805960567512744010e-03,-1.363943546585641821e-03,4.560962093635884812e-02,2.573770911454004856e-02,-5.933773931167123789e-02,4.003353252045632749e-02,-5.671785350679104179e-03,4.231125035542215515e-03,2.420736923568512014e-02,5.427545285300617445e-02,4.404103050142464670e-02,-1.492897974943084398e-02,4.538112179928942974e-02,-2.694430225249483044e-02,-1.730436928766411475e-02,-2.744360395694905169e-02,6.443786971466783364e-02,7.059803868137089211e-02,-5.242997843685261172e-02,2.451586064414131363e-02,-4.373801063339080586e-02,4.131595222067363689e-03,2.589221566815825409e-02,1.227951661597989630e-02,3.911444464975478985e-02,-1.820903564002503833e-02,1.458107221475301793e-02,-4.817984042981684339e-02,-8.628935653828224972e-02,2.786876189973839721e-02,6.237369563670397410e-02,-1.140286439711050287e-02,-4.622117692740119327e-02,7.188527451479320186e-03,1.700277841515315108e-02,-4.727537866451918952e-02,7.760094687621910126e-02,-2.968775081585248166e-02,-3.762773075925309602e-02,-3.111005010255381287e-02,-2.702495931599038087e-02,-3.397703667506624808e-03,-5.794805284164414316e-03,-1.763261217335192199e-02,7.426718954292452907e-03,-2.709854206589077871e-02,2.987986054050102355e-02,1.409273023735023965e-02,-4.349991051073549136e-02,2.998827572551110085e-02,-2.432566023560556439e-03,-6.945333763757675916e-02,-2.280892387024515376e-03,3.881125262186919944e-02,2.058439526966242619e-02,-8.346828861607142117e-03,-4.468566022951846184e-02,3.323509743807533806e-02,-7.921050726504084982e-02,-3.229105292745910322e-02,-3.233300906766715249e-02,6.735023670622685560e-03,4.630427936671501626e-02,-3.948741560087167674e-02,-2.513993634337591959e-02,1.128887478009138641e-02,-6.810430351600073318e-02,-3.087618679352511358e-02,2.238023508279756227e-02,1.232104391122565076e-02,3.459978394066207108e-02,1.554834237546819965e-02,-4.137740094616813857e-02,-1.147236259418175572e-02
-4.348009776144190486e-02,-4.672544529402375933e-03,-6.673931076712452670e-02,-1.174740795009040356e-01,5.571763972769119139e-02,3.616686777212311903e-03,4.141400387753060505e-03,6.885060526713027498e-03,-2.920903678365950260e-02,1.381570257107627431e-01,-4.750315560739089976e-02,2.488896693365712579e-02,1.381939769647018770e-02,-3.884912661175215619e-03,2.142629508321218165e-02,7.276349048622415827e-02,2.113077570775592773e-02,-3.953378677576891570e-02,-8.960363175086129284e-02,1.563647310767856541e-02,3.018025971279688757e-03,-9.947861014620918742e-04,-3.064716080975763909e-02,5.324658682186245162e-02,6.416687431715664691e-02,3.816014430571144228e-02,1.417960841259285620e-01,-6.233708753666306057e-02,1.220225600318277370e-01,-2.038326006278081554e-02,-4.800778262060240165e-02,4.017254370980612166e-03,-5.652442846329738119e-02,-4.056869709582197614e-02,1.055692306705693223e-01,-3.366731006492668793e-02,-9.209412901339633292e-03,-6.624520171078825126e-02,-7.077969073426829127e-02,4.262124223849001609e-02,-1.980401247924538921e-02,8.583145437867664707e-02,2.419410649654308784e-02,-1.057358165410916817e-02,7.676444943876513383e-02,1.133531897404668198e-01,-7.109081432517799781e-02,-9.947570340827419089e-02,7.695473663715057810e-02,9.895332318865682208e-02,1.371649044215599855e-01,1.552505511510795556e-02,2.778096714111261741e-03,6.197572669284745484e-02,-1.168916608037555947e-02,-2.573572148286403221e-03,-9.245614191845698271e-02,-3.241440692107870614e-02,-7.484831095096987352e-02,-2.774618880464936252e-02,-3.457604951578205355e-02,3.392579599785226774e-02,-4.738830883375209219e-02,4.073494759631920287e-03,-5.323353004776627123e-02,-3.989320409053326300e-02,-2.700798531080635112e-02,-7.130290236998844226e-03,7.257673859423921514e-02,6.080116319480696752e-02,4.473006261425441915e-02,6.948406588893520086e-02,-4.605416229608663009e-02,-4.655453459524580562e-02,-1.021367924583187724e-02,-2.364051872039579436e-02,2.395654232709177461e-02,-5.268040187490708598e-02,7.327070664650407739e-02,-7.181921724064648481e-03,5.925825582368308281e-02,1.183436559486696626e-01,-5.813742815966442545e-02,8.920639728986474656e-03,-9.830109500427114400e-02,4.215936206417617710e-02,8.511416095757870504e-02,4.582422262244596756e-02,4.178545562231592708e-02,-8.226211084770490567e-02,3.327763315286981494e-02,-1.978816162855857874e-02,5.058895212733300478e-02,-5.654721076598669127e-02,1.594533727570031020e-02,-1.628650155560998260e-03,-3.282060587284532649e-02,5.563441412914929551e-02,-3.167464465032904936e-02,2.786282214778084201e-02,-1.029135167066885514e-01,1.482443854356449431e-02,-9.935211675281484245e-02,-6.108817382825729170e-02,8.631578567603495622e-02,3.481915765308125910e-02,2.410110095239581529e-02,1.723774718929217686e-02,3.880012780347447121e-02,6.711875059775372632e-02,4.734296738394044163e-02,2.312796624438490101e-02,3.966743951598829254e-02,-3.362417325974548926e-02,1.745331590046551168e-02,8.590537880762326439e-02,-1.307312595702236034e-02,-3.167292804752695062e-02,-2.365086551718896188e-02,1.034444591028560040e-01,5.097972499582915928e-03,-5.112714829862986116e-02,1.278782603355429863e-02,-3.585112789731480926e-02,-1.496268771533316652e-02,8.718687635111764533e-02,-1.342035943646462948e-01,5.001763480798439993e-02
-9.800573448365506105e-03,4.735944680638130150e-02,-9.346214760635693578e-03,1.015198229019632498e-01,7.771122658434397035e-02,-5.872859528686968922e-02,-6.735830898044779975e-03,6.913297862269833505e-02,2.351130690933433184e-03,-2.573053512056872397e-02,-4.949238381826134847e-02,-6.262550082729169409e-02,3.509198173418677513e-02,4.088795458549018130e-02,-6.941733217651868681e-02,-3.884514576463402730e-02,-8.472668266488587313e-03,1.311781127340757268e-02,6.345375173010968373e-02,9.608331856966520479e-02,7.106878515775374994e-02,5.718037064303662514e-02,9.550943567026574932e-02,-2.189413564939873130e-02,-8.038923038293720180e-02,1.169460125178205592e-02,-1.149087230681653526e-01,5.430478562427565326e-02,5.374775758497866117e-03,2.132388004359277167e-02,-8.653891697862839405e-02,3.145913013002714104e-03,2.214143699322104406e-02,1.410831589229811882e-02,-8.721546879153128928e-02,-3.728571710579146707e-03,-1.381112484142221590e-02,4.106035465750385027e-02,2.720066825171400804e-02,-5.242284128950556316e-02,4.477333118389505151e-02,4.449980955962077461e-02,2.279774652425284667e-02,5.968341269284307797e-03,6.672579357420026225e-02,5.949515421829502937e-02,4.029020865561499382e-02,1.484137345382263544e-02,-1.996046870794771291e-02,-1.154314941082882663e-03,2.461760312818507546e-02,-1.897655920769446974e-02,6.270555327557679470e-03,2.993062024079389677e-02,3.364065026259840246e-02,-7.022272999512545189e-02,-3.566909237097438956e-02,1.657349536294856415e-02,5.950641584547800012e-02,-8.249544945998195725e-03,-7.919246418143596755e-02,-8.586942359441930572e-02,-6.186323961509056051e-03,-2.882531350609866816e-02,1.717797830247502549e-03,5.918594880460195662e-02,4.355760891004912400e-02,-9.108821285199433099e-03,7.371696601746939581e-02,-3.101307230940418894e-02,1.838329997096264240e-02,5.533925553099585531e-02,1.310871396196467142e-01,-2.419500902914470744e-02,-4.973652094577626220e-02,-2.011064182309827558e-02,-1.182901523966884277e-01,-3.654818873021482145e-02,-1.145754493023187076e-02,-3.362381472365591484e-02,-2.110342258407772731e-02,-7.999952009430936670e-05,-1.298415324238224866e-01,-5.334613951484467459e-02,4.211441383096788810e-02,-2.250685167991821681e-02,1.808881080366445820e-02,2.464509844804606969e-02,-7.405079361295259510e-03,1.556354677620986650e-02,5.597444902388742927e-02,8.561698898782169748e-03,4.172599759678270737e-02,-5.650981237193291500e-04,1.111511557197907354e-02,2.751815761811542138e-02,6.529929439153038528e-02,2.068562155006116801e-02,3.032546566958132378e-02,2.519850675098712911e-02,5.986822665865504378e-02,-5.000048068698862563e-02,1.173329370730392396e-01,-8.765406716589760339e-02,-4.733887680193581138e-02,-1.052691324551421059e-01,4.992678783900255518e-02,4.555242296120243922e-02,4.336490561242654918e-03,-2.439048169042542374e-02,1.110160642623911689e-02,2.453577243819017595e-02,-8.389867164351690054e-02,1.056569939121566187e-02,-7.285589484915579173e-02,-2.431239543809919634e-02,3.501249017725231727e-02,-3.817459276212904068e-02,4.272646014153972521e-02,1.511104958132666320e-01,1.576916810135088332e-01,-2.977064556792322070e-02,-1.816157342260411867e-02,-3.436418744363765182e-02,9.188895183462551797e-02,-5.159242113185477999e-03,-1.202851504434726201e-03,-4.087008499151581487e-02
1.439993277084075651e-02,1.277885016817879686e-02,3.302464824066047439e-02,5.053434449698637060e-02,2.386990577993006873e-02,-1.522100491685409243e-02,2.811952326422081927e-02,4.049869003346993207e-02,-2.933023732219764215e-02,1.875170723438653597e-01,6.341152048703027622e-02,4.164997242435180408e-02,-1.254168868892946709e-01,-3.735727342905523912e-02,-3.394518230138221515e-02,2.476463604432747184e-02,-7.191143472244872215e-02,7.696150462633191691e-02,-7.417439647459195262e-02,-1.499021202895401556e-02,3.564792877363978651e-02,6.724931406017586877e-02,7.958655951090699843e-02,1.135988458144557428e-01,-4.471135186058474570e-02,4.606886552659729406e-02,-2.095925018757522490e-02,-8.737946502311640107e-03,8.785165852791693153e-02,-8.374774028786828584e-02,-2.967941833232845897e-02,-8.049272468917976825e-04,-3.564804772692245494e-02,4.072907561725311841e-03,-5.685128880047174427e-02,4.102304745405474518e-02,-3.360842609801006908e-02,-4.138908716519813097e-02,-8.361129481294229948e-02,5.733211331797435223e-02,-4.148051370706110075e-02,-3.130028584412726522e-02,-6.711947821023193234e-03,1.383863285582073721e-02,5.977245619465108156e-02,6.869939564574735306e-03,8.195508091449310584e-02,-3.874687758039706276e-02,-3.008910458248814646e-02,1.415529940248275165e-01,9.229366794863369527e-02,-3.878933487941941399e-02,-1.065321993488496134e-02,3.599840877337248668e-02,-7.797708149221060925e-02,6.602862412072480446e-03,-3.503264343714276169e-02,-2.800661715886458916e-02,6.521134410376380926e-03,-7.874123302050926171e-03,3.806586376155173673e-02,-5.365627872756961736e-03,5.215494355386490755e-02,2.308355333595880562e-02,5.300942940218678068e-02,-1.212758814439039191e-02,2.175100488775715685e-02,-6.327170099210506493e-02,9.535061183345663882e-02,-4.195415804192471898e-02,4.938095386234052364e-02,9.737150605931456024e-03,-3.064243218190574117e-02,-7.825434999592335850e-02,-3.909688162716881688e-02,-8.699631966057316812e-02,5.327150831304895695e-03,-4.335896883275641017e-02,6.870919859105135974e-02,-2.786824840233876818e-02,8.277053116741121819e-02,3.423194335886405992e-03,-2.717138200993397118e-02,-3.352858690946696613e-02,-3.359583528677649589e-02,-3.954250681705005765e-02,5.167661893308787835e-02,-6.902781757405072882e-02,-1.156440580333725245e-02,-2.120121782625147486e-02,4.491133447213939943e-03,-3.554963751685130680e-02,3.791908580710762200e-02,2.206831638968512546e-02,1.870239075091671352e-02,3.226518698046888789e-03,-5.880566185972759680e-02,1.307351992844674876e-02,-8.556903613485981885e-02,-1.281483566284622594e-02,8.239519062255115656e-02,1.146809096122144468e-02,3.003994752850273290e-03,2.271983438388112259e-02,-2.085846328263100610e-02,-2.030733549145082376e-02,-5.602047825255739022e-02,-4.026168192236091042e-02,-8.416959619224456679e-02,-2.266058041948807930e-02,3.410848998096937396e-02,-2.609373444649966400e-02,-4.404852513234869954e-02,3.663587715066576184e-02,-4.237368727447347883e-02,-3.045310858921225147e-02,-6.938417094279444863e-02,-8.250528953722795211e-02,-2.235320310029269286e-02,2.875592872560093008e-02,-7.950216304284114799e-03,4.432296564559809471e-02,1.679076101369281898e-02,-3.908033896947533947e-02,3.403279713076185625e-02,-2.498356656595612704e-03,-1.209811710321836431e-01,2.645546090727855792e-02
-3.517896985539339244e-02,-7.145297902642591681e-02,-5.537167249017678830e-03,-4.972100254395044744e-02,2.655500323708772162e-02,-6.553970882222201651e-03,2.649388713834613385e-02,-3.396437060074426750e-02,-9.109932600162009772e-03,3.498380450894039012e-02,3.391187626436312913e-02,2.889065989201622039e-02,-2.383034005782316833e-02,1.298592971445907199e-02,9.706967206869272086e-03,-1.740109748290550110e-02,6.782668395564021846e-02,-3.635528356153727714e-02,2.095763270480403145e-02,-3.288084350244820792e-02,-9.693274688283237683e-03,-1.005336615852379586e-02,-2.410606063969068791e-02,-1.886178022165053286e-02,-2.695926789010519298e-02,-1.599190739791934643e-02,1.417509929968434855e-02,5.337116549037549534e-02,2.019922397630272495e-02,-1.044855343401012160e-01,2.116760187431004567e-02,-1.799880236501338882e-02,6.580186737625727013e-03,-2.899382509173057190e-02,3.621413990218590173e-02,-1.291650070802814916e-02,-2.624649482412023949e-02,-4.798310752512401772e-02,-1.529314119175513749e-02,3.905453032705676758e-02,1.839752115350875433e-02,3.935322618500137343e-02,2.265999790671657105e-02,-3.655920264163334960e-02,1.250407180018133987e-02,-1.662569693007514074e-02,-2.054656893928740943e-02,-4.104833723224933506e-02,1.855639392878369450e-03,4.967771180194779836e-04,1.928180539140217711e-02,1.030735124218153109e-02,6.400145889508572494e-02,-2.464182309781330973e-02,2.501593571978377728e-02,3.850495819538666403e-02,-4.158576416928836533e-02,-3.238465012058874826e-02,-3.545650135232440714e-02,5.127385288538007652e-02,4.699798388228215718e-02,-6.921764652459014289e-02,-3.053095041546074768e-03,-2.565060258554752518e-02,-2.874089609361169320e-02,-1.822594287760132339e-02,2.437609496745719861e-02,9.794822223497411454e-03,2.958297792459302702e-02,1.346231124825315005e-02,4.145989560638662502e-02,5.819650157271288871e-02,-8.274973294134171584e-03,7.184136489374767787e-02,2.984521541745817005e-03,3.566585378947073615e-02,8.098310784514114319e-03,5.664428854275216363e-02,5.931373153600045384e-02,6.651675146634030561e-03,5.751110065322802972e-02,7.763611007567822186e-02,-5.295089936820932680e-02,-4.421617098020722003e-02,2.320866434181197840e-02,7.160577138964276285e-03,3.871305695670481523e-02,3.731828994399485205e-02,-5.799885449343810707e-03,-5.395262571052874406e-02,-1.597099753907967740e-02,2.462732145980520235e-03,-4.779197546147091052e-02,-4.433323446060339484e-02,6.511651679880975374e-02,1.124314121489539652e-02,-5.247585055000685006e-02,3.655499654238131974e-03,-3.332332572226137657e-02,7.145800558455318863e-02,7.113561026180534319e-02,-3.426331327367978380e-02,-1.344178941611326526e-04,-2.574466656621189967e-02,1.133411711131111083e-02,2.438716160282251855e-02,-1.502888232380589738e-02,-3.097124004944392869e-02,7.557659397210955698e-02,-1.317593656784653289e-02,4.404607227668676933e-02,-4.661457293794996071e-02,1.336509648054034771e-01,3.658583011219978479e-03,4.078776002012356183e-02,-5.074734449827138921e-02,3.070674762370838458e-04,4.908866625602449629e-02,2.817445166053085884e-02,-3.288386351490250881e-02,-3.050152903685556319e-02,9.831483551004385150e-04,-9.431510748889003481e-03,8.626193641091986497e-02,1.180933127034191135e-02,-2.491708178665468995e-02,3.548628165121157224e-02,3.531092320615457358e-02
-1.232626910491395507e-02,-3.368690708402444223e-02,2.893778344082731033e-02,-8.225365984878116321e-02,1.310387279342370148e-01,3.831429899670865669e-02,2.430494897018420711e-02,-5.004871622730004688e-02,-4.235251004484191090e-02,8.298537434937879043e-03,4.777299956359495545e-03,-2.383495948630835401e-02,8.275844207642035766e-02,6.249955767480561142e-02,3.266659880103302965e-02,3.599964264221695159e-02,-1.166345132586691508e-02,3.260464297498245900e-02,3.941345815594705926e-02,3.758425855303512697e-02,-6.217940837780300267e-02,1.556350581491679486e-01,1.041352709183763353e-02,2.637067987009755494e-03,6.722471648357326857e-02,5.439448941921026792e-02,5.643313460776119839e-02,1.256317083510421519e-02,1.419910676343102973e-01,4.007505439711441658e-02,-3.155958318757106501e-02,-1.415021940826060275e-02,-5.231510641766774772e-02,4.329270403568381137e-02,5.264515208257267848e-02,-9.216557697499011895e-03,-2.267324523182803059e-02,6.341940736463803907e-02,4.480112823093644614e-02,4.947787255700850095e-02,-3.693909620092196422e-02,3.278266562871008649e-02,-8.550431061618282702e-02,1.165808483446425896e-02,-7.983538586424299144e-02,9.524996917214871572e-02,-4.166075409460735096e-02,4.716896835885268924e-02,-3.808388802315496036e-02,9.840029722345024210e-02,6.426517105908829963e-02,-1.044029453040319633e-02,4.536864748885438559e-02,2.712617664985428334e-02,-2.949132440342883826e-03,5.444488407523427609e-02,-9.085738047557499059e-03,-2.215686988777770816e-02,-1.551579922417505031e-02,3.819178477272390515e-02,-2.960022526612108781e-02,-6.492841794113937866e-03,-3.095364149503660595e-02,2.138314123519975338e-02,1.249997029127226378e-01,2.325090795042064878e-03,4.598647302286414107e-02,3.990638137531334062e-02,2.365100309640536056e-03,-9.616078540988232115e-02,5.472412440173199388e-03,-5.544867975035736030e-02,2.655702255229606609e-02,-3.574409278791212952e-02,3.411654221502002232e-02,-2.190644343686606876e-02,-1.367147878098067156e-02,-2.927892990884581673e-02,3.247355836051738637e-02,4.255039473049485044e-02,4.472370439718920121e-02,4.572686923512032930e-02,3.571730367036571319e-02,2.597181681697687330e-02,-3.814992327325591320e-02,-9.439316673831745289e-03,-2.520547290816878977e-03,-7.455422162786558282e-03,3.112074584771853947e-02,5.843159092126446602e-02,3.451368123245394243e-02,1.751017295986325231e-02,-5.318131158403390651e-02,1.478583462090531930e-01,-2.094587834419271016e-02,-3.059280488258677225e-02,-2.309316492118967251e-02,3.254343346968164435e-02,-4.371725362313783059e-02,-3.221370291977092987e-02,-4.079707239475172109e-02,7.947095699346226269e-03,7.328205746915202046e-02,-2.739699601094483170e-02,5.108750517292698357e-02,1.923741374965109649e-02,-2.011475604518206048e-02,-3.376507692967196245e-02,-3.679903275333377272e-02,2.258898277304549965e-02,1.400697627696657248e-03,-3.967720504669629278e-02,2.172428894429853305e-02,-2.153558379958616167e-02,6.105223318322383977e-03,3.414455644152563502e-02,-4.726340709876345608e-02,3.616747774753956840e-02,1.019270721696796667e-01,8.736983186631094855e-02,4.279789315916044507e-04,4.631661320588358749e-02,-6.276590576020484036e-02,4.798309901978361526e-03,-4.548650075272389626e-02,6.869550013868192494e-03,1.636545993475930771e-01,6.863133906595713860e-03
-7.743419292051434422e-02,-2.647600618012760018e-02,-1.408124216189649176e-02,-4.535039840348149137e-02,6.213501652356259904e-03,3.877267681143316963e-02,4.336436533134551199e-03,4.831048185793410804e-02,-8.285595836040290929e-02,-4.390436662791389472e-02,6.007357685462962060e-02,9.169343180898572102e-03,1.506971957934762074e-01,-6.087153380884605114e-02,2.274938470553056549e-02,4.528398278366248253e-02,-1.760819665847682125e-02,-4.395281005519882656e-02,-8.432740664735176306e-02,4.415626983348884538e-02,3.985689759496321288e-02,1.986743745600677916e-02,1.560739287460111147e-02,4.432186672577861919e-02,6.149573908489913698e-02,5.500930634202445130e-02,1.288605978450209077e-01,4.273642358189051749e-02,5.217937141417422486e-02,6.197171828248033282e-02,4.193611623457733917e-02,-7.023797583093466766e-03,6.275584015696903696e-03,5.154717183999970448e-02,8.063034882600829401e-02,-2.343721566206332860e-02,-4.908112251100605434e-04,-6.876327476988458587e-02,-8.855178405275170028e-02,-1.383066662718867579e-01,-7.578347954626986349e-02,3.228403657172707747e-02,7.277253189150967305e-02,-7.031275597074366536e-03,-2.375348155080222665e-02,9.679799540668400371e-02,1.074766102947342927e-02,-8.148791973812767597e-02,-4.007578344899636463e-02,-6.145875860486937903e-02,3.793714935965517010e-02,3.607746012165012704e-03,-1.010088254247515777e-01,4.088025318105060341e-02,-2.890592966373596931e-02,8.632755331775833485e-02,4.051297239353657959e-02,-3.574444856879899907e-02,-4.790964449696996641e-02,-1.541290558964512718e-02,-4.828074662020021175e-03,-3.903851334876112106e-02,-5.134328738316984442e-02,-2.919658971757744734e-02,-3.084034213830850329e-02,1.476328000379000145e-02,-1.655895763623493194e-02,1.017550079531955899e-02,1.062994693639556926e-01,1.895578028774410478e-02,-1.090899135493884897e-02,5.798404403931836648e-02,-6.574643845669149445e-02,5.081708621363893036e-02,2.269138456938835785e-02,4.077018855163534999e-04,3.637992385760799308e-02,4.040524284498085705e-02,4.326986336574767736e-03,-3.492556894270779089e-02,1.686628916754998597e-01,7.728979085799993209e-02,-3.039422216077113451e-02,5.494860309725804748e-02,-9.119281446168191196e-02,7.916756483252913867e-03,-1.657079630027934181e-02,-1.663022152443726157e-02,2.943093827429136417e-02,2.475326521795465431e-02,-7.627223231155114830e-03,3.448730257556727880e-02,4.612685011265255791e-02,-3.991257857512932328e-02,-3.317466401888079230e-02,3.375980149791282781e-04,-1.584584838309523527e-02,4.186339750098742180e-02,-9.626455459686614202e-02,-7.965196771664571906e-02,-8.936409365754038880e-02,6.705175431438248346e-02,-2.184779017293583814e-02,-5.120635526467374327e-02,8.470018198816776922e-02,1.746710280986606134e-02,-7.376304526973148472e-03,1.663677442744143295e-02,4.399854986772221838e-02,-4.791301191736696552e-02,4.787319932873436434e-03,1.500972443739360257e-02,2.875842209797901255e-02,7.418609964366244466e-03,4.944395346962567050e-02,-6.422937477071008483e-02,-6.371631177869961637e-02,-3.478183583812381741e-02,-4.866049026858105392e-02,-9.611706540132363558e-03,5.371589021536121028e-02,3.685110357859753411e-02,3.689514903240406762e-02,-6.289496249835140051e-02,-1.850237482119080484e-02,-1.130654623302920769e-02,3.207153621126507259e-02,8.447660685053188720e-03
7.789683445151329710e-02,-3.060629234545569899e-02,-4.528394845782936218e-02,5.879998886528499391e-02,-6.278140231577972186e-02,-2.662228067205157228e-02,6.617311146413706532e-03,-1.540410803660017050e-02,-1.555449876738516750e-02,-4.124074914429299438e-02,5.037143400251871406e-02,-4.258251583867168379e-03,-7.258242803028554235e-02,-7.205698433822882443e-02,-4.055108458105043806e-02,-1.501827988005602701e-02,9.650867827999348378e-03,-6.139133133793018421e-02,3.937539605026694339e-02,-8.779941926359795604e-03,1.807355867389464493e-02,-4.635201121995218693e-02,9.849491639824188571e-02,5.176133536381502011e-03,1.910382918515959524e-02,-3.110420989659965114e-03,-3.675682814272891036e-02,-5.404656794349838728e-02,-5.832308595326111261e-02,-1.383192033556427183e-02,2.492795944073315784e-02,-9.960510691073917386e-03,-2.847331791750435520e-02,6.479918187658919096e-03,9.459173213603384520e-03,3.555227624802585751e-03,4.645490736661998799e-02,-5.512232526453507420e-02,-1.591014602217135851e-02,6.841247474040784704e-02,7.428383149922046513e-02,1.296366859709250806e-03,-7.846527332375308195e-02,1.019849138999448235e-01,-9.526334815794244848e-02,-5.250849764971658729e-02,9.864442421123735538e-02,1.029578396788789901e-01,-3.931696959032068145e-02,-4.228043865409825824e-02,-1.169675728858051850e-01,-1.025501490598600823e-02,4.028058521254440638e-02,9.161155291890271668e-02,-2.467330424469471595e-02,-1.054010951035958855e-02,-2.594511865952953134e-02,-2.294785631718398652e-02,5.833882392043557991e-02,-5.607683202670630737e-03,5.258691738986935593e-02,7.510873811114293641e-02,1.872334224018430346e-02,-9.428828588493811834e-04,2.373689408076236004e-02,-4.359971613526662446e-03,-4.470516188092567983e-02,9.481883843994037830e-04,-9.741350388963640125e-03,-4.538831937605261775e-03,-5.771202440625205349e-02,-4.028696391358958795e-02,-7.374889290571067998e-03,-3.484185197373654199e-03,-3.437886154665829863e-03,-5.061232351890323881e-03,-6.207951861418650567e-03,1.442501957254001092e-02,-2.458851189588246236e-02,-8.775004765130364759e-03,-5.602538266296139269e-02,-1.845352591570095444e-02,-1.873541462686038883e-02,-1.835135516844680834e-02,7.901053270209040802e-02,-1.698430238319008703e-02,-3.100916304953975355e-02,1.823153561046599383e-02,-1.921261083726802030e-02,4.455537431640819307e-03,4.426803267520288548e-02,2.794179958778318304e-02,3.060677438048205277e-03,6.597221202049251276e-02,-3.574667118481427569e-02,-1.700178279982650018e-02,4.191267016669181222e-02,-3.304873776493787163e-02,7.394500011188488535e-03,2.016378796997605680e-02,-1.453108064594552844e-03,2.786317218012605498e-02,-8.219515669524923504e-03,3.325437057509517819e-02,3.214751805852416365e-06,3.223450399107546244e-02,5.412358565891917800e-02,3.396370236732662584e-02,-1.464138670138879182e-02,-2.186119286655820865e-02,6.522182288106252723e-02,2.817303660905781312e-02,-2.250073432563086048e-02,1.734083368206951539e-02,2.494900537043703154e-02,-5.991991729184874271e-02,1.329513271416053397e-02,-5.142421327874045767e-02,-3.952258657955511068e-02,-3.866160940545945723e-02,-3.063219661875947811e-02,6.894372860547038316e-03,-6.891279557648530285e-02,-6.360925492645187751e-02,1.271678642956001679e-02,6.817195797741422425e-02,-6.891825767245821077e-02,-1.423617056226084317e-02
-4.227240360261960705e-02,4.616478568389667525e-02,2.888089988907257405e-02,5.490241063729447979e-02,-8.503150447787124339e-03,2.769893572675295734e-02,7.226440435339023804e-02,1.299321653204869691e-02,6.805424657128436756e-03,-2.378692044762981822e-02,-3.438647838251932681e-02,3.425555038958272985e-02,-4.975174197104172136e-02,-5.983254444023541202e-02,-6.058191063425319781e-03,2.406483002455064163e-02,-5.441557288305536727e-02,9.618985041256166921e-03,-1.528016938806842778e-02,1.842356693544309684e-02,-1.243314121522269902e-02,6.861954995689625858e-02,6.822735756218470393e-02,-4.267053162523398030e-02,-8.654882345231484919e-02,2.484257282969807093e-02,-1.099961876886008244e-01,8.366639192380434520e-02,-2.526082854275214090e-02,-4.623826291329541371e-02,6.759371077157494065e-03,-1.997259705492437573e-02,-2.963703190254203534e-02,-1.503717852266624015e-02,-4.658499067297903334e-03,5.635157621062949346e-03,-3.194701720852850813e-03,-8.749580389176461748e-03,2.329772219344274781e-02,7.168354821476941204e-03,-1.476977460874242219e-02,1.854032939469099986e-02,-3.719063384632521896e-02,-2.325712972936684955e-02,1.039786855764305296e-01,-3.820480212302637072e-03,2.819945686579643576e-02,4.046885330573093270e-02,-3.348570649411952010e-02,2.995357555627110868e-03,6.309240693443946002e-02,-3.380894906207609213e-02,1.452737091143181149e-02,4.394171136135080480e-02,1.477669280552487349e-02,2.335360993400940541e-02,1.230007553852840163e-01,3.458424887298824218e-02,-1.316118770803005947e-02,-1.960302720167649004e-02,7.556653237113008896e-03,1.358321638341256944e-02,-2.807854738430492353e-02,-1.417802246872264769e-02,-4.401878479770483799e-02,-4.594022447821578987e-03,3.940081052362435360e-02,1.514364183848092814e-02,9.546556479518468474e-02,2.907410125889094209e-04,3.518302285007618435e-02,-1.751733299764493285e-03,1.142201737600116174e-01,-3.081746360410968916e-02,4.124401463061789369e-02,1.550754019405654188e-02,-2.404536652010041964e-02,1.648098830182535834e-02,7.049734030921371575e-02,-3.903991780030690445e-02,4.796100014493036301e-02,-3.287357863944783548e-02,-2.166593240264983594e-02,-2.945488464142470911e-02,8.859084206846511156e-02,-7.715763202687796717e-03,5.639090528354087639e-02,-8.372017476877349762e-02,-7.166059536630631221e-02,-4.427499111207296167e-02,4.865224786057023576e-02,3.575789088322839284e-03,-8.241132243917110439e-03,6.827446656868889352e-02,2.210125636442487884e-02,-2.478909721570152561e-02,2.715449253375951805e-02,4.742661759269270472e-02,-3.535224833985433496e-02,1.175174919599251966e-02,-2.656959938016397946e-02,5.206573149468151501e-02,6.053612717592082165e-02,-5.707956026529523857e-02,-9.157511975580390207e-02,-8.109470936143527847e-03,5.320911436633172370e-02,4.952902740981421532e-03,-1.298618844125248029e-01,4.147380072562445626e-03,-1.108623575685593367e-02,6.431610945422894417e-03,-3.995064581393886760e-02,7.532482312351408693e-02,5.298004654627336101e-03,1.329245564855556809e-03,-1.538056359509297217e-03,-3.580171369633589756e-02,-4.815905539989846079e-02,3.730374324610669784e-02,1.503340906021076104e-02,2.343384144764415304e-03,3.753578902588094318e-02,-3.204459691658510107e-02,6.548368377252054839e-02,-4.883257496328296176e-04,-1.735023030675122285e-02,2.760545932147715278e-02
8.948082263772815653e-03,1.268652529785585237e-01,3.993363856167593540e-02,-3.628204548745033592e-02,9.472975753613992189e-03,4.324314207864034254e-02,-3.158635589949804201e-02,-1.999400287928956420e-03,-4.587140555066409470e-02,7.332792168982275871e-02,4.892325338489125069e-02,-6.774209585504297609e-03,8.870790683778793928e-02,-1.143430396498950480e-02,-1.201876627041260394e-02,6.986291282403997438e-02,-3.701229669148012325e-02,-2.138935194527724279e-02,-5.255624851307208467e-02,-8.368459617769774539e-03,-2.413060243920326503e-02,-6.776274604019355031e-03,-1.134534825366055426e-03,2.521365536555292275e-02,5.050359987651820148e-02,1.265260815977863398e-02,3.504884047703612365e-02,-3.920838222137267709e-02,2.821934541641602998e-02,3.831070858229641829e-02,-1.789822807057115869e-02,2.088305510688679215e-02,-1.246830348456452568e-02,-2.388135938448210371e-02,3.460492238411533999e-02,1.662628907225146765e-03,-2.391151807836110546e-02,-8.575521712037313671e-02,-2.825385872316996810e-02,-5.040693712711855415e-03,-2.112986393806183180e-02,-1.601320473512393705e-02,6.098327516296915551e-02,4.118271984555631204e-03,-4.761519284486610132e-02,5.731798222660695191e-02,3.228459583414002715e-02,9.255247777266392174e-04,-5.945747917250812642e-02,-1.853127414123712999e-02,-2.899463067356474952e-02,-5.892133693016022959e-03,1.521462126224380068e-02,-1.041684450438773619e-02,1.973641716954515832e-02,-1.332722178472878910e-02,1.554894909923249489e-02,4.827068965923025229e-02,-1.303900991457500047e-01,4.506467007906782285e-02,-5.312338147147145639e-02,7.621633784049858251e-02,2.663180833083305526e-02,3.879078749195132708e-02,-1.068120014127182764e-02,4.156875818483474899e-02,-3.717541661023413685e-02,-4.750217358810021606e-02,3.552255383259796118e-02,-6.344647989214196801e-03,8.050673125823073692e-03,1.156998773556778930e-02,5.490083985123160549e-04,4.912355764306792355e-02,1.823720961248897002e-02,4.397124599250659162e-03,2.667483052053526774e-02,-1.013549069694561766e-01,1.067388569032532847e-01,5.986119062146927350e-02,-2.526871900253993726e-03,-7.449938737951253276e-02,2.969366692826721360e-02,8.783009130882347970e-02,-6.859599204841553000e-02,8.166750965953935293e-03,3.222301079597948009e-02,-1.747249449819805733e-02,-2.404358365661729904e-02,-1.026718653448547985e-01,1.928498027914661919e-02,-1.071689112901896002e-01,1.458512669148799221e-02,1.082194509548325100e-02,5.280387502962920199e-02,-2.368880980785264753e-02,-1.935370807288057729e-02,2.785194618628693969e-02,6.342051082781063887e-02,2.351359959273769187e-02,-6.444767070278847529e-03,1.982741931768505078e-02,-7.438412331047190851e-02,-1.034316249933025372e-01,3.683045308590190969e-02,7.152351355854759396e-02,3.313914323889471936e-02,-7.552669364889855186e-02,4.249172448914033395e-02,-5.670842726069853790e-02,6.168205348728722504e-03,-1.951206759990591977e-03,7.597205572173212906e-02,-5.617965223688640292e-02,8.954035074288079973e-03,-1.915939093237644178e-02,-6.610066731251686319e-03,-3.678822590903921275e-02,6.231168718916206550e-02,1.075965508445548592e-02,-3.689590981195205871e-02,1.062549039070787016e-02,3.904461848196659479e-02,2.732058704272743738e-03,-3.992488456099774208e-02,-1.505352511179498982e-02,5.786912898662224108e-02,-1.123396691554850307e-02
3.518603939050621993e-02,-3.037777442388832350e-02,-9.319900250596705599e-03,6.532070313547216900e-02,1.319541677462255681e-02,-1.965024844774142590e-02,2.066613899377721039e-02,-4.401506415287997909e-02,4.066653433326809786e-02,-7.304093641151551686e-02,2.200937581973467019e-02,-9.197404039365598624e-03,7.613738522881397137e-03,-5.959976804919706050e-02,-1.256179355727149449e-02,1.498150996109303724e-02,-4.082033278374012919e-02,-1.760483850584691756e-02,1.331749405545675294e-02,1.373627297922489776e-01,2.703551636795672661e-02,1.475334933297347412e-03,7.160279935345330304e-02,4.982546938568611916e-02,-2.018443162037198563e-02,-2.075209812972333978e-02,3.968341004133818517e-02,-5.051818641376689539e-02,1.279196899995224332e-02,8.651424921315399585e-02,6.145636640591213562e-02,-9.574647957337278914e-02,-4.486006952561812783e-02,-7.742974217718542537e-03,-6.280273699948711597e-02,-5.587848582777527051e-02,7.358300912991798393e-02,1.121399834933230026e-02,1.824206470955143031e-02,4.735862134577240035e-02,2.255329729593623725e-02,-3.878738283913400059e-02,-7.186265786255639776e-02,-1.343431797933688360e-02,8.214480901544629621e-02,2.389377740670324199e-02,-3.164352022134710868e-02,4.222533080724778787e-02,-1.348758332735944081e-03,4.499597314629728145e-02,-5.533456434480499286e-02,-2.514427099602967522e-02,-1.786942932908216694e-02,1.238468984554891815e-02,2.888040271010856256e-03,2.337206951381825062e-02,3.788124066755119146e-02,7.933325682845346338e-02,-3.062615597268288949e-03,-4.547741856762738122e-02,-1.847368004696398752e-02,-3.455680838827307477e-02,3.760242031231780108e-02,-6.347952563340278527e-03,5.503110738811197583e-02,9.379616739594866248e-02,-5.908137207253810752e-02,-3.708340770613173520e-02,8.362348501926767860e-03,4.846830266371266946e-03,7.200052256003819373e-02,-1.117735188048465111e-01,2.821245440071298155e-02,-5.631297994022143455e-02,-3.189760319253364534e-02,9.568518664266816715e-03,-3.998729131085074912e-02,1.287494039570009560e-02,9.396054602383822549e-03,-3.626607262648713116e-03,1.914534306632809449e-02,3.560574229890230147e-02,2.164958834120139092e-02,-7.359365368050750644e-02,-4.657961424434517439e-02,2.454718869573301390e-02,2.806323122357353220e-02,-4.922885287689372780e-02,1.828137635033216194e-03,-2.443393204877742503e-02,1.211352211917714194e-02,7.440506267159001375e-02,4.167929439330711472e-02,-2.038042558914659325e-02,2.500769884572882212e-02,5.046545029595536636e-02,3.813031327316129641e-03,9.951188926580600141e-04,3.466025902384067131e-02,-2.400750013789625451e-02,-3.716253916821695747e-05,-1.176886571180044312e-02,1.153443193465632510e-01,5.515025259033951022e-02,-2.724945881015691448e-02,-1.189885189246025210e-01,-5.054985281636545369e-03,-4.118200568865346134e-02,-1.742615769052325084e-02,-5.527365462196370816e-02,-1.202497152503492935e-02,4.862990494316599827e-02,-8.910675107164119091e-02,2.862703869007670807e-02,-2.364204332715363899e-02,-6.812712008309761147e-02,-6.463970090162392615e-03,-2.814518475853093962e-02,6.309365980710832100e-02,4.500943321991966034e-02,3.187036724863181385e-04,-8.416857472168012833e-02,7.343139389570248199e-02,-5.132622899975235187e-02,1.600035004849444825e-04,4.030146541285543893e-02,-6.740360959185888456e-02,3.852846908035403167e-02
7.088441689584359939e-02,-1.753492695810940707e-02,6.251856378606863995e-02,-1.569135746991920724e-02,-1.391014897393001541e-02,3.598760509447939543e-02,5.742080395004245386e-02,-3.286468618454873453e-02,-3.214253534374336696e-02,5.737620913196409683e-02,-2.436680389835854318e-02,-7.480412264781781222e-03,-6.246882074355381703e-03,3.227936825410150645e-02,8.802473993898922433e-02,2.653939578887512876e-02,4.128767616175647165e-02,-1.945162747590368363e-02,2.419325403218900578e-02,-3.793623902746481175e-02,1.708943102134011238e-02,2.856005584992670626e-02,3.377897720960254535e-02,6.794196618867258397e-02,6.143601447577051733e-02,-9.646456176807262708e-03,5.014647124774335857e-02,-2.900466727853318050e-02,-4.642083970510237079e-02,-4.551656551338836149e-02,-2.341167836951246750e-02,3.283714232479475331e-02,4.640680854629414959e-02,-5.829984443912652331e-02,4.656335175971745843e-02,-2.120798590188198787e-02,3.721595726080809130e-02,-1.054267127797518661e-01,2.379744310921625295e-03,-3.392884284757403252e-02,-5.459171077758589313e-02,-7.631687327180715526e-03,3.785854511449574661e-02,6.825744178188294757e-04,-5.647418855863089136e-03,7.780338221837029139e-03,1.664687688163727503e-02,-4.893013098108899006e-02,4.426446569083426069e-02,8.213075707393538427e-02,-3.286327996620934389e-02,-5.624775912292945268e-02,-4.118132021117898445e-02,-6.353340572127416652e-02,2.435436922824121483e-02,-8.883394319850019052e-03,-1.047233843506432428e-02,2.229605047229892001e-02,8.927963514320028104e-03,1.701103506499380622e-02,9.017820396681634765e-02,9.829390992399725653e-06,-2.585581554563799039e-02,5.959314604974434021e-02,-1.141829915480899738e-01,2.380633893119142933e-02,3.213908325815024395e-03,8.725221391375380386e-02,6.082088246051275959e-03,3.467376484039564472e-02,-2.234061059998849325e-02,1.222822101263086186e-01,3.083076661296968793e-02,7.887128303711039845e-02,-3.663725169754791788e-02,1.049770556168353125e-03,3.394693060951421010e-02,8.449480396020685527e-03,-8.084387833648842836e-03,-4.966093711576836933e-02,4.285312938189234783e-02,-2.646589777489354381e-02,-5.776812042404155106e-02,7.524684980342247198e-02,-3.465844598858763143e-02,-6.847888268382963661e-02,-1.911249330356620162e-03,1.100656918991614885e-01,-4.167559531668010159e-02,1.319049492038821755e-02,-4.606415644589991615e-03,-1.192690930137392386e-01,-2.800217175959223911e-02,6.840732592578577242e-02,7.361285122409719217e-02,7.557490521518163418e-02,5.236753511604312628e-02,1.642444845406749315e-02,-1.070285764708788778e-01,3.621476140651348069e-02,1.674090628670437120e-01,-2.866424212441699357e-02,3.873249054499107750e-04,-3.772933961611534687e-02,4.523384623963237934e-03,-4.842721183131479257e-02,-4.360986291696775791e-02,-5.796218003206195929e-02,-6.903107176764112368e-03,-8.796365885757065350e-02,1.270341736620957986e-02,3.147127622426137972e-02,3.736962266078706213e-02,-2.560586600422049344e-02,-8.105482312563778990e-02,1.828372973548268027e-02,-7.480582521728709744e-02,-1.299719815830757859e-02,-6.738857523134050842e-02,-4.766020358068982776e-02,-3.758604693178202449e-02,5.348690957341171309e-03,-5.953670166063664698e-02,-8.091896496896573698e-03,-6.783467357867226100e-02,1.837221721726564790e-03,8.468793555936576789e-03,-5.149079285733934586e-02
6.617922987401858581e-02,-3.062781044466389435e-02,4.175558649262304384e-02,-3.280493242635962314e-02,2.874435676176778642e-02,-2.058185069913896076e-02,-5.593920305871768334e-02,5.823236666017038432e-02,-2.284936664098660003e-02,-3.287367115073755019e-03,-1.716275564186583308e-02,5.171089199667629199e-02,-2.945162380930864063e-02,-7.710901425570911016e-03,-1.691182729450680516e-02,-8.634129930194546498e-02,8.235665134232622933e-03,5.290722099837701087e-02,-1.214813676439391310e-02,-3.766634418826474151e-02,-4.074008508877069445e-02,-6.317633932152369458e-02,1.768853307252110652e-02,5.452657205746493096e-02,9.238648170260492509e-02,-2.016848732646712994e-02,-2.374739996719166940e-02,9.388701694850397350e-02,1.023510825971885307e-01,-4.920238253977184811e-02,-3.484698048808018873e-03,2.657186219347483936e-03,5.133887203840794416e-02,1.152194891459470613e-02,-7.438552282238879154e-02,1.125312539508246251e-02,5.111991237856412795e-02,-8.119827967336094507e-03,4.639505587759774202e-02,1.764226082770914417e-02,-3.710305544280602039e-03,4.119053145760098560e-03,-9.977886695426804731e-03,-2.044180095414111983e-02,1.191064259392944219e-01,-1.820729409467391341e-02,-6.295843684826201575e-03,-2.812122726744517608e-05,-6.944031125506965746e-03,-1.491186150639050093e-02,-2.366702865873167999e-02,4.105316419189979776e-02,-3.614302698669479268e-03,-5.947435524701534873e-03,-5.235032481708174618e-02,-2.654776020456076774e-02,-1.354699707951913766e-02,1.911581581806348282e-02,6.120932015702273618e-03,-1.411784204006652499e-02,-3.348588790543097909e-02,9.414036164536442042e-02,3.177853961724018406e-02,-8.642715466818469416e-02,2.156709796014377734e-02,7.761259587457877696e-02,-7.991543780323731583e-02,2.311057187060151091e-02,8.651675868978867326e-03,-1.295737203167693363e-02,2.626003517596646464e-02,-4.770478558442240585e-02,6.022219315143800692e-04,1.844671995872546738e-02,6.219968115505658535e-02,1.415810052804441881e-02,4.156719047465348010e-02,3.095846417905454701e-02,-2.984671234446714325e-02,2.376175213661379376e-02,-2.073044450523655810e-02,-7.393745872807239161e-02,-4.704916612739638501e-03,1.587963220999963343e-02,1.384464029071726110e-02,-2.542044105938500928e-02,-8.541530895921070621e-02,-2.470604630477818420e-02,9.162860934812994476e-03,9.798363191095652361e-03,-3.966131874439709354e-02,3.568996762477365248e-02,5.036684866382913628e-02,6.943909432098942236e-02,-1.786431977984428033e-03,1.226490622138547495e-02,8.057917632846187117e-02,4.468461969664321715e-02,5.379603809171199652e-02,3.055406556169852975e-02,-1.111979520731661703e-02,2.109836216908560561e-02,2.401333586198642692e-02,-1.400283864305472458e-03,-2.463078798705484879e-02,-1.617291403888079446e-02,1.602552371720892058e-02,-7.407074438009909889e-02,-6.344253189287561712e-02,-2.849173011540528239e-02,-2.760856212444064151e-02,-2.782151468935617489e-02,3.603553462615067399e-02,-1.068421132163782650e-02,-2.230944598852974484e-02,-1.737230627612513026e-02,1.674410192158358457e-02,3.889938922447135723e-04,-1.136326558284792010e-02,-2.001956819936852403e-03,1.150779919872909653e-02,-2.605006983338770815e-02,-2.907306171390636532e-02,2.216526551344007688e-03,-1.923203446863193736e-02,-3.063603054626487868e-02,-7.553129852255466292e-02,2.307268597291706191e-02
-4.237128603360464096e-02,-1.208340325048543398e-02,5.173813884334463320e-02,-2.017766499779122952e-02,5.113068356700967154e-02,-2.227497060479675679e-03,6.152746804670582853e-02,1.319593557872675467e-02,-7.530161887079879490e-02,7.288649099618258430e-03,3.011371444047389670e-02,-1.575790593148109972e-02,4.250153656757354320e-02,1.316985425392413860e-02,4.794593995240285789e-02,5.292740033090474576e-03,-2.659595747345081061e-03,4.970207520584333377e-02,-5.568778210168389559e-03,-7.736625699085038568e-03,-3.960193817320042942e-02,2.002451098426950155e-02,-4.180202870008181693e-02,1.282474793884032932e-02,-1.587459996453029903e-02,7.856491600738103528e-03,9.677973442720201602e-02,7.083424977091076769e-02,4.486415756284133777e-02,3.043911702077143483e-02,5.096247645221940042e-02,-1.049767039303175706e-02,-3.612734882406960779e-02,-4.625227134770463350e-02,-2.861119252985989871e-03,-5.517839737730578092e-03,-8.791102009938137063e-02,3.837660558569615590e-03,-1.897509198321307294e-02,3.955211271535924965e-03,3.838239208557784471e-02,-2.025711167239468979e-02,-2.121144595294777169e-02,7.061264509302066228e-02,2.996969078742537165e-02,-2.385580994266214058e-03,2.882204483948925394e-02,5.052806471579044528e-02,-2.706335962315306945e-02,7.633708936776104938e-03,3.795556538414282532e-02,-4.712840811296969967e-02,-6.507464695549004807e-03,4.599185766548483101e-02,3.994431364650875144e-02,1.937752452904070721e-02,1.438270280860907274e-02,4.719805793811835369e-03,-2.855688711200929028e-02,1.509403740673639568e-02,2.668583706163106702e-03,-4.530665219887622559e-03,-1.924004107741875136e-02,-2.807761757498607180e-02,1.428609301691155173e-02,-3.251524137604976106e-02,4.029825423518719474e-02,-2.918789771153755541e-02,7.064842666729752307e-02,-3.461798094036714485e-03,-7.008480670964488402e-02,-4.557651638414655232e-02,-2.820119634931734370e-02,-2.658832162907981411e-02,2.074425757289590985e-02,5.143096257227541823e-02,1.659599703460675271e-02,5.341938454144696397e-02,-9.788075892571376779e-02,2.185895156078164134e-02,6.855320798047824515e-02,1.810498448691634163e-02,-1.228616739775375416e-02,7.285874435009050132e-02,3.227812892112170290e-02,-2.472763847273855894e-03,-1.998202655713825562e-02,-9.454679737375093485e-02,-7.306010343336669793e-03,-2.241423688714325180e-02,-1.777724224287206486e-02,3.297214742916478036e-02,-3.282509408989286309e-02,-1.040317428452636542e-02,-1.057141115846075945e-02,-2.274243315794454573e-02,-4.045694519030513386e-02,4.258702020117406672e-02,3.295839860071190369e-02,-1.311956111487692228e-02,6.000049583294566474e-02,6.128752994146690648e-03,6.989352270404332323e-02,6.006368917278595565e-02,-1.962317146879407823e-02,-1.287595760104229964e-02,5.840389149854107939e-03,-1.653607535147350385e-02,-2.779503952370639824e-02,5.240212719699391397e-03,-1.086553400752085161e-02,-6.634975994173575482e-03,-1.051775616972978888e-02,1.577739051450626970e-02,4.217785685388733552e-02,5.465699454858374828e-02,9.604413187428507970e-02,4.172910104289959121e-02,3.025943306239945937e-02,3.235720151697538127e-02,-2.206249464987205394e-02,1.181694900724219489e-02,-1.897041890443532455e-02,-1.473214835229770363e-02,4.299681492221748419e-02,-2.727966244670773643e-02,-2.127501915840286986e-02,1.408554236740233202e-02
2.936891778485607035e-02,1.666221542402709574e-02,-1.904660729019175616e-02,1.084284870812450008e-01,9.341049229991364722e-02,2.288737969123894739e-02,-2.025064090166320274e-02,-7.405907019697473455e-03,2.643793492432150102e-02,-4.939891747320020871e-02,5.702955112091474127e-02,-2.528002192992232292e-02,-7.235393302268977589e-02,-5.061505788744945873e-04,-3.697199224518984972e-02,-3.726142605093912125e-02,3.408828923172741582e-02,-1.076212853008765187e-02,6.430275993305759052e-02,8.856991471890178014e-04,7.368288900310805689e-02,-2.168819977696623096e-03,8.801417084164805948e-03,1.653354577920385093e-02,-6.814555441040946737e-02,-3.254505754552784735e-02,-6.817825373088605423e-02,-2.367939297894369223e-03,-3.437181157589513925e-02,1.480162996618320241e-04,2.122423284240484986e-02,8.626505701087805456e-02,-3.911211398703075964e-02,-7.878486180094112015e-03,3.584694761073277391e-02,-4.483393923212643933e-02,-3.132345329662024336e-02,3.420770222734100668e-02,-2.961059448912193443e-02,1.064784067465666811e-01,5.817053675889986147e-02,7.790330373676052078e-02,-5.943656079557745053e-02,6.338346192883298480e-02,2.255073083433831518e-02,-4.444501978000081621e-02,8.436968239112258017e-02,4.754009763387401222e-02,4.973169452529592471e-02,2.384926519410330431e-02,-1.170513464187273173e-01,1.368559144930330679e-02,3.768522729356263423e-02,-4.908996932908452765e-02,-2.372931617600254617e-02,8.123183571824475757e-02,4.374436488886285224e-02,-5.859617329815155345e-03,2.405502417983608476e-02,-4.127627045562130143e-02,-5.787735139784987853e-02,3.023109856269108955e-02,2.599602959723424506e-02,-3.844836245737386082e-02,6.985700971773739498e-02,5.413964386733419176e-02,2.107439684016843701e-02,1.860710227986231771e-02,-1.081694717651483506e-01,2.578147670693401589e-02,4.662936562634669574e-02,-1.569875621727723864e-03,-9.324091449012389399e-03,-6.970800200451973683e-02,4.093076005286151037e-02,5.620795015524654090e-05,-2.936383018127189382e-02,-1.397136923367021943e-02,1.186833696636462598e-01,-4.543893267750406112e-02,-9.398610071504046037e-02,-2.053072561601932029e-03,-3.058435841674116834e-02,9.525360003870235806e-03,3.807147395310728905e-03,-3.712281810976540697e-02,2.480064658436190866e-02,-4.886895165676919534e-02,-4.451420358589565363e-03,2.162627907661589938e-02,7.267984867328174114e-02,-2.577193268909952137e-02,3.859933513106168779e-02,-5.546801812789380753e-02,2.487160102887645691e-02,4.869516039834063080e-03,-5.621632506105189719e-02,6.351497352677701325e-02,1.010924960429464420e-01,5.689381874489201490e-02,-6.072190632692165899e-03,-7.447016742828470315e-02,2.150308468107477167e-02,5.873771195098429626e-02,3.438847178657569725e-02,9.609079466851115636e-02,2.398485438424424743e-02,-8.794901716280030665e-04,-1.192266458066724120e-02,-1.295393913714209914e-03,-1.829757159725019233e-02,-4.710652208824802137e-03,2.933075587450236638e-02,-3.066461297055179253e-02,1.799611602232280283e-02,4.913587161016779586e-02,-3.465191736523641486e-02,-2.830024067288220563e-02,-4.662296680191034548e-02,-1.688105143241921263e-02,-9.524591290167970514e-02,4.350227879870412206e-02,-4.895725549480934788e-03,3.842671665065369507e-04,-2.261225109263574617e-02,1.563012601310262775e-02,-3.016667664047927022e-02,4.779941171023248392e-02
4.286919277531132250e-02,3.523350050400706618e-02,1.205940944498743589e-02,2.133744219979595569e-02,7.169316412918279660e-03,2.700252806901322702e-02,-5.680161879195129437e-02,3.880898757299065718e-03,8.738104690107703632e-03,3.253485136100102426e-02,2.033729503074420083e-04,-3.077159540239225721e-02,-3.339185377904307916e-02,3.294425354713451798e-02,-4.097743044866228312e-02,3.267322441163206942e-02,7.321992240822786102e-02,-3.157683870509415264e-02,2.337071859734780183e-02,-5.844355703844257566e-02,-3.681180861533591905e-03,3.809501970283993288e-02,-1.953049044571577436e-02,4.136473733745981568e-02,4.542734780130543853e-02,1.012167775823759157e-02,-4.358855780930764173e-02,-6.047209951100533665e-02,-4.910802105561140607e-02,-6.356164108841981519e-02,-5.111598491938080732e-03,5.813798940279943372e-02,-2.500550291605331283e-03,-2.935734197018217279e-02,3.603704686204053931e-02,2.343270569750727228e-02,1.882228104181924919e-02,-3.950575507753762566e-02,-2.609390344862528785e-03,3.390867385839679837e-02,-4.599987541231820298e-02,2.059116015813905118e-02,4.811965833005793503e-02,9.646919228415032008e-03,-5.176828792921824192e-03,4.407158313713858272e-02,1.443130315881391290e-02,1.092457128513231283e-02,3.636285763504028268e-02,1.429989872469304008e-02,-6.545935616100903576e-02,-1.776168470934688312e-02,2.074008088232371858e-02,1.111510242041688010e-02,1.759592326240723426e-02,-5.680415121353316749e-02,1.372465364308230774e-02,-2.851066605322579925e-02,-1.557862118439388467e-02,-4.550886874545752997e-02,4.423756251488351193e-02,3.122927968771483861e-02,-1.188521995147190542e-02,-6.753066852225443270e-03,-7.571751727914292907e-02,-5.779394853354593783e-03,5.923073508252918451e-02,-1.243870477713309884e-03,-3.196109800419711516e-02,4.821244847920767157e-02,-6.777667256669295259e-02,-1.795366625263787597e-02,8.766751155860105782e-03,-3.977447153922845230e-03,1.723325333957488603e-02,-8.124796690024101153e-02,4.124443542665080092e-02,-2.520024611203120976e-02,2.147616914646561723e-02,-9.135437782665170245e-03,4.189569830328842767e-03,-6.795585567784881431e-02,-4.440553337348405322e-02,2.799243024652307149e-02,-5.443929599654371426e-02,-5.806917421143815289e-02,2.733427642934965762e-02,1.708142012362709981e-03,-4.427718001237578721e-02,-2.463867474485373701e-02,-4.222337217432796386e-02,-5.822329828479235608e-02,-5.858708313047033406e-03,4.687349811521709236e-02,1.740277192176852353e-02,-7.634870939351050267e-02,-5.062392545822145401e-02,3.871323382516588668e-02,-2.459620474714049355e-03,4.598721796654456871e-03,6.092878681759959086e-02,-1.911781314049197308e-02,1.707010243769280580e-02,1.045405865910836035e-01,-3.989444549390764629e-03,1.645809384062757105e-02,-3.859108544847920236e-02,-1.358464878813193423e-03,-3.764602628406606838e-02,4.657667704148991256e-02,-2.829938836088304044e-02,-4.755992578724200300e-05,3.552947575238231924e-03,4.720539014463403377e-02,-2.193174633473048488e-02,-1.286473971867208542e-02,-5.678518234584555707e-02,-1.649487680706760578e-02,-3.833240537931798669e-02,-9.341472671427585028e-02,-5.016643590343530107e-02,-5.010326583090374264e-02,8.540818417592516143e-02,8.398224440800995672e-02,7.519114069163257419e-02,-4.777617181541785746e-02,-6.880184572089271047e-03,-5.044555150936286952e-02
-1.028830926490059972e-01,2.626515141357475130e-02,2.230133586688495817e-02,6.451755145011975334e-02,-9.926504781791346127e-03,-1.569702835057546625e-02,-8.859146645909922457e-02,-7.498537686657014666e-03,-3.762991742539196355e-02,-3.860883956120116089e-02,4.360627768196202042e-02,3.458706306932079338e-02,-3.114286899261478614e-02,1.773815660439786654e-02,3.760715889346945891e-03,8.364726817838744055e-02,2.713690031063605360e-02,2.970927667577379777e-02,1.352750307943522204e-02,1.054244600436770110e-02,5.293118498904678809e-02,5.174605538543412646e-03,-6.465192005061007850e-03,-8.467584896992886440e-03,-1.350203005605246642e-01,-1.977362669145282803e-02,1.989234700380321241e-02,1.055594978848389126e-02,-1.535478525018229949e-02,1.305366306922942365e-01,-5.494200515272777696e-02,5.834748816640088209e-02,-5.918530926381631099e-03,5.771291797438937027e-02,6.782418338298927540e-02,-3.125174868011357243e-02,3.097022724989577543e-03,-2.448085782581184769e-02,2.148197373556432963e-02,1.287928725101942506e-01,-3.409289368831740219e-02,4.999279982901615182e-02,-1.419697299077383734e-01,6.904944658338808827e-02,1.269508614644697039e-02,-6.246799773166689454e-03,2.714005199569465357e-02,1.564708913620990738e-02,-6.071997760350679452e-02,6.453822794048896805e-02,-3.132422974328204213e-02,9.665021747901542115e-03,2.118350294153841656e-02,-6.160674910664434845e-02,-3.354305027770731334e-02,6.206051455895208319e-02,3.515777477474560202e-03,3.490099135248339590e-02,1.133320340705520554e-02,1.080651716548585300e-01,3.292083437476021890e-02,-6.592612699633693119e-02,1.596913908631833121e-02,8.242210283911249880e-02,2.033291625421503653e-03,-5.476463360685856346e-02,-3.686247925067515779e-02,-1.194690290199763860e-02,-3.506552413240471289e-02,-5.159513901524263174e-02,9.589110688455007928e-03,6.810354170565313670e-02,6.175687300991142964e-02,6.129531029531028186e-02,1.156001344270480083e-02,8.154090343486007988e-03,-9.608787566035134273e-03,-7.249383477533261066e-02,5.933369985676399672e-02,1.074730174623403506e-01,3.023703135703089892e-02,1.749830830280070179e-02,2.018827341566416917e-04,6.987213821164729721e-02,-2.984304587025151875e-02,3.176078072877158709e-02,-7.839608921078153325e-02,-4.257723850582414114e-03,-2.937697170774379932e-02,-8.371163824933625097e-02,1.696961937437288515e-02,-1.157759468435224232e-01,-9.620614639645849731e-03,4.512797455548842734e-02,6.769763248773950047e-03,4.683310604137059380e-02,-3.655354576711833392e-02,1.352388302805482452e-02,3.616166092761934764e-02,-2.774146161531144614e-02,4.883818498988765078e-02,-1.114354905638704693e-02,-4.627936246115281482e-02,-1.608557799046199735e-02,6.520993201882591128e-02,4.040588531780831688e-02,1.433744748444345553e-02,4.896031013778009283e-02,-1.592968484135294516e-02,9.229329665892913037e-02,8.058737595305209486e-03,9.880661755414579805e-02,1.447509827991221368e-02,2.286895988833696422e-02,-2.267705696528911699e-02,-3.752199973254673193e-02,-8.034843407167048535e-02,8.752950625134020557e-02,4.711009064836164939e-02,4.495947254549489264e-02,6.401381282754597946e-02,-1.396784142380402133e-02,-3.963557882398152307e-03,-5.300366992977040975e-02,7.630412214082031575e-02,-2.780504280172965172e-03,1.859481200175057414e-02,-4.093380472356618859e-03
8.303895929555650535e-02,-3.406597218284546785e-02,-1.648203931597778255e-02,-5.977531955546094844e-02,7.552304280203946119e-02,9.807252662492786655e-02,5.118265137246039154e-02,-2.731441535921954114e-02,-3.167923631977897364e-02,-9.017914040165649070e-02,-4.836586723407488436e-02,-8.176279929217648845e-03,-8.493681854288691324e-02,1.127353338852318289e-02,1.798295256323668295e-02,1.074325213114049049e-01,1.787114303590652681e-02,-2.110215168035636454e-02,5.486515945407935413e-02,7.821963010102511715e-02,2.636441220104202877e-03,-3.358826408641854555e-02,7.548690984386651447e-03,-1.921868699908892836e-02,1.009858471910531248e-02,1.622829069485197742e-02,-9.145970976853300127e-02,8.229330627444112270e-03,1.070988236053560527e-02,-2.764465543957285790e-02,2.077932123225561395e-02,1.701653108668668007e-02,5.386477821237609098e-02,2.157587942395918553e-03,-6.738948575582924018e-03,1.208185151258229714e-02,-4.631146456595945649e-02,3.029565827826479971e-02,-2.570984333003813530e-02,-1.251326242019941068e-02,1.677197367349312143e-02,-5.015036938612286305e-02,2.952482574443821700e-02,-1.905804801570855139e-03,-4.826141837025760273e-02,-2.060883498041521551e-03,-4.664771019107316619e-02,5.796075025349197579e-02,-6.939656741234294206e-03,8.714703934811074415e-02,-2.421331517786579068e-02,-1.259794477760591350e-02,-4.262963419940725418e-02,-3.616586987563186195e-02,4.498696392777060821e-02,-1.948263868067617866e-02,1.002084143139031968e-03,-2.518055462451347648e-02,8.960453935525991911e-03,-1.036517202522612043e-02,5.757395148097822421e-03,-6.320384567023654664e-03,-3.092410138585325458e-02,-2.925509784359818163e-02,7.716594796700337877e-02,-5.601448014357088279e-02,4.032319649383286214e-03,1.228279180380679840e-02,-4.828161129151928993e-02,5.132737893691770824e-03,-7.055359067660357808e-02,5.647069410446686408e-03,-5.315090678211033259e-02,-9.916966553139994894e-03,5.072457895533034195e-02,6.071786626041080978e-03,1.753804407388581330e-02,-8.446582225011289337e-04,-2.469934196624684261e-02,-1.665516450276384453e-02,9.584859249657873628e-03,3.256574190190892476e-02,4.136761472772593207e-02,-1.815467847934889439e-02,1.308262750423478185e-02,3.505020544696026141e-02,-3.536655478986454326e-02,-1.931748669288495257e-02,-1.121180311874821200e-02,-1.733897456451669386e-02,3.072948662286421190e-02,-3.467681592086190034e-02,-1.366109838564277638e-02,-6.595835410766204450e-03,-1.622142898995825727e-02,-3.268191980296610705e-02,1.956266445625128719e-02,8.912262153845679907e-03,-2.525603225266374874e-02,2.805572693604398149e-02,6.671799771816541713e-02,-4.906783607076035947e-02,3.032471465121639245e-02,-1.614571264615014337e-02,5.215226711950594896e-02,1.622206324365320709e-02,-2.299793214859384427e-02,-6.212392129776696074e-03,-3.430418123076440368e-02,1.298965484109726454e-02,-2.517102704826830115e-02,4.654912785398064579e-02,3.281216427087643717e-02,-1.459612416733308514e-02,-4.614083136489852827e-02,-2.180564308673903565e-02,-2.517299808627623380e-03,1.761411274265705165e-02,5.004566603062352015e-02,1.437395550896174330e-02,-9.328684901077388680e-02,5.588552503878026906e-02,2.891223962720698357e-02,6.640721554020315165e-02,-1.019315098239419008e-02,-2.103087279206481211e-02,4.910392591196108963e-02,1.321749123524019846e-02
-1.404991710685377787e-02,-5.451421910751366381e-03,3.523247198061090629e-02,6.551150870171471713e-03,-1.004225429802071967e-01,-1.085239116561932671e-01,2.623382647218047443e-03,-1.547590658115966401e-03,3.699750000605677575e-02,-2.821222040553580598e-02,-5.784921480526050708e-02,-4.870316549784522303e-02,2.016256914487320889e-02,3.825274048580643710e-02,1.759817738659532954e-03,4.073402785638445198e-03,7.233139985487520990e-03,-7.411647126646650485e-02,3.944479350270826967e-02,8.008224871574261272e-02,-2.015078599977726884e-02,-3.731001339000405287e-02,7.777544469958316137e-03,9.715700199932533754e-02,-1.497682871498599334e-02,9.931255637867881722e-03,9.096150726268116549e-02,-2.710147547206059188e-02,-7.767799698001660869e-02,2.255537637880828186e-02,-1.064367129848979229e-02,-1.706456029376324235e-02,-1.936957344446160745e-02,-5.241724333037710813e-03,1.818827781196471691e-02,5.935475368443232647e-02,-9.176605393546338751e-02,2.910260149889164205e-02,2.345360005943174578e-02,1.042733927655331294e-01,-1.879611560849762464e-03,-1.994132012485019811e-02,6.093847823559639387e-02,8.065904973769678910e-02,-1.008449372555313556e-01,4.131867025772401752e-02,-1.120838223450877635e-02,4.773961802258346737e-02,-6.582880875737429083e-02,-3.167567935429721482e-02,-9.337545332513397245e-02,-4.634632160864770450e-02,1.031150905477575160e-02,-1.393546077434783606e-02,3.372400991078913172e-03,4.685865074531628260e-02,-1.991200188473680327e-02,5.485171965786201503e-02,-3.933547907670802840e-02,7.401842692718085814e-02,5.151043685462726451e-02,4.908886568494161273e-02,-2.325562998614191107e-02,-2.500055623378815914e-02,1.008121500631609579e-03,-1.534811871363026686e-02,2.406342980099506618e-02,-3.824709424925825524e-02,-2.572904399374102702e-02,3.783871370414000623e-02,-4.739641762824005344e-02,-5.145663171268895220e-02,2.922457859327391716e-02,-5.818142107487520032e-02,5.857572764091132506e-02,3.909071496495160336e-02,9.619318046211336459e-02,1.278344125575935353e-01,3.379024592556238715e-02,3.956725399799517623e-02,-5.930282718538865822e-02,1.027680465792890456e-02,-1.507489490779350370e-02,-3.549787218931075433e-02,7.788145157466469515e-02,-3.804078503327406463e-02,-5.802277014993096477e-02,4.713961979793555336e-03,1.147922300747909914e-02,3.971904942775418557e-02,1.104557802225865359e-02,-1.381086178577955494e-03,1.199552533341882547e-02,3.980213259873977005e-02,-2.492918661999364224e-02,-1.521481351161202769e-02,-9.871192567308573196e-02,-8.240181780960728663e-04,3.667303735969204559e-02,1.473394523644399115e-02,5.586000063122171372e-03,-9.274835983433418404e-03,7.267651625496705618e-03,-1.762031744804249886e-02,4.010431890603235322e-02,-3.095254226096851025e-02,5.595598378978110937e-02,-1.197903761465086980e-02,-3.718346318663873218e-02,-5.929623723766725557e-02,-2.039307914963315108e-02,4.546813724024430237e-02,-1.430700190581017314e-02,-4.164823159343862546e-02,-1.080759616492137781e-02,8.774431074386121465e-03,1.191770805459226035e-02,-3.247581475277065699e-02,6.330806022091987548e-03,-1.247149994174983137e-02,3.885681851655997665e-02,5.591850360869986963e-02,-2.227393530966333829e-02,5.869710069431877814e-02,-1.160814457839859232e-01,-4.654387124401539698e-03,1.721839358255851937e-01,-2.543789767452718856e-04
7.926472534709089190e-02,6.227508532896148391e-02,-6.032097391419023735e-02,2.201263400668751827e-03,2.614982772354615057e-02,3.173015858114314192e-02,-2.690187459763119723e-02,3.204535863828102821e-02,1.279300178565545912e-02,-4.871747763713967449e-04,-4.771338113010660520e-02,4.233612163550826840e-03,1.082648563898215288e-01,4.487117761433714186e-02,-1.555170970107955242e-02,-1.123768531536584597e-01,2.481380585317934789e-02,6.038103705752796008e-03,-1.672426398302205922e-02,1.506302441848661813e-02,-2.395521764032316689e-02,-5.441467614000933956e-02,2.444222388642900215e-02,-6.098718309158650264e-02,8.884383727536369901e-02,-2.291621087103137139e-02,5.283255230629468370e-03,-9.817866967186186788e-03,-5.563727779145600377e-02,-2.281578213063693503e-02,4.056758359786854368e-02,3.275752065513851878e-04,-6.165910993493261757e-03,1.071908167897197596e-02,5.075806259423783912e-02,-6.186052951825143920e-03,-2.024560249661391462e-02,-6.969740699722074863e-03,-5.856329160115381766e-02,7.415982984907147635e-02,6.933479297009796649e-02,-6.633914459347861050e-04,-1.168231526806524229e-02,-3.266240866985011676e-02,3.013599678614303432e-02,5.515017202778817185e-02,1.487050906985373615e-02,1.367586013132889369e-02,7.372376690291532197e-02,-1.209979652898640345e-01,1.253597988561632424e-02,4.930456876081467515e-02,4.811369373095187446e-02,-2.438848665866173021e-02,2.860531512822333394e-02,-6.255724144396468400e-02,-2.042379534497807195e-02,-2.961664889274886331e-02,1.215007471880218404e-01,-1.147819386136722866e-02,-6.070884535746619293e-02,-2.883647233292613646e-02,-6.836513165910992895e-02,-1.061751820302383742e-01,-5.188541680494893754e-02,3.546843953173380026e-02,-2.917235962879803461e-03,-6.062972611696516856e-02,6.406275356782538399e-02,-4.750752033325680163e-02,-4.873264528934992575e-03,-1.288592423940478071e-01,4.320791979225994950e-02,4.556923030104967354e-02,2.769896005819219575e-02,8.850459656296515154e-02,9.242136053104321736e-02,7.141338220108126023e-02,8.213110272902723885e-02,-4.061272351458514521e-03,4.095270383960001453e-02,3.859697236423675210e-02,1.153792853463275932e-02,2.552289793884240932e-02,1.003596746107515703e-01,-9.615970372766669688e-03,-1.104666450888400486e-01,-5.451326863908594056e-02,-3.016106055147230181e-02,5.946025733386336304e-02,-4.927451479466316703e-02,1.281159947039279545e-01,3.879541181235775758e-04,1.214412669569830960e-01,3.024156120636238218e-02,2.601162813421922446e-02,2.699061028228284462e-02,-1.839964995171362513e-02,2.172740325199742396e-03,1.045918549064888681e-01,-3.199700047766919353e-02,6.071860087024007202e-02,1.003075189618964913e-01,2.701657619878902045e-02,-6.432588855888063395e-02,8.327766699043689935e-02,7.155310504531442461e-02,-3.389588980574672478e-02,-4.408263654116247043e-02,-4.764610491673920006e-02,-1.331473169298514822e-02,-4.384331156277486430e-02,-9.546752356438165110e-02,5.239241771361015376e-02,2.396197956061483017e-02,1.148089790869437181e-02,2.285503687627412489e-02,-1.551190242918874806e-02,-3.024213040797872967e-02,-5.701406172794908772e-02,-2.131605760567659852e-02,1.613809164626913914e-02,-4.566179466117542551e-02,-1.928746185736854649e-02,-1.100793199196131202e-02,-1.283722091638645618e-02,5.314186534305939680e-02,2.107890201209299680e-02
-9.905101322114943929e-02,2.560628871079280791e-02,-2.144509114339315098e-02,3.040469662499437759e-02,-8.906697419437427377e-03,-2.800728238977832560e-02,1.438852513135028925e-02,-1.014824449581329391e-02,-1.095079901998972927e-01,6.513767972670203577e-02,-1.496348226380655143e-02,-7.938646875147113702e-02,1.747490345371487466e-02,8.999001692308539191e-02,-4.266546589180921639e-02,8.870265034423617523e-02,6.529944476034049705e-02,1.910481489878720907e-02,6.552652494291319463e-02,-9.609559136995548742e-03,1.529234525532866332e-02,1.419586908640783907e-02,-3.808043778607141105e-02,-2.846758979763609407e-02,1.529596154533389811e-03,-1.319379957616282663e-02,-1.253373672572455355e-02,-4.584872715024122108e-02,3.908873955679407347e-02,3.266868326991502914e-03,-3.017919380909989732e-03,-1.824267668907066445e-02,1.043861764558547817e-02,3.165760106911309074e-02,-7.460546902544500092e-02,4.232445648730022436e-02,9.132195620066570207e-03,-3.418705312716263656e-02,-7.807629156973480700e-02,-2.663763453744239992e-02,-3.907698030967227815e-02,4.130124934406362303e-02,-8.322962010259987720e-02,-4.582379518738722429e-02,-2.189201840984705133e-02,6.657973780790495122e-02,7.088894593714670407e-03,-5.928440159707886598e-02,3.389132797779831341e-02,-3.640519479124760399e-02,4.391174709331461049e-03,3.803196301962177839e-02,1.824899496819688480e-02,6.718400387160834708e-02,2.106854437079179465e-02,-1.454992583218162223e-02,5.525901643513195238e-02,-2.292281268517642676e-02,-8.611063736065096424e-03,1.588200856705581157e-02,1.379947146232650586e-02,3.256257207370082812e-02,6.277120284101543254e-03,-2.426145218182753846e-02,2.610679497042805303e-02,1.277464091776391863e-01,4.882401675290115595e-02,-5.642735578828421417e-02,-1.479975038084495320e-02,6.455575429784080055e-02,-2.554529685405785427e-02,-4.244928402898254932e-02,4.997638253785134654e-02,-1.329094853623719952e-03,-2.239594420968826771e-02,4.571962693900354785e-02,1.460968742906797180e-02,4.273639832064347194e-02,-2.002271772103276018e-02,-1.984029374078494223e-02,-6.016600748003401999e-02,2.850329573221591778e-02,-8.321154230969317334e-03,-3.137176655016686491e-03,-6.208621809033212230e-02,1.118075178540341164e-02,7.040106375757856916e-02,-2.240187112034272912e-02,1.827609343842406808e-02,-1.630965935576040790e-02,2.752910336451322437e-03,-4.025613346349313920e-02,-4.929863514399140945e-03,-5.985310652512663282e-02,-5.881679681393954529e-02,-7.965591880526584623e-02,-4.397775693895982635e-02,-6.916983121223164999e-02,-3.443327601443824104e-02,5.448152123086136972e-02,9.744220047631551099e-04,2.287879063644846639e-02,-3.569687456041544665e-02,-8.653934966126974881e-02,-1.104731131049327755e-02,-4.228925965219242772e-02,-6.441906429801962097e-02,-4.408097875401342097e-02,1.180043727417568779e-02,-7.109520622377529103e-03,7.211766313602313051e-03,4.640378256228205878e-02,4.374589326451634036e-02,1.900887245328393427e-02,1.793608440093446416e-02,8.076527245888158804e-03,2.441413773506466781e-02,-9.573220019255395145e-04,-8.550193043743761420e-03,-1.755665221266050277e-02,8.287933602089311846e-02,5.704142986159839446e-02,-4.263618163534273198e-03,-5.744738685399769507e-02,4.819862098519743857e-03,-4.773665996029880648e-02,6.838578318166836645e-02,2.295498297707267848e-02
-1.528517346650680453e-03,9.541243368052088059e-02,3.136733760361313378e-02,-1.428703719180585315e-02,9.487069263731100644e-04,-1.611195761469415288e-02,-1.177784378741626864e-01,-2.782498824535210077e-03,3.849128233380533226e-02,1.241202979351062330e-01,8.008559962902284113e-03,-3.971883334148057151e-03,-2.632364535241144346e-02,6.722421033468785334e-02,3.169929478337416701e-02,-6.240344521623591295e-02,-5.884334041190018849e-02,2.499315595395230558e-02,-8.179467533682148461e-02,-3.741817646296156236e-02,-2.094967204763232768e-02,2.572308898098749075e-02,-4.511961612364583617e-03,6.579359369217395448e-02,-4.079384845450101556e-03,2.203629232123195669e-02,8.000197376920395453e-02,-3.042857070565854402e-02,4.210969782023262636e-02,-9.441353900508620001e-02,-1.952615371679754241e-02,7.781532389691508955e-02,4.174623718288517082e-02,-1.641891421762149000e-02,-2.468968789041153366e-03,9.367313130993050550e-04,3.553480472533965956e-02,5.568950978647535868e-03,1.208558461407520206e-02,-3.581547420933386267e-02,9.038554129092849984e-03,9.912675482979218383e-03,1.460981050275562618e-02,-6.270832342976362384e-02,8.317762038260408108e-02,-2.103213793727144731e-02,4.257707996214362550e-02,3.486275916724369123e-02,2.925765640645025187e-02,-1.295079889216693182e-02,-4.620837869680444882e-02,-2.461554475617906343e-02,-1.080453352717102543e-02,6.109497074845134795e-02,-4.880112375626704385e-02,5.076931075509302088e-02,6.037132919966849837e-02,1.606634875163337126e-02,-1.605136201459103282e-02,-3.798798112065551649e-03,-7.907918000591714069e-03,2.958561168592989139e-03,-1.972106664631974315e-02,3.023278843598020335e-02,-1.894314930150269721e-02,7.508992610842376604e-03,1.293982255498126593e-02,-2.051009322855694775e-02,5.416349349803845081e-02,6.228547202490954809e-02,2.732123693903537598e-02,-2.801943662340903793e-03,-8.511038654664081216e-02,-1.344498900532633823e-01,1.933990337117593231e-02,-5.972936547386938078e-02,-7.444868341044008631e-02,1.019963601598646019e-02,4.459824412025194945e-02,1.247833737057281629e-02,-3.029041644513858628e-03,-7.887786932928746164e-02,-2.814165735781125333e-02,-5.195460288462701998e-02,-8.553454045282165435e-03,4.058043666258261822e-02,3.984459187864691776e-02,-1.233441176872660666e-02,-1.063292552367856546e-02,1.965345891409765733e-02,-4.694239412375703774e-02,-1.893191038489341893e-02,-3.094201709758212168e-02,1.807851648337366335e-02,3.305469610813259489e-05,7.262377341089490401e-02,-1.415562052202252834e-02,-6.807045821925368501e-02,-4.774470578225783329e-02,3.400154570422322248e-02,-3.102873042471720674e-02,-5.763537581367912666e-02,-4.950426010527483878e-02,-1.414260489065657656e-01,5.040170075736986194e-02,3.453882816548149021e-02,-3.326531720277219138e-03,3.626117387573463136e-02,1.067531024567756337e-01,-7.538304414063523931e-03,-1.297764175010107310e-02,1.436428317753328000e-02,-7.488969312733918457e-03,3.318911958501956361e-02,6.154534580144885997e-02,-1.599715840372723658e-02,-2.157369864247204658e-02,-1.458949916556747349e-02,-5.269711254284800694e-02,1.192868547849051941e-02,-7.935841518438783992e-02,1.804879454322643600e-02,2.704889605506655831e-02,2.679061556354283419e-02,2.976846673278427113e-02,-3.019178665090649707e-02,-8.055810922747148883e-02,2.574287005641852366e-02
-4.882430378092309647e-02,-1.351448539637597167e-02,2.818987235413034781e-02,-1.247870927584988736e-02,8.102189202846109273e-02,3.111292088390223490e-02,-2.840199476086937083e-03,4.111335076281227852e-02,-1.010084194737641793e-02,-1.337711131616877575e-02,-1.092189908175694030e-02,2.554585167526130310e-02,6.213125413175361184e-02,8.546178193235237641e-02,2.519383286813337008e-02,3.826213025259483924e-02,-2.215767154242639231e-02,-1.019020640741353373e-01,-5.664130168039829133e-02,3.163457144371579349e-02,5.331944679097641755e-03,2.327820745101109173e-02,-5.001653626427488702e-02,-6.382143996937536534e-02,-9.331653817742599846e-03,-3.210011255453707607e-02,1.337668953383888693e-01,2.614059910793896640e-03,-3.941579627894029048e-02,1.249840554890464285e-02,-1.968060589160230620e-02,6.298877500753928549e-02,6.810795622766849244e-02,8.907437580942314040e-03,6.028475799317075529e-02,-3.964976544267198415e-03,2.697336771317064563e-02,-2.760181198520869888e-03,-1.332547724480102024e-02,2.484305564613552633e-02,-8.069786448138796531e-02,-1.081157253027708286e-02,-4.894232879114682883e-02,-8.157300769259972703e-03,5.112533939780773695e-02,9.310357989637721432e-02,-1.653923259497898281e-03,-1.717710219785942294e-02,-1.666356459808406021e-02,1.075401290076393075e-02,1.082358958958042905e-01,2.685579193816300947e-02,-2.558805585503368119e-02,-6.335322489743026864e-02,-4.866776585677941996e-02,-7.060270058849386909e-02,2.058633831265812425e-02,2.383643636531827120e-02,-5.805150104694905416e-02,-3.000675084241745047e-03,-2.982285725379235294e-02,6.467306746785684483e-05,1.055478874127697975e-02,2.270316158869995632e-02,1.912753703631682456e-02,1.687342282587782696e-02,3.865238273008251429e-02,5.199901332261318548e-04,1.032696408061829635e-01,-1.191044183650843448e-02,6.190070959064596784e-02,-2.803275769813437859e-02,3.981628646904052798e-02,3.215824496920720310e-02,3.059048827665353937e-02,-1.410814305883095927e-02,5.999965611870089477e-02,-1.045056214797840805e-01,3.346855428098684249e-02,4.585970173565637881e-02,2.750117771648423470e-02,2.724719172469342032e-02,4.931810939619240414e-02,2.421163124389136626e-02,-2.972286450616714801e-02,-8.883742320468858422e-02,-4.691798084057448998e-02,-1.306277813754613826e-01,3.551404335424637043e-02,-1.321913873984009169e-01,3.502629017528326866e-02,-4.896248991266105577e-02,-3.940415614735336136e-02,-1.202947159532940791e-01,-1.006577038975987708e-02,-8.697344978410187152e-03,3.324328667216080307e-02,-2.998443063570706280e-02,6.031829477401834394e-02,1.167446201202188526e-03,-1.336573653873809452e-03,-5.373380361967292594e-03,-1.336499368762264772e-01,5.207811268752865139e-03,4.771446579922644649e-02,2.087595951815911233e-02,-1.104514367991449031e-01,2.605758998402872215e-02,-1.254835596841644488e-02,-9.607515434771469326e-03,3.819859906428239860e-02,-5.944089000992747174e-03,3.371700351491078995e-02,7.040670588614561520e-02,-2.400999783042128116e-03,-6.696243128238289766e-02,-3.537307200920634248e-02,-4.465204432122523576e-02,5.643983484463981071e-02,-7.169817245783990933e-02,7.344695970297621113e-02,-1.061236040109659988e-02,6.233903682005575986e-02,-8.093663933778841302e-02,-8.498004016239796288e-02,-3.583827209947083869e-02,9.528943013978223575e-02,7.468012886141474002e-03
-1.434049255295847050e-02,4.799860643650374729e-03,-1.923800581704917731e-02,3.556594156137415225e-02,-6.566369632529389655e-02,-1.812458217811630315e-02,-1.412306392758871237e-02,-2.615874740684593844e-02,-3.230939005075810638e-02,-7.599296026283262895e-02,2.234851948736172808e-02,1.900944847381739675e-02,-9.393230848664468891e-02,1.897438482779967989e-02,-1.705740124562069374e-02,-5.984534203790457807e-02,-1.402211622890256991e-02,3.127233245219156882e-02,7.700198278680729647e-03,-4.187402626764052775e-03,-4.031045743388533831e-02,1.910970120253624232e-03,1.936193015821712285e-02,5.564746453242833818e-02,-1.475855700326362575e-02,-4.002175619721262678e-02,2.542745721318959498e-02,1.052895981995864358e-02,-4.755450540504501116e-04,-5.308393797314694962e-02,1.920462183297895909e-03,-3.775154118054919322e-02,4.690199728387300232e-02,6.958172362647538356e-02,-2.701874561178120235e-02,3.748504658140507789e-02,-2.852406122520914633e-02,9.417038928143486864e-02,1.598027973880438574e-02,2.401863615425215912e-02,-4.248237032606768607e-04,-1.426379493568340033e-03,-4.718443831313746256e-02,-7.722685339708483532e-02,-5.578888605191135650e-03,1.057567779241750799e-01,-1.844476845725868258e-02,-1.444585191166676726e-02,8.414809732804601206e-02,8.612766400018799506e-02,-6.587165801081933114e-02,1.889979391418050367e-02,-8.903520032921417859e-02,4.485165247662481480e-02,-3.637051452019284675e-02,9.168886825108154767e-03,4.260732798706225177e-02,4.698796718657693994e-02,-1.362100407696993296e-02,2.722354960171028543e-02,7.810373970740289813e-04,1.726204282299624582e-02,-6.127566387552586119e-02,-7.411556167160941733e-02,-5.801812330369103543e-03,1.675515918443956989e-02,-2.223275470289258742e-03,-4.245906855979017513e-02,1.931861550022297841e-02,-3.133065887199804056e-02,2.617971229364046172e-03,-2.477786366046813224e-02,-1.059536688264850479e-02,1.985281241932691787e-02,-4.360777724100294017e-02,-2.470303489130103863e-02,3.064187588689323144e-02,3.468787673285479711e-02,3.009416420167260794e-03,-2.397234199066924920e-02,-4.939670616679925179e-03,4.088973503698259404e-02,-1.973933411767235177e-02,9.048817117860137246e-03,1.061461440960684115e-02,-2.773597562436288383e-02,2.708995643738480730e-02,6.656330493345395671e-02,1.022012155299493671e-02,-3.636090102762964960e-02,1.300307982909262514e-02,-5.266436519505504794e-03,9.778332565432619472e-02,1.018424919421618896e-03,-1.669243717134298588e-02,2.088759545260841788e-02,-3.635182902707002200e-02,3.295564471249255722e-02,-3.366272561401044416e-02,-6.048963483920834910e-02,-4.989624395555730760e-04,-2.775652434071126246e-02,4.588848135732807344e-03,-1.920437943918405777e-02,3.088494454031816966e-02,3.205278809979029281e-02,2.492770041693477892e-02,1.474364638054852066e-02,-2.427347600825377830e-02,-6.303251021920164288e-02,1.086226022483763320e-02,2.861060919287727444e-03,2.818162829117282914e-02,-6.903291784738443959e-02,7.075119861036759106e-02,1.118570983542409400e-04,-1.798435917818174551e-02,-2.959501152679751973e-02,-1.609699355402857343e-02,5.083600769933109553e-02,-4.211406044159471396e-02,-3.466030389920526922e-02,-2.300063121736951530e-02,6.427639637507566450e-02,2.486552010822261349e-02,5.004340420590329408e-03,1.567252966072149025e-03,-3.446741427310075906e-02
-5.453604688190408223e-04,3.386426802809454351e-02,-4.323160388277743488e-02,3.581697078994313527e-02,6.508083041887295639e-02,1.994853523470205975e-02,-4.749516267046024337e-02,-2.645146014563967002e-02,4.542509754907780861e-02,-6.478641744045257091e-03,-1.155288168705120378e-03,7.704630697147300464e-03,-7.396058547816010409e-02,9.601422576499937800e-02,5.870077295541092054e-03,5.943843230237360470e-02,1.475172612680039803e-02,2.166283103683362340e-02,-3.155605230844747960e-03,2.525359439547852913e-02,-7.509609768224861925e-02,-2.618028920893376507e-02,7.393256177898341330e-02,-4.843451295301161481e-03,-5.281259973956520248e-02,-4.632412340606377466e-02,1.052015265679394351e-01,-4.720768947153526802e-03,-7.075698799684061735e-02,5.670263914880607076e-02,6.062070011054577351e-02,8.292158785739990601e-02,2.875390924763464306e-02,1.106789274178290039e-01,2.652687911052238959e-02,2.490674323953626437e-02,-4.393615620920215264e-02,-8.047010396559520218e-02,-8.131402465238676824e-03,8.715472084792322272e-02,2.319946602537751451e-02,4.612185311300039808e-02,5.226053220701903923e-02,1.271477016752100009e-01,-5.618845872161340460e-02,-1.766597696677956256e-02,6.341190246476972880e-02,1.028081543129906288e-02,-1.700305746916587479e-02,2.988974799924168368e-02,-3.255193074671727804e-02,3.271102438913353616e-02,-8.863842393133496145e-02,3.346214247694451194e-02,9.104943065048240469e-02,-9.689857409703765342e-03,-1.563377181416470210e-02,-9.749026152384673502e-03,-5.132883495414963804e-02,5.885148088708029579e-02,-1.935638773299067431e-02,-1.804154148636154600e-02,-7.830525922767392344e-02,4.809231108237067148e-02,-6.778741783788010643e-03,1.605422117420157377e-02,-1.049732272672380083e-02,3.524103168763912525e-02,-3.925313854259188107e-02,2.061041528266259731e-03,4.506537434028975997e-02,1.224526004524906751e-02,-8.972120122478591253e-02,-1.208049708539206749e-02,-1.350520306361888568e-03,-1.647462205623744956e-03,-1.867312920731057507e-02,-3.664195270408966004e-02,-7.321251599694060010e-03,-3.765281470407402797e-02,5.157857336905292273e-02,-9.171157255388082130e-02,2.652963119854776647e-02,2.781634926972230068e-02,-6.541491897518396381e-02,-1.945125293363669794e-02,-2.096148619354473719e-02,7.512801908326949274e-02,6.789490992730817798e-02,-1.942316391168540796e-02,5.187807056467339667e-02,-7.773435870639269427e-03,-7.221692120190884197e-03,-1.210497047569191256e-02,6.706975951330663988e-02,-2.760982094604475315e-02,-8.912137660912755610e-04,-3.943069157642714595e-02,-2.330372368189369617e-02,2.500539186781101236e-02,-2.634618134793543717e-02,-1.117901228729698826e-01,-1.674840762592411450e-02,2.476712780355093055e-02,-2.954731616615806702e-02,4.724114598838251300e-02,6.979229659631805416e-02,-2.515165014817818956e-02,6.726290004315019222e-02,6.065277062504439987e-03,-6.947180508566069964e-04,4.802585576621926089e-02,7.851034048761237893e-02,3.109744813354452242e-02,-3.594389975215222383e-02,-4.058375413060748282e-02,-4.037521084067821793e-03,-3.498193529126094464e-02,-4.805689028186563468e-03,5.010364565426720512e-02,-2.782427767861209156e-02,3.065254680595522890e-02,1.476261832471556859e-02,1.700663096318148423e-02,-9.128607063733380073e-03,1.630926027882013962e-02,7.321246240932022253e-02,4.134062225030535331e-02
