2.116659334228088510e-02,4.975206395676054494e-01,-1.761224148778712528e-01,-1.302148141204157589e-02,-4.785449602947079994e-01,3.958749188002600450e-01,-2.155310030695299361e-01,-1.223527924848658299e-01,1.571556493368624630e-01,-2.740485125628777316e-03,5.916934393403559291e-03,9.664708592256004982e-02,1.325657629060948139e-01,1.324806549429081159e-01,1.823508731620409329e-01,-7.986618567264197610e-02,3.228423044781860152e-01,-1.133690320644876737e-01,-3.722480678279604938e-02,1.175662130579029595e-02,-1.536564214805088979e-01,-2.545578923377279090e-01,-3.118042212602058216e-02,-9.270949788855212259e-02,4.459164362558399874e-01,-1.459485333401794836e-02,4.886112547562665998e-01,1.007049504167576576e-01,6.424126783028057119e-02,-3.136094581627789091e-01,1.867951246508602892e-01,-2.216084349794963937e-01
5.962226439338397938e-02,-1.982303723580633448e-01,1.597923380473601496e-01,-1.361407117931796584e-01,1.048745812272945804e-01,1.214886979488706276e-01,-9.211884811571607878e-02,-6.674272804739676997e-03,1.910149917017353316e-01,-6.129806161863456462e-03,1.908346905207937427e-01,-9.732202453408752077e-03,5.989749852750107101e-02,-6.206864003976545092e-03,7.400971709538094190e-02,4.644813238807845440e-02,1.147612686040910546e-01,-8.255983653847182024e-02,-1.370445641288858991e-02,4.902122927260003232e-03,-4.315287038749079235e-02,5.616361327524455743e-02,-5.804691169596640221e-02,9.538371602598907928e-02,8.055191654763512246e-03,-6.275175936122219522e-02,5.084146117143437810e-02,-4.846643757930774871e-02,-5.839485916187427128e-02,1.772424092781193783e-01,-3.391575611249712519e-01,9.262671086687271349e-02
8.541014293149751246e-02,8.396601679151349806e-02,-3.702513727662635340e-02,-5.172136372154836209e-02,-6.089386437757086240e-03,3.257478542113342868e-01,-3.422236768214528824e-02,2.177733007992818104e-01,5.465424941242080781e-02,4.580271963021100012e-02,-1.562179547226357212e-01,-8.880508331255648757e-02,-4.746517328053011936e-02,-3.659216393686623089e-03,-1.717868399788048672e-01,3.045818972632732824e-01,4.760309439819428862e-02,8.128444791529804148e-02,6.398670453790430979e-02,-2.028001275405823256e-01,-1.485241080445733226e-02,-9.072017249666952665e-02,1.748494284135666543e-01,-5.402399387509935341e-02,1.820723581555730441e-01,-1.550045088230648793e-01,3.421439050482962818e-01,4.449703792861550017e-03,-1.539007790256031460e-01,5.175166096422338657e-02,1.300952759896839041e-02,9.442818731210363137e-02
-1.125036682210323047e-01,4.971659862837474880e-02,7.076669607401156470e-02,1.533280300053656287e-01,8.255570930082341274e-02,6.764571071117064793e-02,9.156505070585876926e-02,9.408336964864660174e-04,-1.298618749785470095e-01,7.710664659758770245e-02,-7.605407640704347876e-03,-6.008569593856091795e-02,1.138463599819714428e-01,-2.787279237918287647e-03,-3.134626985892332574e-01,-9.779405570289921579e-02,-1.161792533716076853e-01,1.408367514176635804e-01,8.372256652078367833e-02,3.123369794667099977e-02,-1.487043022235206291e-01,9.042152270379634482e-02,1.772295030484076217e-01,-9.606218959706583002e-03,-2.359370609645683112e-02,2.397956328806425119e-01,2.005796367266717284e-01,-2.317109662511844526e-01,7.222785411573326431e-02,-1.026733787291786437e-01,3.237352722708533581e-01,7.139826626906783935e-02
-6.565666353147718917e-03,-2.131533213224816037e-01,-1.501518108216269298e-01,1.096601018279409201e-01,5.830180349486161276e-03,5.835924699208611816e-02,2.668431837891332425e-01,2.683128871223539047e-01,1.448683787034314441e-01,2.587370336557017619e-02,1.966738193069420271e-01,-9.754051640698292724e-02,-1.474108166530083697e-01,9.445662483015734856e-02,-1.615456172683875924e-01,-1.319882692281342529e-01,1.730071309107086008e-01,7.243863267686756480e-02,-6.523768017244098438e-02,9.909952871282916298e-02,9.067484742291820332e-02,4.591652647371416429e-02,5.298175054196976180e-02,-1.145257091059329047e-01,1.932619517986220725e-01,3.325761749541725765e-01,1.279364648989881337e-01,-2.064910489651978348e-03,2.179701708628420734e-02,8.554143444665486540e-02,-2.513134167328782628e-02,8.850527559303958403e-02
4.410978128682734034e-02,9.761030422042764332e-02,-4.826931940873327442e-02,-1.028219838944181841e-01,-8.439203788810337170e-02,-1.359340952137527425e-01,-7.263632849509150946e-02,-4.163383253406988636e-03,1.159982369098677690e-01,-5.841461164357615587e-02,-1.001481805757822724e-01,-5.380775643416275261e-02,-1.470836476426602146e-01,-7.108379924084873291e-02,-5.398326216896232044e-02,-5.418212528603719158e-02,-6.392936986411199007e-02,6.823670699519464311e-02,-4.356908066465345342e-02,-1.551660144339689074e-01,-1.421498153133417819e-01,-7.586796032403528289e-02,-5.214233861625208223e-03,6.116768580693703050e-02,6.828741396943325583e-03,-1.395668160808042624e-01,-6.828215090788293529e-02,7.607317747534525498e-02,-2.852096691117379443e-02,-1.158153489658166058e-01,-1.621666509747954066e-01,3.972901605433321048e-02
-9.406058373147445362e-02,-1.070300804805327799e-01,-3.009363767955610183e-02,-1.830856136158534320e-01,7.139507412431218836e-02,5.586393470249018112e-01,-1.264287168752956936e-01,-9.466516948544030641e-02,6.107534855870673518e-02,-5.293650348027195696e-02,1.380462043974370057e-01,5.038780428432177577e-02,-1.219283499383880115e-01,-3.659266361461321893e-02,-1.990235631414126183e-01,-1.626989100485118911e-01,9.334192688315545022e-03,-1.335521477782742640e-02,9.015772384240232362e-02,1.078398635786255999e-01,-7.103018845599380626e-02,-2.125164302450714415e-01,-2.918243848294605185e-03,5.224927417143122865e-02,1.441178188239808089e-01,1.649445470234182573e-02,4.084645925072379891e-01,7.799851340677436962e-02,1.051341903729542254e-01,4.689574061261021602e-03,-2.566117370206369430e-02,1.958975952806695509e-01
4.615304481438423645e-01,-2.268576669040762439e-01,2.574526234058600038e-01,5.784572778056002590e-02,3.534506193130264318e-02,4.417408217288644467e-02,-3.713963992472268938e-02,1.097895997109955141e-01,-1.421121257293175844e-01,-5.571258699151152710e-03,-1.996136986408194591e-01,-5.706316607708181859e-02,1.371598097384903736e-01,8.760499957260256543e-02,-4.972718869070758690e-02,3.664661854931360319e-01,-1.169794688299602287e-01,-4.203685687227932261e-02,-1.137985716732301394e-01,6.577447324534965722e-02,-1.148018241605540668e-01,-2.942719730938653799e-01,1.872316310751408752e-01,-6.581268909681152468e-02,-5.499673502511379097e-02,1.525810875178582326e-01,-1.422551552427092358e-01,2.326819873533572947e-01,1.299655622968780115e-02,-5.612226336488293499e-02,1.562395127104728165e-01,1.360360214396876821e-01
-2.678553987515124302e-01,1.766588642281891053e-01,2.195592897914553088e-01,2.825129304221118617e-02,-4.415531852004712238e-02,2.425047744945009187e-01,-8.002836553100611816e-02,-1.194209133222493523e-02,1.010227580822052329e-01,-5.562728414398696031e-02,7.430995042122290339e-02,1.278958599236569016e-01,1.402779259859987526e-01,-8.474777984851722054e-03,3.811134952340483606e-01,-8.268943363940851887e-02,3.990027068318641734e-01,-1.955551043787384369e-01,-7.801841594530356527e-02,1.263370619767819336e-01,-1.610075703535247815e-01,1.053477787281956318e-01,1.633814977782019617e-01,-7.888529920651866922e-02,-4.494405628213592185e-03,-5.688337722541517844e-02,1.424384722929996905e-01,-2.607141366289855537e-03,2.152734642257014275e-01,-3.892606776739047092e-01,-1.214090861321107662e-01,2.754703277234052394e-01
8.496071950997714783e-02,-2.856008989094030795e-02,1.312977971448281989e-01,1.676703082131785275e-02,1.860994482012589407e-02,-6.674747585553336693e-02,4.030718742478366784e-02,2.335059377856277263e-02,2.031076997504971948e-01,-5.918701500598590876e-02,-2.620431960598491872e-02,-8.520898999521726858e-02,7.073931474617901893e-02,1.378929749351651968e-01,-8.999512689662549081e-02,3.729045578321635995e-02,-4.676241349483157422e-02,-7.908200538070763938e-03,4.852367856054847634e-02,-9.408051203833207865e-02,-1.299845456158795487e-01,-1.357755067271899929e-02,4.077751788151814938e-02,-5.447422954069081752e-02,2.587186839204253398e-03,-1.817571154565291239e-02,-6.561594012729220216e-02,-4.169186856658820689e-02,1.127146351183719447e-01,-6.764219138542083842e-02,-4.707194075595049626e-02,8.067994293117002058e-02
2.756953830456480015e-01,1.983140176507405539e-01,2.519781526063409882e-01,-2.630892010911719137e-03,-4.423105432475188392e-02,2.690243718196025716e-02,-5.732519519955554810e-02,2.553395286419409688e-02,-1.666129606488624126e-01,-3.144954945683224590e-03,-1.881180529488786224e-01,3.135059672243293433e-02,3.607479422617503040e-02,1.200038239782310612e-01,1.813719083569305113e-01,3.736317167073721635e-01,3.074961275701809660e-02,-2.108264641127528538e-01,-6.738482054541936050e-02,2.076771409670638280e-01,3.169181468730751516e-02,2.074478668165731857e-02,1.919028461200707539e-02,1.415008518558402012e-02,-6.661519633170605650e-03,-6.727933014348948249e-02,5.118135195939944176e-02,1.785459545491858702e-01,-1.413552842030899315e-01,6.994929964627741303e-02,1.124884223842329417e-01,-1.727959871317487697e-02
3.506981913303205411e-01,-1.148715013514375743e-01,1.729789864713511816e-01,-1.775987727944314254e-01,-9.067558078726410675e-02,1.957273953932508748e-01,-2.006825788779681152e-01,-3.682642198768576458e-02,-3.580285879881111022e-01,-3.144292084723460112e-02,-2.035495122386540151e-02,6.048521843025337491e-02,6.198200045773032130e-02,-1.012168205159340584e-01,-6.690433567713897911e-02,4.368683071288804315e-02,1.352546786671292300e-01,3.029822114646774436e-02,-1.929658805766267665e-02,1.084977353947683687e-01,-6.737041259508215474e-02,-1.998121974083329200e-01,3.948650988167137776e-02,-3.641212418752511754e-02,1.029089449572537368e-01,1.432800805053366551e-02,6.107353257154457538e-02,2.412711871895116267e-01,1.859065397715774504e-01,4.877845584312914817e-02,3.329546115885512192e-02,-3.936619315923607643e-02
-1.292316268097514279e-02,-9.018053891608249217e-02,2.368535059213477678e-01,-2.063707295978549627e-01,-1.636670648683383883e-02,2.084935181730556975e-01,8.641794698888044524e-02,1.372984490835901517e-01,-1.760065945368117502e-01,-7.200037829832039993e-02,1.060531217086493755e-01,3.370497593323736746e-02,5.325487315170199243e-02,-8.761476538189121033e-02,7.233350606211394473e-02,8.600945370545595714e-02,-2.073541359499632419e-02,-5.265035843261518800e-02,-1.491744775806013446e-01,-1.450964680164011818e-02,-2.250448737424455004e-01,1.462169426722921273e-01,-1.590697546154863293e-02,-2.831327353349251744e-02,-2.662368452242214190e-02,-3.617717389953777340e-01,1.704229989520660016e-01,-5.554041643980262705e-02,-6.983200232898090221e-02,-6.073866872241055759e-02,-3.334638441561449951e-01,3.167978294635012126e-01
-4.643806086858652538e-02,-1.024542416675232465e-01,-2.338845455720591632e-02,9.089754321585764851e-02,-1.816918691855975987e-02,-4.881502713705748037e-02,-6.969803993544772258e-02,1.526564972556788274e-02,5.586913209365625826e-02,-2.103210347594483554e-02,-6.882484060028652706e-02,-1.222484966225870079e-01,-4.539365185440250028e-02,-2.411274568779623803e-02,1.235610222747219600e-01,1.075647922820144459e-01,1.337956537174616600e-01,3.436825751545451169e-02,9.704012407024255327e-02,5.615401766195780159e-02,-5.464677095476105917e-02,-5.607568997884738310e-02,1.689781026161441269e-01,-5.343370705532139719e-03,-8.201453822278434447e-02,-9.372169462398731443e-02,-4.181438643367076796e-02,7.532702479282696317e-02,8.879452747523240708e-02,1.010948019106703982e-01,5.009064073965849989e-02,-5.226502077175299021e-02
-1.018403512556574075e-01,-9.892171814803278618e-03,1.832338993184725318e-01,-1.184157549682110511e-01,3.877933799877632953e-02,-8.300007064887954256e-02,-1.895619201001182141e-02,3.214307208114373232e-02,6.122843209206952492e-02,-6.130809271048886372e-02,1.682434166600245140e-01,-5.413551674284268478e-02,-6.926799110496045797e-02,1.592463244386587914e-02,3.608293210898824710e-02,1.287424802258892997e-01,-1.474336758918429538e-02,8.729418387395461443e-02,-5.379080310614791499e-02,8.442900010348879103e-02,6.626686119396370256e-02,-1.063693302886644793e-01,-1.616374535264644419e-01,3.768344726981471410e-02,-1.996363662367870717e-01,3.798379996692564931e-02,1.080157271206289710e-02,1.797301664349901934e-02,-7.413357636006030760e-02,4.970955067438397740e-02,1.042084524002656887e-01,-1.417905196002571255e-01
3.110455156460452050e-02,-1.080648442878722193e-01,-8.242821759631248357e-02,-1.584516167276716903e-01,-1.116059231466224981e-02,3.634194727815005799e-02,1.196038206645600038e-01,1.053677815844285617e-02,9.984022221986645074e-02,-1.555364561086750308e-01,1.599441691059068360e-01,-6.645796985487868735e-02,-7.294070263354322792e-02,5.515130371834808809e-02,8.056709537880890615e-02,1.970354901490468935e-02,-2.451182978440331617e-01,9.980381409728457387e-02,4.030574590272539143e-02,-1.038586544438783038e-01,-1.167911996859824081e-01,3.236759947612270760e-02,1.501888017555828847e-01,5.180786526481618443e-02,-1.596866167218937982e-01,6.592408877255984123e-02,1.068791895152337162e-01,2.522517957077322071e-01,-1.324933885270339600e-03,1.319959225351220213e-02,-1.632994396485861269e-02,3.443301379978142007e-02
-1.435207034908911501e-02,-9.142006792015200389e-02,-2.376807784024421444e-01,1.176972158771237703e-01,6.752533748561118099e-02,3.167950443647096770e-02,-5.834502398985634553e-02,-3.866692567328278846e-02,-1.088229206609319100e-01,4.041887760547926804e-03,4.175094496392849075e-02,-2.499034731913311533e-02,-9.100549649732871116e-02,-5.053698104487851228e-02,9.531760944501414812e-03,-1.950624528601814234e-01,7.256028030348488089e-02,1.247013910897271788e-01,-2.475464472906525534e-02,3.506474257613834827e-02,1.821963500124122171e-01,4.506367246624879558e-02,-4.281564616050056310e-02,4.461829083042211791e-02,2.484008768193144909e-02,1.880395319433722512e-01,-5.523131888517535115e-02,-9.255658127370230970e-02,-6.917553462376044293e-02,-8.905623008558227749e-02,1.460183167615618227e-02,4.123395628815753472e-02
7.180349582482647985e-02,-2.992472851254333877e-02,6.348434929787953596e-02,5.154420849925611496e-03,5.245673273715640433e-02,-3.942064437082764411e-02,-1.313945046060541744e-01,-4.565292302709451217e-02,-1.717930439360014494e-02,-9.264355887693045966e-02,-1.190601811451406922e-01,8.126397737711838279e-03,3.530424134428613529e-03,-8.323689466254834135e-02,4.430228109564397082e-02,-6.316493277100933279e-02,7.737180032020679610e-02,8.428835428916732486e-02,8.296251202325159724e-02,-7.098688536520871006e-02,5.543864726407479043e-02,-3.022710719772530447e-02,-6.353327003739564494e-02,-4.706969318180691947e-02,9.381228816142984928e-02,-8.808623486939418101e-02,-1.114105355563344557e-01,9.093703553386293936e-02,2.341167193055148366e-01,-1.999839229473167057e-01,2.785149486413949008e-02,-1.863394434535342245e-02
1.512967295275697288e-01,-5.089410576368338934e-02,-3.030271068744850305e-01,1.056413274623326654e-02,2.801358297027841116e-01,-8.823168663724212379e-02,1.168266557460152927e-01,-5.001479176391380316e-02,1.266898157800606384e-01,1.404998310451736551e-02,-8.136210608425667457e-02,1.035480967276506820e-01,-5.966835168571515274e-02,3.447221842292863547e-02,-1.980644768984735904e-01,-1.223424365762400406e-01,2.478844674094668465e-01,1.370573935231602647e-01,-8.082559660721305717e-02,7.752924668098511163e-02,1.606158548806854713e-01,-5.854086991532817669e-02,-7.147813828181112661e-02,1.329687321605796113e-01,6.639429422767245681e-02,1.141699040918126018e-01,-2.213753962665735431e-01,-3.850625154080611345e-02,1.743679686011170293e-01,2.521410339179726567e-01,-1.105214203210708596e-01,-9.793863226968362035e-02
8.978006892204214162e-02,-1.878397112909511446e-01,-3.256618839286353276e-03,3.625211835723638615e-02,-5.364733238512523969e-03,-2.139326754802502173e-01,-1.119769372707746374e-01,2.840798122527550540e-02,7.886742090309477315e-02,4.444079023521354394e-02,4.837698729308611417e-02,6.388057540615160734e-02,-2.038271561071688387e-01,-7.348608969022957238e-02,5.761654476765305788e-02,-1.016785952209661170e-01,-9.147280862110487853e-02,-1.292094594110320127e-01,5.556683443512915044e-02,-4.191015115463634505e-02,8.620628313468924400e-03,1.440020817813023046e-02,1.597419978884707936e-02,3.435276977417337646e-02,8.412634044870462291e-02,3.862531305340581589e-02,-3.902348980876043510e-02,-1.277080901826584472e-02,-1.608793579304261534e-02,-6.153633067645551680e-02,-9.064014676159346190e-04,7.157095408738783915e-02
-7.713681408975787968e-02,1.538327260351582959e-01,-6.780288869641289129e-02,-7.086654264756624133e-02,8.217661555088962011e-02,-2.091191953443766530e-02,-4.767367867850903773e-02,-5.746559502166114636e-02,1.193622515051618316e-01,-1.383651504151216516e-01,5.842195790084278584e-02,1.734915400546145278e-02,1.201575047684719788e-01,1.193174396960482025e-01,-9.036409759782285112e-02,-8.616029392823638944e-02,1.714905665296034831e-01,6.900003854692721150e-03,5.572506987624948477e-02,8.718367050643899274e-02,-2.090571136440181124e-02,3.212102532148986000e-02,-1.661879395115055738e-02,2.056016117401840773e-02,7.210343282643655316e-02,-3.516315637653939785e-02,6.296969353907623523e-02,-1.464564664465880794e-01,4.585935214798496362e-02,-1.505019507903573306e-01,6.184380438246844802e-02,-1.424777901846592809e-01
8.960911151680187037e-02,1.717809295945231240e-01,5.147530761702268781e-02,-3.175393585229234761e-01,4.208963811172397596e-01,3.211772185958415848e-01,-2.085628068108961453e-01,-7.754441244127761347e-03,1.216344620192109510e-01,-3.328513351394864900e-02,-7.568428971929119786e-02,-1.127721056365263014e-01,2.573307763591225344e-02,-7.785610648933172229e-02,3.901724079198507639e-02,-1.751492251245665432e-01,4.041067382072021097e-01,-1.268759340199417662e-01,1.890537075480389073e-02,3.407663505843632201e-01,-7.632482341516283464e-02,-4.659914782182241616e-02,5.603153036490966798e-02,1.278657937681689227e-01,6.627842299131481152e-02,-3.980690152665295467e-01,-2.770956110558053104e-02,-1.160883013307713180e-01,1.982928805821383977e-01,2.347557673882300910e-01,-5.458833865007598485e-01,1.301159752726688268e-02
4.063684279155434231e-02,-2.125688148760362106e-01,-2.355851887528442185e-03,9.267226678513681981e-02,1.975459273729657586e-02,-8.857366455726223275e-02,2.267434348848294812e-01,-7.586439406600926916e-02,-7.129364233045318300e-02,-4.223229461220810721e-02,2.680053639605553539e-01,-1.193010027208352836e-02,1.304809720154072039e-01,-9.670748978778165306e-02,1.151292044157003619e-01,-1.329774070062451075e-01,-6.437511980436699810e-02,2.332641395735821077e-01,-7.175575450768706398e-02,-7.426071264564010344e-02,-6.268685181609960980e-03,2.441692055486167356e-01,2.158653386798978224e-02,3.975382677901019568e-03,-1.649779161822051976e-01,1.898013915550915143e-01,-1.646870326842799284e-02,1.484877658243722309e-01,1.016062184179132993e-01,1.996770459997149541e-02,-7.476793865202244205e-02,2.591448273625445164e-01
-1.295581387149600527e-01,5.166438713966902546e-02,-6.164187055390487474e-02,-1.181873288933128763e-01,-1.057270782236318513e-02,-1.616600397153762081e-01,5.296616861699039724e-02,-1.509350047467365452e-01,1.192017259611492380e-01,-1.912922624433211205e-01,1.633700908243386762e-01,3.808118839790208821e-02,-9.299328997797125240e-02,1.318227028866365558e-01,-8.419069590832609085e-02,-5.565587640030868893e-02,1.112564943733738571e-01,-1.330105453031231932e-03,6.900056132482000615e-02,-4.192361912861356649e-02,3.716243299757913954e-02,1.896618767905483005e-01,-1.221241005626571147e-01,-6.006417542513927538e-02,1.329526676671629881e-01,1.346036719811104232e-01,4.191308570831065589e-02,-2.504669612462501541e-02,2.242408364041963229e-03,-6.830581789156137118e-02,1.744311747495538023e-01,6.634191715179900417e-02
1.850947388636901003e-01,5.962315739759233013e-02,7.134108686350468242e-02,-1.126572654679989099e-01,3.153591732275997650e-01,5.838401561213243246e-02,8.340356442539539894e-02,-7.429928166268619238e-02,2.837823331819295247e-01,-6.488437262183599508e-02,3.613620760838190393e-01,-1.353347448973666045e-01,-8.565249988350925880e-02,1.193256197613645209e-01,1.787662336023549958e-01,1.931360299148481008e-02,3.323338661259154780e-01,-5.314019913202132350e-02,-3.905087856126281814e-02,-4.252542834927121318e-02,2.940943700528035887e-01,4.438737460278977531e-01,-8.152687836894291495e-02,-9.757070475255688602e-02,-7.456597951803398128e-02,-6.213123926780859257e-02,-1.552467308698446680e-01,-2.624550282360560427e-02,1.964042167959688667e-01,4.125540272783027526e-03,-2.405129008974729032e-01,1.519359037888154407e-01
-3.904115709142067219e-03,-1.883116686085782310e-01,-8.452997764683242710e-02,2.464127997177081517e-02,1.671784864753432520e-02,-1.687159195710416226e-01,-1.699832565734879161e-02,1.075871330623691911e-02,3.573454074958514609e-02,-2.732902154580117010e-02,1.595304665247125608e-01,1.325931291130595831e-02,-4.105722838685686715e-02,3.748855142545778202e-02,1.696055849412951011e-01,4.098196213355419920e-02,-6.876939715256993879e-02,6.693180981131696683e-02,1.107859409701939246e-01,1.267763567433243810e-01,-2.232957479721690841e-01,-4.012638574328177693e-02,-4.866784463738484980e-03,1.135414085979289354e-02,8.747274536249614874e-02,3.090955479337873651e-02,-4.428737312944630578e-02,7.732116656430496060e-02,3.876687764904650918e-02,5.698407937944601279e-03,2.858909325261716622e-02,3.440167094103348255e-02
1.213914579668680660e-01,-1.170261981869505918e-01,-3.787322966613699410e-02,1.692684572583992575e-02,8.333382923987331381e-02,-1.435693029604157289e-01,-5.617324608239784856e-02,-3.257692289547843567e-02,-4.813475200551070587e-02,5.001672399571015226e-02,-4.066408313970825555e-02,-1.470663424363900795e-01,-2.678171090402167026e-02,1.235110187499261630e-01,-1.713544387043763051e-01,2.143282839351244029e-01,-4.030356517695850987e-02,-6.951091050658073089e-02,1.383514422870446847e-01,2.077612259382101978e-01,1.056037537414483557e-01,-1.167865078040303123e-01,2.307827342226044520e-02,-1.239902068413443192e-01,1.332826287062296722e-01,2.678077031361627003e-01,-2.253739830313894292e-05,1.853615114871186853e-01,-2.734304207026091449e-01,1.688558953131255591e-01,-1.171184893006360118e-02,-6.083473748750844318e-02
3.544271841701975290e-01,1.885953779352823323e-01,1.094377925270919732e-01,-1.646770455560920554e-01,-8.710164576545378901e-02,1.562049965116677486e-01,-6.864715179786801125e-02,1.968700143656258172e-01,-1.169786722000285412e-01,-7.043832312155819120e-02,-4.512880441024964551e-01,-1.096904979828819821e-01,1.334695451758019791e-01,-2.440046421719607728e-02,-1.482299612885044568e-02,3.263459777103921433e-01,1.395998545144589431e-01,-1.501438786969918476e-02,-9.640870491084144872e-03,8.850864211184748809e-02,6.368839098305441315e-02,-3.984105507502683219e-02,1.879806153390532197e-01,-1.116876833198271052e-01,6.264649580656234118e-02,-1.102351148462787506e-01,1.085761269448357325e-01,-2.465768381424716243e-02,-4.283301996037253319e-03,1.102836587895406756e-01,-3.265359100499240497e-02,-1.214531638294901600e-01
-1.250878950505382170e-01,3.028751730380267460e-01,1.201840569817458218e-03,3.335473761999406817e-01,1.160956890949218501e-01,-4.482489887322949618e-01,-1.274400790596305066e-01,-8.537982930931406478e-02,1.264696198521921278e-01,1.799997644063346947e-01,-1.983212901147037299e-01,-1.386622993847070606e-01,-8.758915494208867336e-02,1.042005221987003377e-01,1.852549772939975359e-01,3.713845301384503111e-02,-5.426550322421136441e-02,-3.856036966288776957e-02,-8.897567798587818766e-02,1.343127276738107639e-02,1.585894919108829515e-01,8.689622066820133772e-02,-3.785778934340804439e-03,-1.047620546779915868e-01,-1.916098637210972983e-02,2.075674686078898823e-01,-2.364321841654018763e-01,-3.408842717717283644e-02,-3.283917887564279797e-02,1.474955635716977409e-01,4.157452355942678479e-01,-7.200435152229144042e-02
1.487941039676721200e-01,1.522477203397274159e-01,-1.690076201623439134e-01,-9.275175153427685226e-02,9.947624755015464781e-02,-4.177812134696834781e-03,8.272380035631060613e-02,5.266290083445872988e-02,7.927648163027481432e-02,-2.309903318724291620e-03,3.189556088729933458e-02,-4.742187743539340999e-02,-1.064104177885071695e-01,8.244571067684515475e-02,-1.888441576977037406e-02,2.321367885615925053e-01,-1.583699927832891152e-01,1.186832123286437890e-01,-2.222960853730391595e-01,3.056633038786259540e-02,2.871938985483319939e-01,2.459076434610013573e-01,-1.664613107365884581e-01,-1.002439572116143873e-01,3.527336055264911063e-02,1.682489261902213040e-01,1.013540031495811788e-01,-3.991939349851235386e-02,-1.115489828070814482e-01,3.287532042989546044e-01,2.675673095525140655e-01,-2.465560099721539611e-01
-6.267154263088166311e-02,-8.647934666289167072e-02,6.673822333548813657e-02,5.944421149415942546e-02,-2.861108763676891483e-03,-4.199162101727534069e-02,-1.251753999838318109e-02,8.733039378320045509e-02,-4.980832002616893128e-02,-3.367627262948908601e-02,1.030971324095613928e-01,-2.002650837644161588e-02,1.297838933206263978e-01,2.031667580461033948e-02,-5.823042925470411912e-02,2.887362841808255309e-02,3.653134238488472268e-02,-1.743054296667368233e-02,-4.563199835786326680e-02,-2.847369387092752238e-02,-2.909368183611202308e-02,-2.338461391403718129e-02,-1.931780214509006555e-01,-3.141697054075312523e-02,5.092662262166259418e-02,1.036819588223195261e-02,6.918004691934631634e-02,-7.552320633655884574e-02,6.582648167910543080e-02,-6.563092860174100929e-02,-5.629511021042425678e-02,-1.985283252684538757e-02
-6.346584410835016954e-02,-2.055201330503300672e-01,3.707731753249143836e-01,-8.773655850911139809e-02,2.612143388897678054e-01,-1.639993042605863982e-01,2.092057199313177573e-01,1.108072015186211678e-01,-4.580743737579173747e-02,-8.005348793271101215e-02,1.781390531455256387e-01,1.394746314283654837e-02,-1.411050279314280398e-01,-5.993023986555025967e-02,9.950364997966321123e-02,1.995389390001536534e-01,-2.703548752225804486e-01,3.222180485748306622e-01,-7.788142092223274658e-03,7.517515295679730314e-02,-1.133011753687043627e-01,2.438341344291059531e-01,1.842487515205340209e-01,-1.322543347265362282e-02,-2.277582912834970330e-01,9.881908710991636757e-02,-1.979246254606497613e-01,-1.174826087013986775e-01,2.334995313417873031e-02,1.347086245915418146e-01,-4.994113354102884539e-02,3.529587349222063630e-01
2.913944705411598002e-01,-5.572601377650185928e-01,8.618368161495416901e-02,8.362655095812401851e-02,1.248934118211648264e-02,-2.253083257070116197e-01,6.354085834051109716e-02,1.254870782459806822e-01,1.435951902099615318e-01,-1.954320678685542850e-02,-9.384774220347348248e-03,1.847254217759275799e-02,-2.555175998680640770e-02,-1.163198045416086179e-01,-1.259490209790027071e-01,-8.842006393322403290e-02,2.391810932019337310e-01,2.807143090657637091e-02,-4.479700879129523000e-02,-1.828300762721860317e-01,-3.464012713209396049e-02,-3.147419219122137291e-01,-5.495872360080356761e-02,-6.998576077550312802e-02,9.479160464409842890e-02,1.533741802630855522e-01,1.770033842907378363e-01,2.673317550818853361e-01,1.774967217069696734e-01,-4.244855302751123632e-02,-2.397824505419743901e-01,2.322986560860675412e-02
-1.618610564379012184e-01,4.228665455503837767e-01,-4.612882275700906642e-02,2.330054297328542912e-01,-1.210120247139320759e-01,2.464330874021320936e-02,5.831611544575884820e-02,2.004408653986802236e-01,7.290848082498488369e-02,5.203498465737620843e-02,-3.272628977109090509e-02,-4.051944636934926014e-02,-7.896691955635051774e-02,-1.181608025864302608e-01,-6.938433999083551927e-03,1.198704588233817994e-02,9.790140512887629196e-03,1.034112648525692124e-01,-6.426384384923831961e-02,6.069161167463927448e-02,9.744439076695825264e-02,1.169156989171725031e-01,1.601802002317109508e-01,5.363522532998412501e-02,-9.667615926003718385e-02,2.209547259786792117e-01,1.619638275649756265e-01,-1.629694360693432209e-01,9.656398300722582317e-02,-1.119371461771985626e-01,5.204478471565631148e-01,-1.398844192488617744e-01
-2.239440423935295799e-01,-2.857735355054409898e-01,-1.388028802578231136e-01,2.237354397429602154e-02,2.761951611430752407e-01,-1.381273299752558970e-01,-2.067285646185402712e-02,-4.784230752378073465e-02,2.218857807875218580e-02,3.619767997217937516e-02,-7.355014553331102288e-03,1.616193276657533762e-01,1.521924780419956769e-01,-1.180477091376340715e-01,-2.783335099511998201e-01,-3.083174179092415534e-01,7.899935997019028044e-02,2.220676429551652828e-02,2.124448774198470571e-02,4.112066359157655338e-02,1.975653784847073713e-01,-2.884645257973679489e-02,-1.315701515646093001e-01,-1.282495544528254421e-02,6.229374366119009437e-02,1.799592959796912639e-01,-1.288188088456239944e-01,-5.759199751472594137e-02,1.655813989519938634e-01,3.078926797025083317e-01,-6.856668343244116948e-02,-5.229976122847897202e-02
-1.984234479641216464e-01,-6.407193127493571172e-02,-7.407756037591951837e-02,1.631215149653974517e-01,-2.296288544935611367e-02,1.185798024828974007e-01,-1.217463151012104922e-01,1.711084075777686564e-01,3.008307479002876872e-01,1.226398766047157030e-01,-1.403086982326237908e-01,5.291991743947548760e-02,2.632175739968769038e-02,9.134110336730441593e-02,-3.257116746883290462e-03,-1.693538077869080061e-01,2.960354013273518992e-01,9.749710004511480399e-02,-1.702232719028122232e-01,1.161725382272282142e-01,7.289626910795946046e-02,-9.804774011285032065e-02,2.043671937218920556e-02,-1.586100293477801793e-01,1.748377049301881592e-01,4.396664033644478303e-02,8.129426918536600266e-02,-1.006939248193240016e-01,3.331738748828919072e-01,-8.199266757346759804e-02,-1.203809251759503096e-01,1.297092922796554415e-01
-5.728465417634028695e-02,-1.426642225896489480e-01,2.502795089124046357e-02,7.360205911393036260e-02,1.319736484729704395e-01,-8.956992717948394911e-02,8.036611622255204757e-02,7.989755158996161843e-02,-7.738194472247370004e-02,9.115500143420848800e-02,2.680237735386341025e-01,3.930109578231529704e-02,2.217089467703736369e-02,9.367303472465128220e-03,-9.180392553422288271e-02,-5.142427265325579672e-02,-4.827725304778097276e-02,2.244422651500899424e-01,2.841289582539751994e-03,-2.108851544016760240e-02,1.124866990335589428e-01,9.395870725520857891e-02,-1.863911526361832285e-02,9.723798562215167640e-02,-1.698995491720799167e-01,2.887331471013109274e-01,-1.956581487623632876e-01,-5.685994482571902348e-02,3.646196807032869303e-01,8.190327575353661960e-02,5.831417257579848967e-02,6.719371413901376044e-02
8.634311238574114700e-02,-2.994673811561490012e-02,-1.395790216608757406e-01,4.650177746835909565e-02,-1.415438887008395319e-01,-1.530611894785853695e-02,-2.143444466839566215e-02,-8.568330781401126139e-02,6.509772440955811923e-02,-7.230612165842068007e-02,-3.626247838519499472e-02,-7.469476133889871305e-02,-4.825126469414024039e-03,4.445580662237230696e-02,2.930203283600016015e-02,1.352592159349527701e-02,-1.051553639708297655e-01,-1.794796599334643195e-01,-2.867328779414331924e-02,-7.011409518003910990e-02,2.313501793104945359e-02,-3.731386018569100415e-03,3.863299157475857948e-02,-3.469388373307649015e-03,-1.058107132814805479e-02,-6.453774917681735779e-02,-3.160087597809190657e-02,4.493345413503795072e-02,-4.792332726314846303e-02,-2.558962792210923640e-02,-1.656660816269636682e-02,3.324813370003301682e-02
3.690219185465251628e-01,8.450498170015280364e-02,1.649150481550305455e-02,-2.122932325877008655e-02,1.677694824409848295e-01,-2.727431707159249097e-01,-1.336395706596713202e-02,-1.608416307661138800e-01,1.465533336751419780e-01,-2.612535281785556898e-02,2.067908102617753707e-01,-3.620651721085363373e-02,-4.197557549629361145e-02,9.405195627886751841e-02,3.434920914106311396e-01,-2.071131449374549044e-02,1.842580192629062197e-01,-6.816215277343326551e-02,6.681187729954866927e-02,-2.765045557003234164e-02,2.342521514430687679e-01,2.714216272244126052e-02,-9.060765229019511480e-02,7.930655047342489994e-02,-3.399566625633570799e-04,-9.069765819207856530e-03,-4.548197494743622810e-02,1.622731087872175126e-01,-9.504691209629417825e-02,1.748804540067944169e-01,-6.705105128934832695e-03,1.201342147548187765e-02
5.991862858010892079e-02,9.625820639976372106e-02,1.931308130155551597e-02,1.221555758945494924e-01,1.952353130363092271e-02,-7.889360245043479380e-02,2.209209999351869833e-02,1.555147510129636923e-02,-1.327927648104391123e-01,1.599585241797293333e-01,7.364120962180142893e-02,9.011976051053452452e-02,-4.307903601087326867e-02,6.757736312457982009e-02,-1.582428934839461565e-01,7.204663580216394934e-03,5.688693213731812331e-02,4.922963405002351439e-02,-8.077973857941192493e-02,-7.106257624980658050e-02,-6.301663224213943648e-02,9.044990033305463917e-02,1.272002786270029495e-01,3.739033418826168825e-02,5.397615375137558742e-03,-8.049916689611918974e-02,1.892607980482790761e-02,4.145366077494539586e-02,7.583383108357974467e-02,-3.429184498819965593e-02,5.223911299293981098e-02,3.369305841008596921e-03
1.789159950637186081e-01,4.485394013398592838e-02,2.825882353270094474e-02,-1.647231603978338288e-01,-8.651033582581553472e-02,1.602460471842137302e-01,2.396260204563385732e-01,6.750392523939088320e-03,-1.187659572364705290e-01,3.264781616161556259e-03,1.639278154402095400e-01,-6.125288008118328492e-02,1.107401187772151657e-01,4.286387305186797197e-02,1.496551133370330744e-01,1.845102710819688518e-01,-9.785542967178453844e-02,-3.029570722381641837e-02,-5.728489109431017523e-02,-3.281778439880413956e-01,1.646229973140816982e-01,4.333104943875992071e-02,-1.936915665340067927e-01,1.395055462804715984e-01,7.837796764178765752e-02,-2.455225250490992994e-01,4.279426221119429774e-02,8.240108257265336966e-02,-1.557725849376774552e-01,-1.314860942334590381e-02,1.017193540761703908e-02,-1.378416692313956526e-01
-1.020700442668188990e-01,-5.144749558081601441e-03,1.926404290409114428e-02,2.712204250740719511e-02,1.523572933652740102e-01,-9.141569299381112346e-02,-2.543129395860667386e-02,-9.050875912737134377e-02,4.261164105068204581e-03,6.070202091492730989e-02,-2.485130912264117420e-01,-3.625471256757178962e-02,-4.367974592554099700e-02,-1.868230725298230741e-02,-9.757005585709976891e-02,3.996407366163443053e-02,-2.872706984923453083e-02,-1.697051761680483037e-02,1.471543333442466850e-02,1.614709925264082857e-01,1.474502477625084518e-01,-1.593229963545934047e-01,-3.688549436024185502e-02,6.907172237503284018e-02,-1.291191901488107814e-02,-1.533447628363027171e-01,7.149950017166084582e-02,-1.074108712866713999e-01,5.133741252727808818e-02,2.480845015590329647e-02,6.293450028410080277e-02,-2.292741162725403948e-03
-1.020656474720929435e-01,-1.853426576853468019e-03,-5.411740733240819751e-02,8.099981408253041637e-02,-4.983337360620582884e-02,-2.022763294437928197e-02,5.537240334746319770e-02,-5.103447987358706445e-02,1.832680093366566287e-02,-6.999059353227762847e-02,3.252515252763517328e-02,3.994438602352322863e-03,1.618790234518399096e-01,4.873424057924547609e-02,-4.497605455158305149e-02,9.207090717156743431e-02,-3.818929112899290684e-02,-6.946809681875963649e-02,-2.249108134158480515e-02,-1.276286708822850502e-01,-1.003873254635837403e-01,4.956479180092997899e-02,-9.148261042093674966e-02,1.025884381562776511e-02,-8.418513193439866593e-02,1.054284076088393279e-01,3.944912991845163364e-02,2.768043196449536045e-02,-2.205413268597054832e-02,-5.175393533143819724e-02,-5.083361948238480227e-02,5.836989370898298252e-02
1.471962962787962820e-02,-2.944786285527216108e-01,-1.118482913053026918e-02,2.258953462486802954e-01,-1.644930522175841459e-02,-1.376637783442237750e-01,3.841187490290127321e-02,-1.222303842854578770e-01,-1.980704336174859692e-01,6.248340384627895649e-02,2.104289967338996703e-01,3.074568284464485740e-02,8.404333895773614949e-02,1.116388758035653274e-02,1.112425718837238703e-01,-1.047452106234093433e-01,7.944102950347010916e-03,9.691822563241707378e-02,3.308620487701802171e-02,-1.727395921501494180e-01,-7.543063201033445297e-02,-7.164897889250067264e-02,-1.943435338454496120e-01,-1.388348488922201418e-01,1.283364608341949209e-01,3.212404554491544717e-01,4.278973690544803088e-02,2.858158000229442663e-01,2.114303229883763569e-01,-1.207859144773555243e-01,1.016494693121285792e-01,2.453760377681540872e-01
-1.273118490256684443e-01,5.284146236421329718e-02,1.137719883702487389e-01,2.312619732645922535e-02,2.203220367486498077e-01,3.773624121799172837e-01,1.349381028539748117e-01,1.684242419798767931e-01,-3.587671344309572019e-01,-1.045765682884232800e-01,-1.084019284560847757e-01,6.459259648723594816e-02,1.164531647939717057e-01,-6.571044382257196226e-02,-3.611096941929051174e-01,1.185099808103786817e-01,-2.148945425028044032e-02,1.539459792046881936e-01,1.225116526739313538e-01,2.394811317305496623e-01,-9.459992649797017983e-02,-2.103773599937588945e-02,1.467059589596025615e-01,1.406553479079524771e-01,1.451773074869752156e-01,-1.610813382708904118e-01,2.058340972353220055e-01,-1.587314928618132615e-01,2.908576757699732340e-01,2.279011640427429930e-01,5.732120056110227152e-02,1.364249439307923251e-01
1.402922214988922278e-01,1.207083992827826247e-01,-3.513934451903792666e-02,-1.450942018419093885e-02,1.112718651305159290e-01,-1.690267625554688902e-01,-1.038955505429407372e-01,3.006512467848116918e-02,-2.260205994775561500e-01,8.638635526534887976e-02,9.250713333794161053e-02,-1.075379581611313889e-01,4.492210491773584308e-02,1.055555102052471023e-01,-2.341694802984173041e-01,-7.197709677498990988e-02,-2.976811329829305228e-02,6.597173683836381197e-02,-1.814043576581903362e-04,8.430068611584065619e-02,1.922123950967954409e-01,-9.437301949574591897e-02,7.953660777432666404e-03,1.347009168241534438e-01,1.756750065444095607e-02,-6.157333117391688461e-03,1.811364694839829106e-02,-4.410758973023473292e-03,1.227908138655115916e-01,2.174507741002498218e-01,-1.351731584681033042e-02,2.922575850118354357e-02
-8.337793850141446417e-02,2.624933834313483150e-01,-1.311278135293957869e-01,1.815719860069492098e-01,-1.215972933785352539e-01,-2.327539384920093157e-01,-1.337523206620945537e-01,2.827007015254464073e-01,2.237079465311382909e-01,5.158182106021308791e-03,-1.590439440926939840e-01,-4.518447089846847758e-02,8.503601113803914424e-02,6.720189571944662488e-02,3.535217161717026709e-03,7.600167766892863830e-02,3.992293551367378374e-02,-1.016037018762365636e-02,1.031906812645161653e-01,3.641708218824591531e-02,2.330423206550250870e-01,1.267871463385272790e-01,1.061823260049108153e-01,1.222645423716782059e-01,1.413935463664159516e-02,2.789684557962801570e-01,-8.883579967515162212e-02,-1.123545974813014714e-01,1.200202736775292031e-02,-6.775860915228991421e-02,2.317780822182413103e-01,-3.381852315441999379e-02
-1.034848044889387503e-01,1.034178694381487212e-01,1.620355250487137966e-01,4.692885919680639395e-02,1.606441406659987747e-01,1.853934024489472740e-02,-4.024661567507803461e-02,3.959768384266779823e-02,-2.287939841853721401e-01,2.527818635409875836e-02,7.689777177003906394e-02,3.013182344779503571e-02,-6.656292100483521268e-02,-2.023823404153874891e-02,6.031593338894167960e-03,-8.453597085056425986e-02,-2.336741320246020839e-02,1.047518086516594366e-01,-1.690370607709315576e-01,3.214377019319118040e-02,-3.544499080879995323e-02,2.273589978751153207e-01,-4.855319661393880937e-02,1.721129756398533453e-02,1.008344912360600171e-02,8.599337902481583862e-02,-1.658773195812996426e-01,-3.317160121974298704e-03,-7.196836817767197914e-02,1.565197885568098968e-01,1.556527840847879707e-01,8.307684986651084347e-02
5.385940761795423443e-02,-5.944000344449427986e-02,-9.340732627707902178e-03,-1.365214962391806675e-01,1.104329222062511995e-01,-1.308529903487211099e-01,-7.008190871547431700e-02,-1.557579977021766177e-02,-6.368727151639552719e-02,3.473330061037954025e-02,-2.373200071429975022e-01,6.651914679149539822e-02,-5.122284542815377234e-02,-5.320705281433253664e-02,-7.614513213686951998e-02,-1.272396655094162610e-01,5.317367790353998147e-02,-1.032329419418406141e-02,8.918367267728695424e-02,-1.958357987785246807e-02,-2.282692373314923820e-02,-2.270596960947345033e-02,3.901761952176042991e-02,1.601498209547634333e-01,-1.859660551632721232e-02,-1.214718184099707332e-01,2.811205347156177370e-02,1.020555852995437829e-01,-7.346648656732773092e-03,1.082574604307050686e-01,-2.619501648283300566e-01,-1.644051262039195049e-02
-2.347873629597286016e-01,4.937028199094595227e-01,8.244148798597984718e-02,6.810157002349855049e-02,7.144434708526896730e-03,2.839372396440310031e-01,5.098930935546667348e-02,7.140714254326636923e-02,-6.319156372878656502e-02,-1.293216329453889500e-02,-7.625749117874923433e-02,-5.481340680561160028e-02,-3.416135902535342994e-02,-8.697301635681722876e-02,-3.594795788014176763e-02,-1.298702500592879838e-02,-3.180004237893039459e-02,2.273647528694350273e-01,-6.653337025955731454e-02,2.764002470173296255e-01,-1.368420313612154771e-01,4.343709809983432174e-02,3.277847885853507059e-01,5.685026376032473877e-02,8.089327865556446284e-02,1.632726966420295911e-01,1.167770439189805831e-01,-1.229831268114909421e-01,-1.717062330858136129e-02,8.572562419355683749e-02,5.416118426563677479e-01,-7.773251256613319948e-02
1.474125571040921408e-02,2.286283778042943193e-01,2.353093856644560000e-01,-2.336322445242543927e-02,-1.840522713924086229e-01,-8.122001964544989239e-02,7.126890741608170321e-02,7.452894184490814478e-02,4.202581864835426562e-02,2.136730274587948786e-02,-5.254626682233911467e-02,-1.481780754293728353e-01,-2.516545815016112565e-03,2.067143733965255345e-02,3.132312877184655897e-01,1.756564483058179471e-01,-8.585776891826758794e-02,-4.791681568398339225e-02,-2.828108028114948921e-03,-4.934895224855180562e-02,-3.877296685797482906e-02,2.351498843066000821e-01,-2.161609207859966145e-02,3.577964479928556762e-02,-5.846472308537655621e-02,-7.242977891255968081e-02,-2.430378088712917620e-03,4.640053761748754585e-02,-2.448281067124841726e-01,1.138291391403350727e-01,1.627925867146483851e-01,-7.353615809179436802e-02
2.310448825857289168e-02,2.344761669805345630e-02,6.450712681302525620e-02,-7.363506535907917566e-03,-1.196415724750471560e-01,5.110031882491108957e-02,-9.603757814053719144e-02,7.910683815484524650e-02,3.320259215895061261e-02,-3.537616358103438247e-02,3.963101783799194075e-03,-1.013238270237718786e-01,4.831724836009774343e-02,8.394121324025408115e-02,-3.251477951009322086e-03,1.072799295479680559e-01,-4.020827520486755513e-03,6.505271915322939635e-02,-5.056369596952666780e-03,-3.909011231159182503e-02,-6.761818125999288775e-02,-1.780981497777292186e-02,1.238243528213621575e-01,8.372983888333795921e-02,-7.249346800288895831e-02,8.562083625379963980e-02,1.302746332185356903e-01,6.855660545264137193e-03,4.779078290093828618e-02,-1.266632611752384063e-01,1.621402915716319837e-01,3.551493991690639340e-02
1.830278053959624174e-01,9.095054274222470758e-02,-7.882163104156930666e-03,1.724362359307916870e-01,-2.088219932598615325e-01,-1.485169692913637929e-01,-1.861298700535778117e-01,1.430691881557749345e-01,1.643734550551023688e-01,-1.555686938765864918e-02,4.940272072154505006e-02,-1.729138307167201183e-01,1.527522169854244882e-01,-2.058179871273748893e-02,3.176977346409759484e-01,-1.488017597409864619e-02,3.833217687994350809e-01,-1.023439978455066568e-01,-2.022752168262051051e-03,1.496035399403032248e-02,8.095132765250136198e-02,1.670519590159629253e-01,-1.747565970909184530e-02,-1.037598413790562085e-01,-5.025380733421171836e-02,-1.778075232418200313e-01,-2.390681608941029879e-01,2.790540573426755766e-01,2.827049415035648439e-01,-9.924551989165195098e-02,-1.884820058134490384e-01,-6.497374301062641688e-02
8.463430965312714049e-02,-1.621405770635134802e-01,1.647518272612835954e-01,1.655897672628269257e-01,9.242101161152727062e-02,1.315595461268210913e-02,9.949592618037700342e-02,-3.739175499726327123e-02,-2.670264201605844767e-01,-3.188955765016045218e-02,4.020448766052575618e-01,2.378115565883825999e-02,4.895766873247207884e-02,-3.592950641891354963e-02,1.197061984635072879e-01,2.961317778123978561e-01,-1.345938896094109327e-01,3.687801108544944140e-02,-9.039533870748542310e-02,-1.479400979350909973e-01,-9.616339775530684600e-03,1.056627881372929900e-01,5.412234414646789615e-02,6.445216042020317053e-03,-1.128132586283639716e-01,2.844262228119445735e-01,6.033769628563355469e-02,2.525286484637041529e-01,-1.277556359704574152e-01,2.037766518887629968e-02,3.850330529709799499e-01,2.396503837984992336e-01
-9.050715990846262826e-02,4.152253816750109960e-01,-7.348565368181188273e-02,1.661621138753218985e-01,1.495758957801693878e-01,-1.510507383560107664e-01,-1.454619835513650816e-01,5.057416270541324928e-03,-9.028981638147678956e-03,-6.181921959994493565e-02,-3.083532094986077832e-01,2.238269258370604795e-02,-5.330374276527172911e-02,1.023908132324344300e-01,5.120669143309122123e-02,1.011758441954563326e-01,2.161412684012528271e-02,7.677311934829268714e-02,9.383230492570718284e-02,1.825174779296576399e-01,2.094607569334599462e-01,2.268847359583351427e-03,3.452771284097168325e-02,1.276605637690653716e-01,8.129280449619841198e-02,3.094312877182698318e-01,-9.198544989937622318e-02,3.256426277546400905e-02,-5.690458689071101195e-02,2.209250138157702048e-01,4.437868128417857827e-01,-1.162060586377792054e-01
-1.395140443670457031e-01,3.284425905260372064e-02,-1.018606686059809335e-01,6.046229618697267216e-02,2.596075851423345834e-02,1.115014167544736978e-01,-3.710303937891442499e-02,-6.922806982926667241e-02,-5.062438469468324292e-02,7.823211860468025358e-02,1.651719750761045935e-01,5.681865203766867101e-02,1.167044281625831126e-01,-1.324617741310464558e-01,4.957489614074619966e-02,-9.581401389560308124e-02,8.726209292490141878e-02,-7.404064722866096626e-02,-1.248066144652574955e-01,7.767055880111214949e-02,3.781090956036512601e-02,-6.714799339126027722e-02,-1.499405302103375831e-02,-3.404071436577179189e-03,3.721136026144403197e-02,4.991991005549389904e-02,1.701187436764446115e-01,-1.548518387771304593e-02,8.982427038026553900e-02,-1.840881470732554093e-01,1.243575451074940691e-01,-5.125580824957171608e-04
1.660941719172257525e-01,9.331101495574321836e-02,5.350754608485967095e-02,-1.299234069328233654e-01,1.145604226147820398e-01,1.462974204224884965e-02,6.263656106923011502e-02,9.791341945425761917e-02,9.077434809859613596e-02,1.193112588218531904e-03,8.583083790096997234e-02,2.253591931426961181e-02,-8.659481219563029686e-02,1.160373558356617291e-01,3.046810548074205607e-02,2.363221243367278623e-01,-1.349030646377310239e-01,-1.958145251679297427e-01,-1.476322561838877209e-02,-5.397623735444891796e-02,1.985275229672658348e-01,2.020154009340559831e-01,-9.574910280310413397e-04,9.860892766856117764e-02,-1.324498035366655224e-01,-2.037074985562581930e-01,-2.576602679927847417e-01,-1.625741440233057500e-01,-2.874060004470797014e-01,1.647941320268301590e-01,-2.839957981589788516e-02,-7.485653330683320061e-02
-4.588793386785365580e-02,-3.317311851042244880e-02,-1.446262803186557921e-01,-9.970854889917903086e-02,1.645051743255293020e-01,1.467441637632636853e-01,1.155333116888152684e-01,1.907491776948793683e-01,-3.154877692612963885e-02,-1.140384845790941154e-01,1.683282493536026603e-01,-5.566930441447978661e-02,5.343836931013448872e-03,-1.691460570546007569e-01,-1.736945983401583793e-01,-8.117438127529050251e-02,-1.010953078746332640e-01,8.030582100037940430e-02,3.805069789923269663e-02,1.444730954850958204e-01,8.714053669327928575e-02,1.323866532788724737e-01,9.086184397924152584e-03,6.027097538781917008e-02,-1.425129905365361827e-01,6.442884832172734999e-02,6.472952913229228222e-02,-9.774813668142144640e-02,1.340598845555226182e-01,3.422214148869929251e-01,1.299030829000479004e-01,1.250703796866580453e-01
-9.157517458858349321e-03,1.191830708697756147e-01,9.280758437548947137e-02,-1.833359760520831064e-02,-1.588571543660964869e-01,4.677204498588610065e-02,-5.603146476971263695e-02,-7.137325377725683984e-02,-9.928002836570731099e-03,-7.243781063128501563e-02,-4.833079797442258602e-02,-9.920941523833451403e-02,-2.699960806372165602e-03,6.003497834892372684e-04,-1.552129687187431550e-01,-8.869870302365441550e-02,1.097370476728701943e-02,2.496004567962340978e-02,-9.411511224025302658e-02,1.555661393637729380e-02,3.699432338671904824e-02,7.669600115347040455e-03,-4.774137316949467885e-02,8.730248880291166524e-02,2.019654190649507533e-02,1.151457044546036895e-01,-7.324993104773369623e-02,-3.289997530641324951e-03,-9.278897458924458691e-03,-1.009812548858819853e-01,-1.562689625203358690e-01,-5.042205732710878380e-02
-4.475349220226943620e-02,-4.977841476060903408e-02,-1.385273351010407605e-03,-5.593679283422011567e-02,1.723107420769452447e-01,-3.140728301519080806e-02,-5.839102765062751093e-04,1.901496675598709496e-01,3.407131645470524300e-02,1.821769460253782474e-02,-3.399717529040829390e-03,5.290837065146682117e-02,-9.536604885297075840e-03,5.796479577596984345e-02,2.488920793811030818e-02,-6.758275714293437986e-02,7.891000896080427318e-02,1.070364688245775131e-01,6.201601273268921542e-03,1.308132119656553590e-03,-1.772357095250410089e-02,6.318430111229586532e-02,-3.855410746707336328e-02,8.063668596978264269e-02,-2.938401344811452168e-02,1.079027845594459911e-01,1.678437262614216052e-01,1.087895785494180506e-01,8.656263061734846553e-02,-9.721301954848349247e-02,-2.927345056134657633e-02,1.972552743550385831e-02
7.333232381083651386e-02,-3.353345675809360493e-01,-2.036723498355860404e-02,1.275288021454122622e-01,-3.986790757537707515e-03,8.526933102547686050e-02,1.255189800868578009e-01,2.692946598734207719e-01,1.471363647226078541e-01,-1.996124964585459516e-01,-2.314317637006073000e-02,2.882954906833310252e-02,-3.849309480982376214e-02,-1.327291296761630435e-01,-1.233538794131436300e-01,3.777139065374045951e-02,1.261696772563557500e-01,1.804795590878308098e-01,4.426285391486909498e-02,-1.715516925028402195e-01,-1.257491895940433813e-01,-6.966860546907131801e-02,-8.411047401629109799e-02,6.463651457879587836e-02,2.585073558593877774e-01,-4.112616487623424640e-03,-4.137103538293961102e-02,5.244993868295547840e-02,3.291657881850579837e-01,-1.068536957793227160e-01,-1.307063748176402196e-01,6.549933302498740784e-02
1.396069007727534714e-02,1.454003509066386420e-03,-1.864215216094085650e-02,5.045451238512032449e-02,9.034461848482737423e-02,-2.178508490709329948e-03,1.335572119729643570e-01,-7.117409242127817684e-03,-1.062733987223331289e-01,7.325171013240625029e-02,1.613561637490062983e-02,7.142587472016195815e-02,2.682995017022649434e-02,-4.536216352128243090e-02,-4.503136692705585892e-02,6.388317066649691969e-03,-1.417249462213675780e-02,5.238637298126684605e-02,-1.030448260016734313e-02,7.257812114378028867e-02,-1.149131952657397732e-01,1.209367025969612999e-02,-9.221123366528791165e-02,7.628025355931689067e-02,1.202279370577723216e-01,1.625286188043592941e-02,1.094844788716352844e-02,-1.225858593185230605e-01,-4.728083282316331709e-02,8.597520728535029688e-02,2.128209472717305928e-02,-3.946012701169390735e-02
-2.301551585111025894e-02,-3.266756832019382384e-02,-5.390072013879408652e-02,8.056830163110030585e-02,6.700184316900217874e-02,-2.003339095411236365e-02,-6.859205502073688343e-02,-1.089865243471610928e-01,-8.286335640487406395e-02,-1.072698284272507498e-02,-4.996357328380962581e-02,-8.472215231008797809e-02,4.299438549436525314e-02,-1.504560804963827908e-04,-4.302613853953845408e-02,1.267965148584344372e-02,5.025200511578439833e-02,7.135655805927564044e-02,5.430545352229448897e-02,5.389723031199582931e-02,-5.776428764226460011e-03,5.384629804206251397e-02,1.061181382934568013e-02,3.472805451701627827e-02,7.200473468172879921e-02,5.158239450647976454e-02,5.928350462617207979e-04,1.442118580708083748e-02,9.609222184639426567e-02,-6.547617997097503889e-03,-3.603658389277409474e-02,2.414468397869639488e-02
3.189074064453511353e-02,1.456853870423863717e-01,2.928612439947952395e-01,2.148563134683069697e-01,-2.006934291296829098e-01,-1.002066817887752037e-01,4.190777951618316483e-02,-5.658253178653517568e-02,1.491698421067001179e-01,-1.283198591408460654e-01,-3.350459543380027855e-02,-9.548838723154268182e-02,-1.154208462280592318e-01,6.530111259142279412e-02,3.050356369431304615e-01,-6.692980536742831887e-02,3.124660972222339517e-01,-1.811733491642923133e-01,-4.976848671070436408e-02,-2.351368660945393763e-01,-1.266144111353124588e-02,6.159713048841031907e-02,-3.859392388028007326e-02,-2.661522949933471313e-02,-2.891570986641070051e-03,-2.329934461233682669e-02,4.219775416536482998e-02,3.243703666946736175e-01,1.008961012796564388e-01,-3.156806269292161682e-01,8.512545011221457625e-02,1.819629651737451614e-01
