1.193334924189648344e-01,-2.448398048197018839e-01,7.248277600934943665e-02,-6.112608308094976683e-01,3.365712139956828497e-01,-7.877745297260892177e-02,-1.230697305601122227e-01,7.142494757431634422e-01,2.507647692529429428e-01,9.677290160946874775e-02
-3.121040508955245651e-01,2.902231579068719758e-01,-5.339942799745857061e-01,1.193934660211735665e-01,4.685645762029988504e-01,6.003098914839365419e-01,-3.013499748213190887e-01,-8.043833441074934587e-01,3.761299338878828363e-02,5.385294505353214189e-01
1.167316980586331071e-01,-5.195845255023111564e-01,-3.135879732834265243e-01,1.003005222800845420e-01,3.502581127704710862e-01,-3.886792606006069795e-01,4.330532789669920279e-01,9.890109498164506574e-02,-1.051498062827117969e-01,-3.684917974144981054e-03
-2.806552789948508764e-01,2.804608470402000231e-01,-7.631382624671910475e-03,6.449875017046450276e-01,-1.512810380966686519e-01,-2.857149172204521137e-01,-6.136491134564685257e-02,2.211905490974141186e-01,-1.752818915741963801e-01,7.573933202934256259e-02
-7.360120166435851763e-02,-1.689143327142715589e-01,4.503388477157775349e-01,-9.574695615015814398e-02,-3.871025750962026613e-01,-2.981416203225851769e-01,3.244470708728776631e-01,-2.202942209706392762e-01,6.370993883661183466e-01,1.609193159751039562e-02
2.692807317573578385e-01,-8.770648751654228081e-02,-3.074982010509936248e-01,-2.909337120749631023e-01,-1.902139050871124448e-01,8.746423722305229909e-01,4.902707800485265333e-01,-1.899582365965153674e-01,-1.990882912677305050e-01,-3.994121823784758107e-01
5.215541341546560128e-01,-1.430470932615728746e-02,2.544143973909290257e-01,-4.592991322710458096e-02,7.171232412150947699e-02,-8.288949377598582580e-02,-1.202996881573469845e-01,-1.800300782327018678e-01,-1.887518156063070773e-01,1.192317651294854952e-01
3.693707364600719023e-01,1.012175126953913790e-01,-3.110610012210430764e-01,3.596191173977918848e-02,-2.111816523095559894e-01,-4.394807416321882404e-02,-1.725298134818844531e-01,4.538742469268849250e-02,2.891475806871845466e-01,-3.880405104442934960e-01
-6.600454335685926321e-02,7.432675956073518941e-01,4.626642118496186729e-02,-4.645503423545996324e-01,-4.562601690049446906e-02,-3.262709268563479537e-01,7.999859390453420427e-02,-7.028623054761980182e-02,-1.578499954124331361e-01,8.119852796904104830e-02
-3.348453226571438540e-02,-5.023735098929359849e-02,1.037676465577534318e-01,-5.496004411220499486e-02,-3.255152822159916581e-02,5.794529723475957961e-02,1.384924976591097754e-03,1.083397979504178571e-01,2.843464373887204591e-02,2.569354834447582468e-03
1.476653132943708813e-01,-2.192478134087605668e-01,8.031449244936025300e-01,-2.239852885006597405e-01,1.506621298820903232e-01,-1.552834772407275521e-01,1.665259831908041596e-02,-2.447771738216940607e-01,-6.563811836018706991e-01,-1.604676204959896435e-01
-1.890865381881932095e-01,6.994496838391964233e-02,1.884778845915061896e-01,3.972467199699553260e-03,-1.788839873429702299e-01,7.057917253222283083e-02,-8.007950590036395921e-02,-2.199608717042471906e-01,5.678620983385292836e-02,1.513512107278456968e-02
-1.350775917799844628e-01,-1.316309479037088281e-01,8.457871636641216273e-02,7.977062057114010785e-02,4.645836891561058724e-02,7.133532045158205714e-02,2.384405448073051437e-02,2.002846485941762733e-01,-4.765966412368483757e-02,-1.498512305172459425e-01
-2.008279227283805979e-02,2.261244252810818145e-01,1.324902994314670901e-01,-1.210606039991990179e-01,5.961000238709282528e-02,-3.506900692081989929e-02,-1.560988697406906212e-01,1.398219755961619404e-01,-1.566120986505049051e-01,3.551174928074027903e-01
-2.191975474582534555e-02,2.024174736985406564e-01,7.756390513577161860e-02,-1.481820593839223432e-01,8.982838239799978419e-01,-2.937297230495148903e-01,-2.927663663943815692e-02,-3.154016541182586703e-02,-5.235393123625108336e-01,1.272305771636027261e-01
4.944125041895578998e-01,-2.855227703155804875e-01,-4.925500327818753132e-01,-1.941838502963790514e-01,1.723523504169296172e-01,-8.249798897941028331e-02,-1.180799634809009541e-01,1.944531837958927700e-01,1.457441198404115790e-01,4.590517533462803446e-01
-5.444190897319370892e-01,5.265865530915339043e-01,-6.337114496582228751e-02,-2.155625406744559325e-01,1.921803489066066517e-01,1.060130542104100321e-01,1.922553901730913450e-01,3.392954470648393284e-01,1.066578469860254008e-01,-6.042395643842634056e-01
2.884398427983287383e-01,-2.181241202661064749e-01,2.892284333225605963e-01,2.723933927202669136e-01,-4.972591545288124193e-02,6.869155398037822546e-02,-1.442620551991784794e-01,-1.518298248282579366e-01,7.117888140471734237e-02,-3.032167965694727019e-01
7.565717990031244067e-02,-2.162710445212296662e-01,-6.593307114578181305e-02,1.178917594028593557e-01,1.119040719879220158e-01,3.328119216046040996e-02,-1.432528841665315356e-01,1.167171280360511376e-01,1.333010746401503965e-01,1.706605821439435844e-01
-3.311371917862325209e-01,-4.474359765311767406e-02,-1.034622792537468750e-01,1.323655609804991473e-01,-2.015618054034198636e-01,2.052055866575764609e-01,3.536837742283995834e-01,-3.127002132082404295e-01,4.268691638593635762e-01,2.362148555607141223e-02
-7.555486914162843444e-04,2.283991415715544981e-01,3.029610019305803981e-01,-2.039782671586185259e-01,-8.475546066617668794e-02,-2.372544135677139010e-01,-4.148332142965664993e-01,-5.523835079896463607e-02,4.025857349274906127e-01,3.447980248212090815e-01
3.488522792347144019e-01,1.580717651897036724e-01,3.255988854488461315e-01,2.204493322253749804e-02,3.008050720750706786e-01,-4.178424211057898408e-01,-1.600600893674997693e-01,-6.276172735713345663e-01,8.035253388976706934e-02,-2.655601146416565472e-02
2.331750324204357183e-01,-6.564329138351149805e-03,-3.233402259290807379e-01,4.052628667121982997e-01,-1.543576446168077460e-02,1.626655892904099177e-01,2.493841821889501709e-01,-6.197730570928052657e-02,2.053720340631973729e-01,-2.858888293736383882e-02
-1.008607649515293331e-01,3.408360756410093173e-01,-5.491418980442045600e-02,-9.429367004835738364e-02,2.719853535506879805e-01,-6.560678791129234688e-02,-1.161908944117538839e-01,-4.740687203940958938e-02,3.842418782253972237e-02,-1.158465792627212110e-01
-4.445648867799662507e-01,1.427561624145619601e-01,-3.151136499647524403e-01,2.483864803445606784e-02,-2.661914301332355404e-01,4.143520177888537215e-01,7.210036503278959702e-03,2.810466898826279869e-01,-1.285843659832867081e-01,-1.119714724920388565e-01
-1.224293958466901866e-01,6.992541592845172814e-03,3.613890905115615948e-01,5.748008609710456573e-01,-7.146634388278969574e-01,-2.565136793176298058e-01,-4.103123985430870979e-01,1.938260340626854761e-01,-2.285754567486946165e-01,1.950897792032629807e-01
2.046843893253446067e-01,1.317427141876180985e-01,-2.519973902841775026e-01,-1.805417002774566404e-01,-3.786080114134063868e-01,6.259810644233869681e-01,2.408192574020175114e-01,1.913673407681953098e-01,-4.301450572459828425e-01,-1.231821931432113271e-01
-2.101900184135694905e-01,-1.540695578892447570e-01,1.168106573511265428e-01,-1.574907989933644337e-01,2.339824848916026712e-01,-2.231078664113947119e-01,-7.821961963374887694e-02,6.706724261584532387e-01,-3.274634962858959941e-01,6.650747500609567597e-02
-2.235562184560962729e-01,1.966953848839570473e-01,2.904686091906019119e-01,2.491408890882657046e-01,-1.179311383180264711e-01,1.639135237626125063e-01,1.302726586072424086e-01,2.860643324360828132e-01,2.092723286524702797e-01,-8.136777894282026802e-01
1.229903253719719508e-01,-3.184640542341130587e-01,3.482589245199169681e-01,-2.412996973192596262e-01,-2.893914519580874645e-01,5.519854552319276506e-03,-1.951654634621360559e-02,-1.744494194119732833e-01,8.387235139240670767e-01,2.583831271616390812e-01
7.081055537638460129e-02,-1.639274284052371911e-01,-1.468246122854304780e-01,7.893129375498770806e-01,-2.634755100860198818e-01,2.531721867599436848e-01,-7.149579695394013834e-01,-9.659885174588543622e-02,-2.384510957814732490e-01,8.863640446316932708e-01
3.096786240953078861e-01,-3.805248438214003937e-02,2.758901874384931396e-01,2.515351998198568362e-01,4.978258008518209043e-02,-2.740207300421286241e-01,7.424506200597773553e-01,1.026395611993485835e-01,-1.596616248399214955e-01,-2.138954807147414039e-01
