2.965603218537812835e-01,2.663898416910421771e-02,3.371232556090527493e-02,1.233642192017650324e-01,-3.361937640867506544e-02,8.872838671403118077e-03,2.108747019914861132e-02,-1.321871577764976713e-01,1.318481573879157764e-01,2.812799974514199053e-02,-7.975472015371119772e-02,5.116807203628068179e-02,3.250096705855069074e-02,-2.829827749004146936e-02,7.038915801089108693e-02,7.395514100996418427e-02,1.395842623079575177e-02,3.451916583706376995e-02,8.985916557467656107e-02,-1.059996313571128917e-01,-1.862770158130458709e-01,1.268029908653171833e-01,-4.822129061061454502e-02,6.902366351667130195e-02,5.771603184563409844e-02,-5.036112938852393105e-03,-8.780414515263836039e-02,-3.926164690728611850e-02,-7.340400355278349498e-02,-9.153614833842795007e-02,-4.478789732574577770e-02,-8.943993848873259267e-02,1.233528296727341156e-01,5.745276823056318961e-03,2.498256482561076255e-02,6.111786900573790843e-02,-4.534110911138117261e-02,1.456969044469488481e-02,6.290697732614543292e-02,1.115242113285661169e-01,3.654944383949711856e-02,-6.911077812186891545e-02,3.285696537604621686e-02,8.720774813013289217e-02,-6.836523680871232911e-02,-5.377738047166543550e-02,4.744258219502545809e-02,-1.255631439511269501e-02,-6.096313347464918375e-02,1.337078190156778049e-02,1.341117325930357707e-02,6.742134805450018809e-02,1.593765227953329033e-01,-1.384729187614460420e-02,-1.181419165055055676e-01,1.222837840163442380e-01,-1.297390527779364311e-01,-1.579949752407609764e-02,-3.268090290727465597e-02,-4.346880050640571785e-02,1.370385295710197238e-01,5.386121510572976917e-02,7.874726630740269684e-02,2.702029217895773328e-01
2.014512728068883462e-05,-6.092772247137333980e-02,4.343689822712215598e-02,2.742765396920759935e-02,2.595968783684368328e-02,7.101294496471491358e-02,-4.144559663978262393e-02,-9.213703058989258093e-03,5.360608138611353685e-02,1.590095440190192055e-01,6.937297447107401704e-02,5.202610052518577555e-02,1.660398609647825490e-03,8.514570133271820440e-02,-7.567385767034942590e-02,6.129488530780826186e-03,-3.099126199899041728e-02,-1.531425271921859656e-02,5.113788364220470811e-02,1.110698964315307881e-02,-1.728498308040398584e-02,-9.176006196414461524e-03,7.473925342605006183e-03,-4.301035027794318510e-02,-1.128533810654108391e-02,8.624743534418791158e-03,1.875182177992728433e-02,8.053293819454870883e-02,1.859724326214971107e-02,-8.974044610126599708e-02,-3.831145940518878440e-02,-2.684715629846955252e-03,-4.327812345549003625e-02,7.857776234654294256e-02,5.639743352028160628e-02,5.709298757065290469e-02,4.050154347649406045e-02,7.026812517357312882e-02,5.887026776277091283e-02,2.831895230293129950e-02,2.041541144644119440e-02,1.952473746342884718e-04,1.026485576826976637e-01,-7.222237921912928738e-02,7.135061981560567035e-02,2.872663450951976408e-02,9.595424801440674209e-03,3.316715187237187154e-03,-2.857588768120532946e-02,6.977953295285602153e-02,-6.924288471294476333e-02,7.048211915597799027e-02,4.041051096274868998e-02,2.514397726541076072e-02,-1.059353535423795262e-02,7.761201458735794700e-02,1.004369058767460715e-01,6.143669449755590622e-02,4.044550664479886967e-03,-1.376054109237711404e-02,8.756260539460414272e-02,-4.116606825042652684e-02,-5.115006585003438466e-02,3.438762605525173127e-02
1.503265441269027204e-02,4.947551337926985732e-02,7.848252155035559396e-02,-7.349816430817375512e-02,1.730864837951529567e-01,3.043939065149478106e-03,1.247870296174520555e-01,-9.904393251328443004e-02,1.159460050700956563e-01,-3.091480786511635083e-03,-1.265463710327539848e-01,1.040161151650498966e-03,4.355169175362108396e-03,4.470252188401104584e-04,-6.294424557972598533e-02,8.755822108128473447e-02,8.590171365598388287e-02,1.007424316782860457e-01,5.934457326080019163e-02,1.911479047862590236e-02,-7.250907967601205595e-02,-9.556285867631107711e-02,1.324968755931849873e-01,7.020852180988503000e-02,1.195912695819376231e-01,5.486649722304165477e-02,-4.412334648874837589e-02,-9.219067766346705772e-02,-6.576820416627718324e-02,6.863326876305676782e-02,-1.078344726421208710e-01,-7.624714715935267985e-03,1.010336857576548120e-01,-1.345652472656519785e-02,1.079622535764102886e-01,1.502206138698387594e-01,1.177026506081284007e-01,-2.354857718337579654e-03,2.750763334611620176e-02,-1.455203046710756010e-01,-9.434560547335388639e-03,2.654432456569908935e-02,7.828985737203748851e-02,3.762150312264795488e-02,-1.267660706176497731e-01,-2.475108525939398799e-02,1.681003071598762650e-03,-1.739509067862122713e-02,-6.868687614708065756e-03,-1.700851569521115991e-01,-1.567260373531105186e-02,-2.568155168236649008e-02,-4.673966897256327802e-02,4.062616888655149611e-02,-4.098234950626657158e-02,-2.823769345886865956e-02,-1.499587103061157146e-02,-1.383642215598248140e-02,2.044823688289047758e-02,4.872949785154372104e-02,2.524438378688906651e-02,6.055304516097669704e-02,2.054488904368326901e-02,4.451214479394946522e-02
1.903772300733543865e-01,-2.947228827192526629e-02,5.432454353132139258e-02,-9.484544672631949058e-02,-1.098554857633532097e-02,4.515335140965900246e-02,5.053330660881456132e-02,1.415904302894789579e-01,6.289093453435590231e-02,3.942490591095423186e-02,1.590422714825054373e-01,1.395487211312575748e-01,-1.109669480217819471e-01,-3.387464016480744994e-02,-8.514369662148914275e-02,-9.554927777477313644e-02,5.937319872389145575e-02,-2.435221893128318091e-02,8.827134646265882845e-02,-5.182325334398964201e-02,1.072620646969210320e-02,7.767811571239367774e-02,-2.193187876926124824e-01,1.711569382720829480e-01,-1.292495418020646498e-02,-6.533631891710936241e-04,1.166899860452758342e-01,1.142312532297488359e-01,2.061880853631060245e-02,-5.086935221091940657e-02,7.675655052368618447e-02,-2.585301606331045776e-01,2.331076783969981969e-02,-8.104234538107438907e-03,-2.294280284213261537e-02,6.454872414955349635e-02,-1.572969449102772921e-01,-3.972084132791525897e-03,2.646664613751441297e-02,-4.410282606246630072e-02,5.237275938658078611e-02,-4.094723250944217602e-02,4.727191525529962635e-02,-3.060914040657555096e-02,-4.872675778468185670e-03,7.786394939350717304e-02,1.030231761832953175e-02,-1.780724061704079195e-02,-5.976911311364613462e-03,1.041153080474754855e-01,3.896955233284980780e-02,-1.938584569541046757e-02,-3.162586096298079102e-02,4.232744436243913305e-02,1.655975078339557427e-01,4.988136875597441039e-02,9.237026127298594153e-03,-7.297573650877542395e-02,1.635044437679758836e-02,-7.007263171664772361e-02,-1.294314430916334302e-01,3.757491932446194866e-03,2.627723752337821420e-02,-8.416925443553506525e-02
-1.743755961955238340e-02,-1.167095136172712766e-01,-2.195897192590611224e-01,1.539965324492054422e-01,1.894111920513366631e-02,-3.737473649536993819e-02,-4.175376869919561473e-03,-5.698405998049356838e-03,2.183574463306069829e-02,1.225220717342980457e-02,-1.371527134501967782e-01,-8.876056138299505405e-02,-1.445437226746518200e-01,9.195554476444299519e-02,-4.604837194941838185e-02,7.244620173124834139e-02,1.744064700041930704e-02,2.091238446270290291e-02,2.128456419693908752e-01,-8.527405770889072423e-02,-4.210776431315632617e-02,3.122423669639615845e-02,1.163967361655936089e-01,1.483503204233250772e-01,5.901420519361319506e-02,1.717926139831862931e-02,-1.237516262029186853e-01,-7.180660644674224935e-02,1.766597239092621008e-01,8.034741347016140234e-02,-1.162390310049288555e-01,1.283601355795774557e-01,-1.637806454281361956e-01,2.043158408006786608e-01,1.293816147819591700e-01,-7.215657711509546046e-02,1.831832004793636781e-01,-1.094988705762858228e-01,-2.950434132618349678e-02,-2.528113085189051534e-02,-2.109785763122918462e-02,5.262119306033727351e-02,-1.072275814720770187e-01,1.071412631221709127e-01,1.554767842868016448e-01,1.591644905108810237e-01,5.270087909020641087e-02,1.419357476224030190e-01,-1.493226579456650993e-01,6.583807357972840113e-02,-4.370967715935911158e-02,-1.147505079459903293e-02,6.761031406321407755e-02,5.417607840092849431e-02,1.794778434826347080e-01,1.263238070565867732e-01,1.365193046694255022e-02,1.064416942542751182e-01,-7.272974606241856821e-02,-8.943728627004477599e-03,-8.456029172290982499e-02,4.289424066965446397e-02,-1.405504988953907852e-01,1.215662337282361755e-02
1.528612512628621800e-01,1.590569532318022658e-02,1.643243707102059331e-02,8.873688591919630733e-03,-6.288677594778153968e-02,5.245579148662457558e-02,8.463439537466510565e-02,-6.572590681070580865e-02,-7.736269417482767585e-03,-1.126480736990002462e-03,3.203559154642121511e-03,-5.819618781930460671e-02,6.096966369146725878e-02,4.637127724086852198e-02,-1.297472118969076466e-02,-1.973543583819522412e-02,-1.083657550237904395e-02,4.290967431525395670e-02,8.756780231109203422e-03,-2.064516990647965317e-03,4.423821044140823638e-02,-1.199378199017872570e-01,-4.481900639061412589e-02,1.743332331521732156e-02,-2.733103805003162662e-02,-7.527959222542626727e-02,-4.984164514417620956e-02,-1.503262157672858867e-01,-2.668524064899295903e-02,-6.203334001455523827e-02,1.116256092870443750e-01,-2.112010972399216632e-02,-6.475094501273682968e-02,-1.517793695788450213e-02,-6.132232963959421967e-02,8.399469891635323593e-02,-7.403155803146523051e-02,-5.669955423503360292e-02,-5.525553047634620962e-03,1.898145907718454609e-02,3.696120850001071573e-02,6.775616697629699425e-02,-3.149948697272624693e-02,7.762187414809819386e-02,-4.098236382153062907e-02,4.987985987716445427e-03,9.152954832585941114e-02,-1.764536008992819219e-03,3.646378781681930414e-02,-4.674371582572692252e-02,-4.600859867984186807e-03,-2.185893229558294806e-02,1.017705014946293507e-02,-1.102691314352376578e-01,1.004704402220127912e-01,8.706456225517449077e-02,-6.775631726835584833e-04,-9.686225456288262425e-02,8.993043770104913737e-02,-4.711321269239587134e-02,3.989348030089067722e-03,2.043515044145462981e-03,-3.331185244976855864e-02,6.282119375926113747e-02
4.825385099231094960e-02,-4.284823465411884136e-02,-6.715049796286670647e-02,4.675407467692074652e-03,7.876117754625673595e-02,-7.437961332762260680e-02,-1.077879298778499362e-01,2.032779778976855078e-02,2.473922965599010398e-02,2.965588958748372611e-02,1.503274154560625860e-02,-5.421484241169167995e-02,-5.710638520303219084e-02,-4.711850374147591447e-02,-5.913231464667240839e-02,9.276798652921207367e-02,-4.648924512911275370e-02,-6.931902816713363807e-03,1.006760601400456118e-01,-3.985907598627752568e-02,-1.105741390798423845e-01,5.643812984170379354e-02,-6.864207481583928239e-02,-4.666328003021792681e-02,5.383752893024437713e-02,-1.040759406554124175e-02,7.628168955915058669e-02,1.176018766129571791e-02,1.511204473917818203e-01,4.624929540359680458e-02,-7.053945800430519442e-02,-3.553884010722879738e-02,5.706116144480158359e-02,1.116110877109545152e-01,7.549218264296150838e-02,1.148312694729846789e-01,-6.687644824052846326e-02,1.109034825027031780e-03,4.075502347101026684e-02,-2.262379077928808324e-02,-1.042449313560840363e-01,-4.682070872264745658e-03,-4.475973443475205621e-02,5.532373101697470735e-02,-5.009615481423711214e-02,-1.173063282822505299e-01,2.010263520903451118e-01,-3.121491723420147593e-02,-2.258472173242851225e-02,4.575558001492944366e-02,1.299512935227516708e-01,-6.074090385647235718e-02,1.393895340597723909e-01,-1.708183790904408642e-03,8.794937958868898065e-02,7.711847438754114437e-02,-4.514850676584385852e-02,-4.834866815074862628e-02,-1.062205014956821431e-01,-5.256348297389363232e-03,-3.471676603232013575e-02,9.880119469464745952e-02,5.077356267841508231e-02,7.435163615575025864e-02
-3.796108326778725034e-02,2.881052281889361771e-02,-8.503462596987346189e-02,-7.100133382309038732e-02,-2.200805701549696236e-02,-2.953139120769060141e-02,3.618236782625396802e-02,-7.648338376899262159e-02,-5.829741589293064435e-02,-1.199440791433133424e-01,1.902267374243070408e-02,2.427130006678953397e-03,-4.142667539413022459e-02,-1.197950958979037903e-02,-6.953700083466048121e-02,1.265351603046589550e-02,-1.022137733896561623e-02,-1.146976706586014423e-02,-1.786795694120571140e-02,1.659975955406165285e-02,4.136633558212876767e-03,6.149488260302323622e-02,3.435425370957963936e-02,2.359620227326665598e-02,-6.887694205857856911e-02,1.153347573327627787e-02,-5.629825135736049591e-02,2.407966753987873798e-02,-2.889683278049506518e-02,7.520344097885191259e-02,1.525454941321043555e-02,-7.214027479479744043e-02,2.370095155787115861e-03,-2.821032836462426460e-03,-6.268493515925536996e-02,-9.874310544604318965e-03,1.157439891939791715e-01,6.389391400701772972e-02,-2.651675085171252208e-02,-9.523776633327175889e-02,3.356527284055492444e-02,-3.853627972529014706e-02,-8.067290958769086223e-03,3.024445681470184361e-02,3.387162642763363787e-03,-4.633679955584057292e-02,3.709612065783871038e-02,5.149747400955393545e-02,1.081972911418753285e-02,-7.296547794347885141e-02,-5.907013542910805048e-02,-5.094747898105158115e-03,-6.899977083407476952e-03,7.509224041746693015e-03,-1.482449049916819417e-01,-1.883978201068051486e-02,-7.028473884778757563e-03,3.841260308356097414e-02,1.418263309212107748e-01,8.981849466951276340e-02,-8.136384649938860347e-02,-6.576328843851986239e-02,1.951864289840363892e-02,-6.519637150791708635e-02
2.703642535160623740e-03,1.146759045711193137e-02,-1.584540114819255052e-02,3.052688997184872105e-02,-7.663722958380421446e-02,-1.052805713950382902e-02,-8.108095982353749620e-02,-5.083137376375291769e-03,3.198714447332635848e-03,1.280453381523095902e-02,1.943688781894997025e-02,-2.363861211404797227e-02,5.310316569474142490e-02,-2.243143609444836137e-03,3.553850493946435207e-02,-3.670507086395771723e-02,-1.924856380005023765e-02,-6.303328306059972908e-02,2.413989862059626526e-02,2.630512825006325189e-02,-5.124015480143919582e-02,-2.983002139456517043e-02,4.995771801109533117e-02,-1.618218605837252327e-02,-5.140319139721710034e-02,-1.104881526933593899e-01,2.854220585471111196e-02,4.774959704979937769e-02,6.356482514761152558e-02,1.033118141859335664e-03,-4.644140292878164156e-02,-3.730627255376052151e-03,1.167066000080393788e-02,-4.894899103090558090e-02,-7.955537411656589397e-02,-3.468237394034521387e-02,3.729121936513277169e-02,3.135486824359118296e-02,4.295316449250769636e-02,-1.551835102425186581e-02,-9.576308630589705495e-02,-6.493793855282836702e-02,2.098261940293673355e-02,-2.342750579470115335e-02,-2.158916477597682682e-01,-8.644120107655159368e-02,-1.416404151854672167e-01,-6.105669869536801964e-02,2.186308823157816911e-02,1.084604124634607099e-02,-1.023993507117829799e-01,-5.789257895544053234e-02,-3.827282642523301831e-02,4.333339343379689662e-04,-1.095369393280929034e-02,-1.132514268532478462e-02,1.017056058500898919e-01,-3.573583004874414382e-02,5.207252584051282746e-02,-3.643217739469330196e-02,1.079733906253611403e-01,5.885557467862852915e-02,-9.023938703507139447e-02,7.802839906002284609e-02
-6.635916180993198243e-02,1.079625278753894441e-01,-1.303619471150164744e-01,1.786920658199308773e-02,2.771836928415359891e-01,2.499936347810147522e-02,1.084198118913180797e-01,-2.056138792857168107e-01,8.463921945594414520e-02,-1.833657242685493571e-02,-2.043490003568300406e-01,-5.132801630961935507e-02,-9.950799540614964356e-02,-1.409082998306857189e-02,8.946923435500345190e-02,9.769718635278921981e-02,1.504688155016548901e-01,-1.253622336378587276e-01,1.109923260085209640e-01,5.393384599219811339e-04,-7.578313052549828788e-02,3.720060302973880045e-02,2.844036387396265408e-01,1.438784372663874378e-01,2.803923113688425728e-01,-1.057207599152626271e-01,-1.851590587885804107e-02,-2.749700767918217270e-01,1.157140788513478895e-02,1.315559811403341564e-02,-3.305381721703284231e-02,1.914705837455335791e-01,1.546017160556957537e-01,-7.107278763446699121e-02,1.886664448922202864e-01,1.526504263505038539e-01,2.113862980111431977e-01,-9.266108846562925994e-03,2.436493978846590233e-02,1.686686056742461026e-01,-7.799653997315220133e-02,-1.209656187383577192e-01,-3.810254023371784787e-02,2.109264583356021128e-01,-6.350849540086554723e-02,6.891347052439711351e-02,2.687579364705494286e-02,2.323555647318716402e-02,-3.836364506257280288e-02,-1.102341702981053106e-01,-1.623870128555820469e-01,-1.288937202698329024e-02,4.211937315142792737e-02,7.861604656406383229e-02,-9.295471520643409924e-02,6.264190479383165144e-02,-1.236522938350999301e-01,1.751521199112500982e-01,-2.817292570859041001e-02,-2.497994529536391381e-02,1.301793923326892977e-01,7.309413263064667987e-02,-6.473424554713021195e-02,7.828156614051418397e-03
1.012311658870521658e-01,8.229536356126748720e-03,7.147077125368461736e-02,-9.875729508938747847e-02,1.178683605547269503e-01,3.947372089917377397e-02,1.859260697031719228e-02,-1.107137432922535580e-01,-9.405293709987147532e-03,3.173653073990815449e-02,-1.422679304956847857e-01,-4.437003208404509402e-02,1.784735987092683079e-02,-6.032306344008766391e-02,-4.587539410268513460e-03,9.412476811690412282e-03,-3.874658718616007420e-03,1.915795207711762024e-02,6.079971219613940908e-02,1.272416511009693413e-02,-2.241302667144778535e-02,-9.131809963327471025e-02,-7.133415282381688934e-03,8.029640006786399609e-02,5.617815966617205510e-03,-6.734761024319284306e-02,5.827542777231922710e-03,-5.578933345789645337e-02,-3.195191569087624944e-02,1.095547342575508565e-01,-6.976698814111179092e-02,-9.750359827568147453e-02,4.074760607989772430e-03,6.927819669846319028e-02,3.100029291167936615e-02,2.210985099530587625e-02,-2.438528782912082957e-03,6.702139360014489067e-02,-1.881685797551511594e-02,2.250824739165326396e-02,4.872990339426867476e-03,-4.608911582017358177e-02,-1.803690135931850349e-03,-9.008767190221692034e-02,-6.916480318926942171e-03,8.351436878907418648e-02,3.773693748972117151e-02,-8.409297229769077675e-02,3.152915504739346730e-02,-1.010224164238926643e-02,-6.476831010417470613e-02,9.454236879603693244e-02,1.044157631166250239e-02,-1.266451356543891182e-01,-8.150466152253514618e-02,9.750899614575470054e-02,1.435888004544557360e-02,1.750837221327784538e-03,2.739347699331691130e-03,-2.764022423494921429e-02,-1.885433561677615777e-02,-5.792032674537179321e-02,-2.860916945145595622e-02,-7.121907586817798064e-02
1.602512459927386834e-02,7.234684228246590805e-03,-5.064950396528986737e-02,-2.272021940359801248e-02,1.467883377992096339e-01,3.669647084287044198e-02,2.716202884440060972e-02,-8.707458200007307803e-02,-3.169937523973190285e-02,-4.882697428342300944e-02,9.036717423571956689e-03,-3.769956427620139994e-02,2.025522390288842650e-02,1.137097833237231126e-01,1.536326981503963705e-02,6.729568006479115516e-02,-7.247459781558469871e-02,4.834610968700581157e-02,-5.560938851857348542e-02,-1.701273711727583227e-03,7.465006513862934567e-02,4.638349805238622253e-02,-8.570082348542777673e-03,-3.512411059337508523e-02,1.450835591413550119e-01,1.062876513188763805e-01,-3.205039097382932078e-02,-3.582551692881121713e-02,-4.028726529643524706e-02,3.456870360218919358e-02,-2.064904025152667147e-02,1.329278735063880307e-02,-9.215386715314065683e-03,7.063491498167155831e-03,2.414889561807873584e-03,1.716094552998692624e-02,-4.297096056340755921e-02,4.148958631663981003e-03,8.849366081382979698e-02,6.749964111563972260e-03,2.926018377924536479e-02,1.264507421950777366e-01,5.548678489721044910e-02,-1.175254276371180823e-01,-5.430288764014527120e-02,-8.013597880703367260e-02,4.656070950082046717e-02,-4.180761625020543160e-02,2.305295439192716223e-03,-5.415893030859965374e-03,-3.365337131133792903e-02,4.947320655757722618e-02,8.480320501696182733e-02,-6.027099643739663309e-02,-3.252919457781158069e-02,-8.031263245326861200e-02,8.734427924810843347e-02,5.295157496414511222e-02,-4.764739760061029346e-03,2.510329432121197538e-02,-2.427524118927511243e-02,6.186770399868651502e-03,9.020421389094747389e-02,5.270600691878363220e-02
-1.932025072005350841e-01,-1.483854739577995796e-01,-5.631049629986795146e-02,-1.734043878982760578e-01,-7.191331065726504213e-02,-2.919538316794420899e-02,-2.009940890266442015e-01,1.715366772588372279e-01,-3.724209146603962156e-02,4.208649576314640178e-02,1.503354831964010263e-01,2.776077723895608099e-02,1.133047387646437393e-01,-5.928689693523477369e-03,-4.544176019766900387e-02,6.242260108167173305e-02,3.664014081754417285e-02,-8.326975525838922754e-02,-4.431539307355789048e-02,-3.918534867502667524e-02,-3.796956187299740156e-03,4.979792080329279585e-02,-1.130493403980034339e-01,2.877795108427675524e-02,5.452615016774614576e-02,-2.791115300760189932e-02,5.929351372099148088e-02,1.305763240627123012e-01,6.429737065423826725e-02,1.955010359914008677e-01,-4.840371226251286713e-02,1.192958453461016449e-01,-3.662445100677454851e-02,-1.192518316765894676e-01,-1.104570600890703719e-01,-1.659859808546206850e-01,1.031456133074078740e-01,-2.623497322952379057e-03,2.310644705433391732e-01,2.828494744937312330e-02,1.820933155728402808e-01,3.581814898794635771e-02,7.413181267039194167e-02,2.596392719914322918e-03,-4.208311508438590531e-02,-2.031836383934263694e-03,3.697495470239892112e-02,5.898223367542720225e-02,3.856982864023968810e-02,-7.842880768139405545e-02,1.709194949683928155e-01,1.649618905415711767e-02,3.597201178914050806e-02,1.299530554323965192e-01,5.067309479159662344e-02,-1.698407479180155388e-01,2.302669494238364090e-01,-3.599101052828435759e-02,-6.629378758768689206e-02,3.552369788421341074e-02,-4.158994530381093790e-02,9.453835993789598199e-03,1.296021739907277266e-02,1.279413412437077346e-01
-8.360604851932795789e-02,-1.059466692819959963e-02,5.798444680322735467e-02,-1.420686897620235430e-02,4.126168357795758496e-02,-1.967719017102447995e-02,-8.613492620534327071e-02,-6.796304981362411013e-02,9.052311826074867229e-02,-2.240916187264905060e-02,-8.081897166994238269e-02,-1.835466813521516583e-01,5.529243733630328367e-02,-9.101182423476227371e-03,-1.619856464408075264e-02,7.215885373516317536e-02,-4.727768752837922805e-02,-1.018221613549618321e-01,-1.474513296506456128e-01,3.991724843171894077e-02,1.988879374452763582e-02,-1.153693940129732198e-01,-1.059157540008311971e-01,1.018078288777310714e-01,1.061806814069021637e-01,4.616872587714393461e-02,-1.191035010978764436e-01,-9.888319029662270832e-02,1.708629389443542396e-02,-1.523608378673459857e-02,5.614986587551494546e-02,1.781487026624172798e-01,-1.093115723563870961e-01,-2.413857324530731610e-02,2.207492723851161090e-02,7.832370143437729360e-02,4.126740221034303630e-02,1.101762436357007699e-02,5.205367166704365917e-02,-2.284811254431172098e-02,5.963111313141524622e-02,-5.076898719691493034e-02,5.959551258723788658e-02,-1.557583286791711374e-01,-4.779186588159480692e-03,-1.407624965767328706e-01,-5.255803888093738691e-02,-5.313990282694258660e-02,-2.564969024033852962e-02,-5.857879066761929876e-02,1.074898533518995614e-01,9.852534226614712010e-02,1.134537217177658715e-02,3.954954628458733773e-02,-1.329042728306843897e-02,-1.569411053953777280e-02,2.537472092993181549e-01,8.098113277771905316e-02,-3.068821376817491928e-03,-7.665865105299260462e-02,-3.411540127868278177e-02,-3.684968365151869429e-02,9.246304216828208494e-03,-4.710326956928984760e-02
-1.707406667834900083e-02,5.416739072006996475e-02,1.345651731109099051e-03,6.774076222209685083e-02,-2.561299668376748953e-02,-5.551719064570390105e-02,-7.461852352193716620e-02,-5.286944206428006998e-02,-4.893616212058898157e-03,-1.630324200720500646e-02,-7.426290351787442163e-04,-1.280257837322605341e-01,-2.341339478254630957e-02,4.877233035863375553e-03,-6.758196313124852084e-02,1.734194285375464245e-02,3.191782853032527900e-02,-1.860071339626024819e-02,2.161447756283026156e-03,2.806035262191340987e-02,7.374266554294012233e-02,9.886437988922468223e-02,-1.709736384003394394e-01,-1.342702850184447107e-02,4.417639893894942382e-02,-8.801388140614732625e-02,3.602593479002010046e-02,1.105557994289988605e-02,1.123489993982213220e-01,-3.044070070910403006e-02,-1.362250381752897269e-02,-6.917383250620258439e-02,5.105490573069621993e-03,-3.008209266981093366e-02,-4.451278683333729363e-02,-1.182012915738482883e-01,2.640900135169352986e-02,3.453750804503462335e-02,4.365418679512243771e-02,-4.872966912504905074e-02,-1.119639432271773427e-01,2.731336143661999491e-02,-3.152414375772991800e-02,-6.582711733344848160e-02,9.572979499459663422e-02,4.347829224979191803e-02,6.906678392426110480e-02,-8.765280573616862636e-02,-7.870139298505816894e-02,-6.124415127633913575e-02,-3.370687061828524234e-02,-9.353125780112043000e-03,-4.202183013544263934e-02,9.819388430682347499e-03,-5.037342914114985304e-03,-1.277052652367773600e-01,-5.837484839894873691e-03,4.449832866674301862e-02,9.538294258701294007e-03,7.249637777213273349e-02,6.011421365873212408e-02,1.362415606551388714e-01,7.283814993532222726e-02,-5.698499138774415669e-03
9.316936395304631358e-02,-5.729109342166349012e-02,4.889401556958276884e-02,1.711107765918906676e-02,7.937089916360019759e-02,2.558728625235054399e-02,-1.464702078108178276e-02,-5.057590139745118951e-02,1.072189118240344033e-02,2.196322344903779353e-02,3.068125597349653441e-02,-5.103922012939241665e-02,-1.684178162069333573e-01,4.677167279900148328e-02,-5.936986453606279274e-02,-3.172972662013367334e-02,2.480439363106229367e-02,-6.747846841661542597e-03,-2.744689214531526034e-02,1.979299853751587124e-02,5.468866045464981090e-02,-1.483351378705417833e-01,-2.812191073338962677e-02,1.203628589442276922e-02,7.227641321932186391e-02,5.337824614942752316e-02,9.828815304333568537e-02,-9.760221468733133732e-02,7.714314906614863632e-02,4.869475329250436135e-02,5.052509388766086157e-02,-1.281562941471333372e-01,-6.503817685064851306e-02,-5.722876249542965810e-02,-7.107436983831000310e-02,-2.718349624533452497e-02,-8.560995791980972880e-02,4.412586044491800807e-02,5.624245417483156317e-02,2.471653661772735266e-02,1.191814221412140495e-01,-8.135151962261846781e-02,-8.076532687434538615e-02,1.143133059022624284e-02,-6.293501926378662625e-02,-1.346563937854781123e-01,7.140762924151447533e-02,-1.056645286628284663e-01,-1.010234491685364257e-02,8.690771517852027839e-02,-1.024378839267585800e-01,8.886259996741847781e-04,5.340836645216430478e-02,-1.202293818472221359e-02,-1.235507897117891531e-02,-1.377751855139143153e-02,-8.225377770982683634e-02,-1.272312230523149623e-01,6.988159177947457848e-03,7.272875410150364019e-03,1.238020319765649122e-02,-2.898231816756338675e-02,4.274594303945841028e-02,8.137723939308000309e-02
5.359118832083660522e-02,-3.273230286436506348e-02,2.848288962361824814e-02,-3.079173991960193826e-03,5.423717126840097574e-02,3.502488593769326891e-02,-4.903492425074443273e-02,-6.338397772742689062e-02,7.519601681966729678e-02,1.834423958734317586e-02,1.439323059739381142e-03,1.708996272385532268e-03,-6.188191971887805481e-02,-3.174560291937502526e-02,-1.139448074324027338e-02,3.038743191745576361e-02,2.695799255261987007e-02,-1.413371806723403602e-02,5.181662481725295144e-02,-2.811009182996277583e-02,2.997664015804835103e-02,-2.962910353667109337e-02,3.907651882008121580e-02,1.590685355657175670e-01,-5.698554499288484981e-02,7.677375669753387644e-02,5.839878957649080604e-02,1.494358973826908840e-02,3.762908704940775423e-02,6.551926289886609960e-03,-1.088025373759974462e-02,-4.156236581394513047e-02,-7.786617818104975275e-03,7.495089477958669089e-02,-1.492407299401432401e-02,1.145608803212740945e-01,2.572617271900847630e-02,-2.560211264808399945e-02,7.676794575652740038e-02,-9.350114741114145395e-03,-1.225768779501048948e-02,6.356225813681337655e-02,2.914601548007580631e-02,-8.636270566169711171e-02,4.117853812229881061e-02,7.897282487396009229e-03,1.160695907448312802e-01,-5.734464538414174237e-03,4.948233921986858880e-02,2.284745264671196249e-02,-7.872051199144819433e-02,-7.078177340680785745e-02,-3.665379343629040880e-03,-9.352544957185131291e-02,-1.681071801953961178e-02,-1.592293380586761158e-03,3.645288396610900372e-02,-3.444209186823263963e-02,-7.274633597446128475e-02,4.529841913195790243e-02,1.224665561895768584e-02,-2.283882575498970280e-02,7.075927911296508999e-02,-3.059092681355918275e-02
-5.172034686595939484e-02,2.371750758643227652e-02,2.861297580579198405e-02,-4.978559594759644075e-02,1.186433020370754668e-02,-2.568533395494754235e-02,-3.487655252651791077e-02,7.015033498546383028e-02,1.544881000304389185e-02,7.777775290554202192e-02,-5.439808115631419860e-02,-2.495780158417803749e-02,4.942763446803811328e-02,5.255463050274387232e-02,-6.385472618072582374e-02,1.204243251030648887e-01,4.505132928322728297e-02,3.164724258654815284e-03,-4.031993885528478878e-03,-1.358519985325862267e-02,-8.024164564314383019e-02,1.254041952197411207e-03,5.146510268381727926e-02,3.827371717138473850e-02,3.130828187046379163e-02,-4.005149966800121419e-02,7.271702473610115736e-02,-4.074331320871427825e-02,9.127616918007418201e-02,2.030158036319224327e-02,4.190685665886040301e-02,6.730116578653556891e-03,4.254094630897486094e-03,-9.662796293106200307e-03,5.899905248206287894e-02,8.746914579322124725e-03,7.832114729136563022e-03,-1.019187145073015693e-01,-3.824772268092309791e-03,8.927338454557028069e-02,-5.388876791559992635e-02,-1.007015818042809180e-01,1.117919381301734905e-01,-1.682350704978523683e-03,7.748388440395732879e-02,-1.064070674583504454e-02,1.122951143896094676e-02,-8.249706408495219301e-02,-5.835424726188694761e-02,-2.073646462540241694e-02,-1.715839055049984616e-02,-9.305271185733288153e-02,-2.077697595106549680e-02,-2.094330684346646515e-02,-3.353336050851165456e-03,6.175084054024408686e-02,-1.668454093898428039e-02,4.457961650818828558e-02,-1.111077493040632871e-02,5.903881534408080695e-02,2.693402905506746617e-02,8.341512559534322233e-03,-8.081445248199983777e-02,7.911755162828678842e-03
2.753846189545329781e-01,1.205236032752975313e-02,1.370326769321046079e-01,-1.378318139173761447e-01,-4.723163920626330392e-02,6.067883558415253925e-02,1.178174912631169274e-01,6.572272131463788303e-02,6.833846733198435663e-02,3.241279063399364613e-02,1.485388376585122516e-01,1.919797621004521448e-01,1.217925702433257651e-01,-1.090454260215180798e-01,-6.222067849804583523e-02,2.576069885319763955e-02,5.460392810630554372e-02,-1.095786910696555649e-02,3.567769781593059519e-02,-1.159816097089200887e-02,3.299733505913671899e-02,2.367628799828677411e-01,-8.753854721634415914e-02,-8.574086652947050802e-02,1.582731902337201624e-01,6.438709710478075776e-02,9.592030622805149120e-02,1.992937154244442677e-01,-2.303505526649788915e-01,-4.279109097592400518e-02,1.638933495053029599e-01,-8.626672909532732969e-02,1.322879239766858728e-01,-4.072938550982601463e-02,-5.270688402809588918e-02,-8.205556132623539889e-02,-1.781792706839797069e-01,7.386530894303058870e-02,7.390308483075015700e-02,-5.843528275641449860e-02,1.948521011456524343e-01,1.092912971272274464e-01,-1.076070802964347872e-01,-1.249598228465073207e-01,6.912418502674276544e-02,5.739287365169542209e-03,-8.778345442954738065e-02,-4.674939922167266337e-02,-1.984138730064617315e-02,-2.765553333285984336e-02,4.266568093309675621e-04,2.179742612879022670e-02,1.157035692265084431e-01,-3.414158291792437905e-02,-4.309806176014104040e-02,-3.657396174572367931e-02,1.735034296311127600e-02,-6.241551182007738785e-02,-1.176016224474226851e-01,-2.512980134878013347e-02,8.950625559537019396e-03,6.884253124171464677e-02,-1.257641224874521679e-01,3.258048787873706054e-02
1.482482630806774837e-01,3.037132703780096726e-02,1.657352713690972423e-01,-7.425885850154576029e-02,-5.606242263247850077e-02,-2.012734460230140854e-02,-1.790189720125236542e-02,-7.718233545310692993e-03,-8.836857285485445745e-02,-5.059429056591729923e-02,1.703999663500346262e-01,1.282331669229714588e-01,7.198553860033453378e-02,-1.317838850353023755e-02,-1.652305558289652587e-01,6.525199083999555505e-02,6.553863564253534571e-03,2.329877592564987693e-02,1.815257084767853482e-02,-1.322245101004623953e-02,-4.729938954326477069e-02,4.699579915960883786e-02,1.364443199086535705e-02,-1.259733045243476568e-01,7.671844437873213962e-02,-8.537825537475209059e-02,-3.105883786573005595e-02,1.868975570517355800e-01,-6.131615900661850638e-03,2.289845526542811094e-01,-1.092797283916541011e-02,-7.538608321183670746e-02,-4.618450591774689307e-02,1.776584164509399100e-01,-5.303756147008505811e-02,-7.278131093962680875e-02,-3.129739230454799820e-02,-5.070413455990299689e-02,9.462553866774718603e-02,1.111287553291173680e-02,1.643847949577870726e-01,2.859407394194730251e-02,2.032156850639072615e-02,1.075224110418183769e-02,6.995904340497716145e-02,7.195430090343625518e-02,4.551647528356917577e-02,4.384309625719322312e-02,-3.379157788143921648e-02,7.549482512390721933e-02,2.166755776395753175e-01,6.385434782044523139e-02,6.973758027012337546e-02,3.629702606969568979e-02,5.627657408194120664e-02,-3.917015467086628483e-02,1.686918573415090994e-01,2.180345635364522305e-01,2.399670638141584988e-02,-5.308159741552068156e-02,1.163308992083103219e-03,-9.494916715569304277e-02,1.117917152198363330e-02,-7.750943036466734735e-03
4.068209010524771047e-02,5.768909777680168716e-02,-3.457319528726566799e-03,7.198165914801543663e-02,7.995653432870282462e-02,5.877126332696829686e-02,3.566333216458568434e-02,1.067624313431328881e-01,7.816312093556017360e-02,-1.872912419097129064e-02,-9.331733079093366967e-02,4.087886457962281589e-02,6.015056181311548983e-02,5.120374586529589239e-02,-6.769281135257146365e-02,-3.594892398312159176e-02,-1.174821894974258235e-01,3.927099346954645437e-02,-1.345758164066409961e-02,4.800514927539722282e-02,-1.321032761167713343e-01,-4.625124000859849593e-02,8.223620393103922566e-02,-7.290758865308827330e-02,1.808337291073659411e-02,-4.252493750403828904e-03,-1.130065128364608068e-01,3.720208723396243970e-04,1.799577241386663903e-02,-1.388134614297716618e-01,3.317005327813565135e-02,1.484107328680342452e-02,-2.140298400958624489e-02,-3.676243756899762183e-02,7.062871384900587524e-02,3.274666795812119363e-02,1.031290439455056530e-02,2.900847967508237563e-02,1.291187652598439588e-02,-2.851382300305813425e-02,3.501331113650077518e-03,7.048761035280257103e-02,5.379477125565692089e-03,6.487501400480279179e-02,1.043338445004183962e-01,-6.107676211865065846e-02,-3.500192660917805093e-02,3.594104799042353859e-02,3.757644597192526942e-02,-5.735805979059457188e-02,1.357157267946854651e-01,-3.678302271249704603e-02,-1.087096367075218555e-02,-7.186480248540381977e-02,7.585341213383260672e-02,4.403789745148666002e-02,-1.077322970138726715e-01,8.280543939326308334e-02,3.403612949234333801e-02,1.291096520614860854e-02,-5.485492842058106722e-02,1.018982384677025316e-01,2.388194029115290121e-02,1.341156439212059376e-02
2.207932870419662130e-01,6.226453302240566451e-02,-1.288394812307860626e-01,-2.068610023460631248e-02,5.420439666433714623e-03,-8.105486290991745224e-02,5.606624886518841305e-02,-1.966521683284628078e-02,-1.137575442795227439e-02,-8.648980525927154814e-03,3.853132884238652522e-02,1.214414476359453876e-01,-7.267093078579441034e-02,-5.581243590125770787e-02,2.466807278772316717e-02,6.345352668018376663e-02,8.833819586645921818e-02,-4.387808461424768172e-03,-1.122059949961127234e-01,6.064299031120545108e-02,5.938382081101482163e-02,-3.329755110101827870e-02,7.325155325782714555e-02,6.414235934165209152e-02,4.098916298008378582e-03,-1.168879066161373353e-01,8.970371693767824339e-02,-9.895996333825948787e-02,9.088892225492396781e-02,-3.043846059603549925e-02,1.340684979921993999e-03,-3.428205179304522759e-02,-5.472353093434321331e-02,-3.371013894034500386e-02,2.234404218409225332e-02,-1.231541605837691566e-01,-3.279706947156390412e-02,-4.100938556364986526e-02,1.643789199671818468e-01,-8.408492317277142802e-02,1.131648689130617530e-01,1.341984054353890787e-01,-1.079681698377297078e-01,1.692534205521833372e-03,-1.241685657663343240e-01,7.368233755833503151e-02,-9.299106239398688412e-02,8.291157157959055946e-02,-7.188951713488565820e-02,6.505498488206011565e-02,-2.672609936683291096e-02,-1.167559069468469997e-02,2.839734674436586795e-02,1.177064296312689967e-01,1.199601205201777376e-01,4.364580993544540238e-02,-1.522369736424105703e-02,4.640883117740936085e-03,7.697878290431299508e-02,-2.264358061707292744e-02,-1.404962482092445841e-01,1.031061921156755379e-01,2.466799898857159265e-02,7.894962571646407801e-02
2.759956778712915892e-01,-8.178386244094010271e-02,-3.706583272189201139e-02,-2.243320616890266336e-02,1.553103048638924087e-02,8.632338025670772963e-02,-4.300232358295803803e-02,-1.394622428659556858e-02,1.406285794946378898e-01,3.795990613995225971e-02,-3.156847164828737590e-02,6.320864285801228166e-02,-7.108583000747377423e-02,4.761412916241584969e-02,-9.808748447335298437e-02,7.179272542528072898e-02,-9.246742269572183481e-02,-5.390822252478522092e-02,2.713201424040413354e-02,-9.421201967293067747e-02,3.174750708605916794e-02,-6.709673210542345390e-02,-1.541347056255894590e-02,-7.820643145868581836e-02,8.034405033473018820e-02,-3.373919792191375916e-02,-4.854935683469269875e-02,-2.106561097711768735e-02,-2.853771363836360084e-02,-3.963960931757209288e-02,-3.537443738417272304e-02,-2.894044290801888741e-01,5.941982712433383634e-02,6.533724569502119550e-02,-8.505506248453190143e-02,1.142619879095765761e-01,-8.124552611988840323e-02,3.697896362008156607e-02,1.011818439348519533e-01,-2.347960362849642671e-02,4.650490015988881232e-02,-3.861514838945405426e-02,3.071819999149668756e-03,8.822938007871597432e-02,-1.689265772270371890e-01,-4.289563026144241342e-02,1.226780545713129777e-02,-1.906010708267618162e-02,-1.997122245736607585e-02,9.808885542561697479e-02,-7.189685625700431050e-03,-7.854344931791407136e-02,2.036555122745402069e-01,-3.141471700520487992e-02,9.892611202949937177e-02,6.386103340003262963e-02,-1.337053638761678820e-01,-4.797622930113931011e-02,-1.471049800261841831e-02,-4.196239104019980348e-02,3.697473027460677908e-02,5.575565486759054973e-02,-1.326562228450552453e-02,1.867902152188691545e-01
-4.375430126904493455e-02,1.051890657000122270e-01,6.345554056857907743e-02,5.812921414114942398e-02,-4.842329510668575386e-03,3.191875961069290391e-02,-3.028031427744497239e-02,9.508008972618417487e-02,3.615231019606290203e-02,7.570918598396743013e-03,1.051158422479587379e-02,8.483989425305935028e-02,4.150271717952866424e-02,3.167191905591119075e-05,-7.683478166456030045e-02,-5.444444094395579567e-03,-6.654810463336853499e-02,-8.998739662169734366e-02,3.068494528974434823e-02,1.692603089324174609e-02,-3.411110648940706563e-02,4.532761020773044131e-02,6.704499087247740331e-03,-3.817521178967201584e-02,3.462774831421246841e-02,-7.489884582055815476e-02,-8.808942819466187776e-03,2.097229041183144502e-02,9.732148344585278207e-03,-2.029036668372257574e-02,-1.365213443218009186e-02,-2.822408456717871716e-02,1.241018856130211194e-03,2.449380996808175892e-02,-3.559938830802902160e-02,7.039839870345709905e-02,6.249752876882616603e-02,-3.611737706292025146e-02,7.151036147269500265e-02,5.754235899324370955e-03,-1.378365370140095247e-01,1.583095722978252601e-02,-1.758753614996519735e-02,1.745775990170243125e-02,-9.554973057357024624e-02,-6.450894442218634006e-02,1.210693363598023056e-02,-7.532587541367369299e-02,1.667414010510878328e-02,2.224398611699106559e-03,1.021897032038633774e-01,7.702989520421882341e-02,4.684752452140111129e-02,6.653519353260996944e-03,5.202746773119329426e-02,-9.405552009956838488e-02,4.602815695451874939e-02,-6.396932236917622638e-02,-4.423328178107176212e-02,-5.777369790278429583e-03,-3.874025037717054865e-02,4.860392283826000387e-02,-3.815805729183473910e-02,1.132954980693709826e-02
-7.352939215911347137e-02,1.297460549755473369e-01,-2.006357591172525448e-02,-9.298914945993277947e-02,3.536447256308681425e-02,1.068259162352791086e-01,-2.410535695894482425e-02,3.676298674725695520e-02,4.501489297083755697e-02,-5.027476369182360544e-02,-3.274429363890555417e-02,6.402880562338372772e-02,1.138513266389937217e-01,-1.215265588078666692e-01,1.693610474811006045e-02,4.806077635716349272e-02,7.614797264820308276e-02,-1.358273562614684127e-01,-7.817942679537011330e-02,2.136346153114870861e-02,-5.753017930149214448e-02,-9.295259814788213448e-02,1.263973663815027570e-01,-7.025024009596669838e-02,2.491667178937235771e-01,1.215513647293923472e-01,-8.791949692840746178e-02,-1.171408224404802828e-01,-6.398470227983779623e-02,-6.733177618231622752e-02,-5.394554358317660281e-02,1.142961098231857625e-01,-2.521403725126662027e-02,2.165573452620921796e-02,-1.839458842874500816e-02,-1.162971377001953688e-01,5.075355741490704398e-02,-4.700421720621551086e-02,1.185839902776068683e-01,-1.094876751908969818e-02,4.288974069846811926e-02,-7.063928894140880654e-02,-9.938103873538042463e-03,-4.908840777319822823e-02,-3.310690041155317509e-02,-5.275198123347128558e-03,-2.963796639786601614e-02,1.019559665235465762e-01,-2.731419064213589515e-02,5.754846717305241860e-02,1.248152288565291673e-01,1.996099051887931242e-02,1.889027670047465357e-01,6.502822477601392925e-02,-2.012340507735126682e-01,-5.181580962251117889e-02,-3.571762487857370327e-02,-7.445531790083287360e-02,1.663867911590396348e-02,-1.727306688065257181e-02,-3.315717393305264715e-02,1.212264318191151047e-01,3.181657506897370841e-02,1.307143860952810488e-01
-8.353431372603900562e-03,-1.559034634129297971e-02,5.710801947240228688e-02,-4.142002775901385339e-03,3.625843337249694959e-02,-3.043675173959985766e-03,-1.503522785643124013e-02,1.048789351823904009e-01,-3.474362900305497798e-02,-1.148495912872204011e-01,-1.137418679495196400e-01,-1.091179431284893149e-02,-2.004141716982218296e-02,5.188630447241391989e-03,-3.443452630552277551e-03,5.630338535815071488e-02,-2.031206422421726401e-02,-6.149556891654477803e-02,-1.530197727932890439e-01,-3.289041742104547444e-02,-5.680895376204562336e-02,-4.361720589477615512e-02,-3.329384621922176074e-02,-3.204926616812400070e-02,-8.455291112094096007e-02,2.272011388799249562e-02,1.982376399142274717e-02,-1.860939293794822494e-02,-6.424613068150097916e-02,-6.656523921334227267e-02,-2.642674052029368725e-02,-4.749670588001744624e-03,5.592016926274086946e-02,4.617320817791335796e-02,4.716827077416994862e-02,-4.007890995154856154e-03,-7.810933207117229382e-02,-8.524584931736904625e-02,1.133637104225705822e-01,5.221867378239175572e-02,-1.036724055025581119e-02,-2.325412155294860964e-02,-6.252030406894847070e-02,5.782661302247316115e-02,-1.092272034290453497e-01,3.618518662241353157e-02,-1.732613241045529232e-02,-2.920164002402017567e-02,-4.551763900497472759e-02,2.094043893769904213e-02,-1.261847258322581211e-01,-1.241708078940053153e-02,1.694163174129442381e-02,-7.445049945926590640e-02,-2.774044714464832945e-02,-3.980383648438955146e-02,-3.120063629444243952e-02,7.352437490389487906e-02,1.633605806987816281e-02,-9.356238098040642673e-03,7.559116590161037152e-02,-1.510293981794423937e-02,-7.125117635122177329e-02,-8.654562433919753273e-02
1.173550603625241918e-02,-8.444727591181264148e-02,-1.155080872270042858e-01,7.913973310203978317e-02,-3.553464446805341308e-04,2.085729338286870793e-02,-1.991465282703251960e-01,7.107422973422390655e-02,1.266036383850024649e-01,-3.866738749988579693e-02,4.355501977721844276e-02,3.698844712024002696e-02,1.172652099492625805e-01,6.085978281458348516e-02,-5.905455778126237482e-02,5.007198282883987273e-02,-2.242161519215223747e-02,-4.518301068397814757e-02,-2.013773637387238080e-01,5.242290116025581648e-02,4.810046165306478688e-02,-3.428543034711448168e-01,1.777141207705343062e-01,-1.705684609496539716e-02,-6.091902378974434901e-02,-2.403793552133698733e-02,-9.437680369585733919e-02,-2.173543305267499476e-02,9.005183489004525699e-02,-1.140202544455548861e-01,2.300025111555328849e-02,1.633388401403237933e-01,-7.689556322622602413e-02,3.922951348318085701e-02,-1.338601878547112101e-01,-1.590770436544718947e-01,8.870692121932477470e-02,-8.695054625174192600e-03,-9.029806566574885562e-02,3.272348615095165697e-02,4.675929422260832052e-02,-1.775697428520409682e-01,-1.748451076686581562e-02,9.569192354061957506e-02,-8.075791195783284249e-02,-6.462440324473631148e-02,-1.331580853183433021e-02,9.262496176910550716e-02,-1.347975240405095698e-01,-3.337632635940759179e-02,2.160215152406208816e-01,3.918531380475660797e-02,1.189823286303520605e-01,2.019088753722042273e-01,-5.770224810192830373e-02,-2.530381052858702781e-02,1.840944154018380602e-02,-5.012829255007494877e-02,1.975138489097752817e-02,-9.000805704196023285e-03,5.634405390902916255e-02,7.482023828126554976e-02,6.983453434700982732e-02,1.896711143479368755e-01
-1.147467140078982234e-01,-2.127513236900614030e-02,-5.661589802477973686e-03,2.987038113960656729e-02,2.163918706748459500e-02,-1.866547939235689915e-02,-6.388872488823994777e-02,-3.217929006683978299e-02,-9.963899569076173357e-02,-1.653131737072901369e-02,5.896999732592177190e-02,-4.871516008357074101e-02,8.195581938472844968e-03,1.828421829452996084e-02,-7.416840003446656393e-02,1.464537245680051086e-02,-3.065325584954166002e-02,3.747029900845635225e-02,6.008391068047894829e-02,5.050508856136481928e-02,-2.071180662213937401e-02,-3.198752712900036071e-02,4.579846879596655151e-02,6.153359777066205044e-02,1.300799009063657308e-01,1.424810633242793931e-02,3.905042407027248252e-02,1.358799295960820032e-02,-2.024219860951484776e-02,1.200333531570249301e-01,-1.399391746447174179e-01,4.820333240694860827e-02,1.192442169948338543e-01,-9.373388341880944941e-02,-3.540732799873375081e-02,-2.206239222708387959e-02,-3.944741777946420697e-02,-1.135803687104617113e-02,3.065151609950254527e-02,-9.419174428468178248e-03,-1.667028392365533726e-02,-1.453910123182770159e-02,3.946196994707016487e-02,5.834015147696416936e-02,3.906254048088051573e-02,2.088701558184221166e-02,-3.103841299825649616e-02,-7.855533393875703541e-02,1.475318688312572679e-02,-9.970968404645239036e-02,3.584844828652392762e-02,4.324926970437138751e-02,1.124782657909844663e-01,1.052269395916449746e-01,-1.103836751810884226e-01,-4.590301644021264893e-02,-2.414258101724109373e-02,7.210816396046235144e-02,3.348321733103497982e-02,1.347934942592909635e-01,7.333455041605269065e-02,-2.229673353907387495e-02,9.095545932901414124e-03,-1.981951682612131255e-02
-1.762474786796891513e-01,-1.293216148925827730e-02,-1.595385292030510882e-01,-2.820318392622390632e-02,1.084252398819750690e-01,-7.063706536087849264e-02,-8.208826618864878411e-03,-1.091115845433829890e-01,-1.088110601480491157e-01,-8.534671573353624918e-02,-7.311937291296008445e-02,-5.101368992537106545e-02,-2.471033066703715378e-02,-2.709313085158030279e-02,3.927230511314062228e-02,9.367684631585016311e-03,1.437040407210148918e-01,1.228530362931132686e-01,-1.403508711867932149e-02,-1.159736124614052337e-02,-7.719219866494850257e-02,-1.028742846892479051e-01,2.462787029760110658e-01,5.810914545151582566e-02,3.077346650895511626e-01,-7.037860027464063091e-03,-1.213305929753486084e-01,-1.710668729235911845e-01,-2.932415999638257956e-02,1.010143139537155177e-01,5.448544629989490046e-02,5.185412966193538725e-02,1.195230465166663703e-01,-4.028831887931525607e-02,1.450790192486598185e-01,-1.100032546434631386e-01,2.499260539382744672e-01,2.233548993462568591e-02,9.523467632944239425e-02,-6.205180870832655363e-03,1.346249709664269212e-01,-9.733513533253142225e-02,-4.864224762810561570e-02,2.934922728895297261e-01,-1.098839933946349073e-01,-8.202361623821296729e-03,-6.676360081568089022e-02,4.366471806571576436e-02,2.642304727669091829e-02,-4.914321526002074503e-02,-2.646467335550872768e-02,-1.143098802262746544e-02,5.294978935810904647e-02,2.730147315666719976e-01,-8.091236501963559868e-02,9.594204830120475758e-02,-3.322197859846309862e-03,1.195314188867161037e-01,1.484180063193976662e-01,7.454153231620472275e-02,3.222683390797004277e-02,-3.187831857529109525e-02,-8.163974056056952366e-02,-1.142166923897374453e-01
1.440594638238731351e-01,-1.914721006410672610e-01,5.931601909349752677e-02,-5.809551313713384735e-02,-1.655410224721164392e-01,-1.008571665893354813e-01,-9.907471614434502916e-02,2.603999920056004544e-02,-8.796725660228649213e-02,2.830923381446006238e-03,1.616039046298506088e-01,-5.837622879773296525e-02,-3.646079553602655371e-02,1.141019951345839667e-01,5.492352485869145956e-02,2.941889154340236040e-02,-4.335220177859151064e-02,-1.515666285032687965e-02,2.440300740380942426e-02,4.766660846981376023e-04,-3.378327607862049303e-02,-1.609051990976682611e-01,-1.071466427977218611e-01,-1.385323373542217580e-02,-3.903214490098527029e-02,-4.473892727633483994e-03,4.287288638118243872e-02,1.457962301030613361e-01,9.947782824938866675e-02,1.467158349027587461e-01,9.107001109345554124e-02,-9.041534455574633256e-02,-1.394332609703186343e-01,3.458017493468657638e-02,-1.973959807846875913e-01,-1.960168819710602917e-01,-1.219973015291827140e-01,-1.161930701494589685e-01,3.297285142875238523e-02,-5.383426215623545591e-02,2.010269713083802923e-01,-1.017572830106343584e-01,-1.366298330192803126e-02,-5.751058476542221520e-02,-8.415109771878698242e-02,-3.369449091033246274e-02,9.447962346223560959e-03,-1.333083876506080401e-01,2.187030275115114247e-02,3.572154398271643657e-03,1.972040273711610225e-01,-9.058174988781871051e-02,8.043634475976535469e-02,-8.993508151065383177e-03,6.980374570725862704e-02,4.866563706694278929e-02,1.483195581607432700e-01,-7.283498246345089522e-02,-3.785648486525153983e-02,6.544225210329907005e-02,-6.844294710897690093e-02,2.227010455524966806e-02,4.025746029550621857e-02,1.880511124767060213e-02
-1.298815236003996246e-02,1.479802496939828377e-02,1.157775231982793168e-02,3.124054942973942747e-02,-4.131910006127829244e-02,6.303773535604608770e-03,-2.524750072491348599e-02,3.860696742593981712e-02,-4.228303680221343064e-02,-2.266932566310693800e-02,-7.956544185746615427e-03,-5.154480926791513845e-02,2.849829735376904066e-02,6.705607811199207346e-02,6.581385934252999281e-02,1.465989221952570913e-02,-4.414014378368135566e-02,-1.675241644325298207e-02,-5.189804726277836427e-02,-9.342265911690692329e-03,-4.845132540632330481e-02,1.784101815971924146e-02,-5.148571149596584129e-02,-1.250127033447829585e-02,4.560542162753305345e-02,4.343878541027708373e-02,2.828484262390155990e-02,-1.079728881597251111e-01,2.244843422901800060e-04,-2.400160258903144203e-02,-9.755513353970091117e-02,-7.839740122425374602e-02,-3.909907201236061808e-02,-3.585339461285987073e-02,3.050306141177795000e-02,-7.583511157042224782e-02,-3.458673432984983587e-02,-4.062995247955537154e-02,-4.527128801567471827e-02,-5.050603731033998650e-02,9.170459417107561240e-02,6.542989676217920991e-02,-6.051923328829711402e-02,-6.409654017242335904e-03,-1.841115267261289254e-02,-1.157426890404558012e-01,-1.409668544191791661e-02,2.941435620220512331e-02,-2.723733197768524530e-02,2.590419208146170146e-02,5.526562579540809234e-02,4.873511932407763314e-02,1.090957851132276640e-01,3.332183500034335832e-02,7.915621901362061841e-02,-5.945485958947340638e-02,4.642300072829401436e-02,-3.377695757679464311e-02,-3.952231423505949554e-02,1.355692155416367631e-02,2.262413816546093772e-03,-9.885653601576080071e-04,-1.004530029336401231e-01,4.861875899263240486e-02
6.690596409862288596e-02,2.516470913940927270e-02,8.563074070048522918e-04,1.522247190369718228e-01,3.318545322980887002e-02,-8.781494625783990704e-02,6.643211128331243109e-02,4.253027880785324732e-02,-1.201717307347239562e-02,5.176479605387400429e-02,-4.146280344202292120e-03,-1.642915741564490717e-02,-3.101667922505293648e-02,-6.165666045580487503e-02,-4.494060039378357588e-03,1.108580456604762593e-01,-4.570911508749422869e-02,5.762724490661822602e-02,5.951097974550965258e-02,-3.138661760355544728e-02,-7.206471408970160919e-02,-5.188533025384554215e-02,-8.329826034234195931e-02,3.993523812086950328e-03,-1.212276915419558676e-01,-3.972779672040555043e-02,7.098600097884837090e-02,-1.293770138829459550e-02,1.479506797392819706e-02,1.066920017887398459e-01,9.258945450535460697e-02,7.880313277265210692e-02,-8.673870312395949578e-02,1.936524125588635903e-01,1.096382010696724668e-01,2.861965233426579797e-02,4.009871027583310904e-02,-3.814058873839339114e-02,-1.487213259855171554e-01,3.996807289908175381e-02,1.121826177792088763e-01,-2.646239705213705370e-02,-2.609211006287859291e-02,-8.153299212335021751e-02,5.984995637617485098e-02,-3.351855170555378266e-02,-1.641801252064318010e-04,-7.675142324382913661e-02,-1.072990664611334216e-01,2.788746796202012934e-01,7.425294685974358211e-02,3.927308074243710673e-02,-1.094730846185614365e-01,1.054251135279220541e-01,8.334729976913178573e-02,2.296829921988666895e-02,-5.577027766325542285e-02,-2.878379963013015172e-02,4.681315385991547534e-02,-8.471086742126142377e-02,7.217774461416660847e-02,1.628493189934355698e-02,-5.655919264047109402e-02,1.600216295341029202e-02
1.401762963499305070e-01,5.871311371963207348e-02,-4.182239783115682466e-03,-1.341146188829133445e-01,-1.851876193319689293e-02,-6.556679336804495037e-03,1.118170885102527934e-01,1.757293383649007057e-02,-2.995464937382626841e-02,2.924863630223248356e-02,-9.612370158343670756e-02,6.364402027515554672e-02,1.438896662361172918e-01,-1.706132107937928175e-02,6.179424586866074515e-02,-4.940719798486914276e-03,4.784487257584891379e-02,7.078096399779590375e-02,-4.573628612307110985e-02,-1.524252040162929304e-02,2.243091239738606579e-02,6.293636441854928709e-02,7.064036727153787804e-03,-2.835469476260255722e-02,8.451088825071170763e-02,1.302315326378846328e-03,-1.650671324319561914e-02,7.188856525763621941e-02,-1.110359580257304080e-01,4.554256876173126689e-03,-2.034357462543167488e-02,-9.478368196711969840e-02,4.518826674392133202e-02,-3.216895770060717447e-02,1.541514178271314803e-02,9.287224217070441656e-02,8.454853337358933518e-02,2.389765040604610591e-02,-2.766805492482464143e-02,8.892031089111197828e-02,1.224926604310176519e-02,-9.333898918525050659e-02,4.563531090331691270e-02,3.429343208744684013e-02,7.460015018280941393e-03,-6.140587130439024294e-02,-9.081948026427595633e-02,-5.789926649473224260e-03,4.390441882420249159e-02,-2.004700904736120559e-01,-7.943326631031115415e-02,1.098945266040670526e-01,1.150822100247750335e-01,8.162508445138393076e-02,-1.772408852522655565e-02,-3.932472607381470864e-02,-1.177042954309946432e-01,-6.245369973527231666e-02,4.092923725157959769e-02,1.003041250376933702e-01,1.063497434148799325e-01,-6.561364564375479769e-02,-4.632743587695765941e-02,-1.928470257119057273e-04
2.295667745333443074e-02,4.420969949624594525e-02,-5.784802742485532084e-02,3.334240763180758294e-02,-1.088121222844694487e-02,-1.132415491504878621e-02,-1.247463112193394619e-01,1.132115289657252555e-01,4.127310312055552932e-02,-1.927913622324348847e-02,-4.556932611719254067e-02,-3.162288786191282119e-02,-1.181329068955233597e-02,1.048327310932559847e-01,7.545364293236136999e-02,-4.994840855141338687e-02,1.466757997859873333e-02,7.171295033554077325e-02,2.950198426917878536e-02,8.167963346904184851e-02,2.229778920510003606e-02,2.605073472102985028e-03,-1.292732339417826393e-01,5.409107772548104459e-02,-6.352057639689137614e-02,8.189950196119269443e-02,2.263620709114736243e-02,6.939036329572331741e-02,2.072090235533233932e-02,-3.213059154194057142e-03,-1.014365641143607881e-02,-1.782361011392968875e-02,-4.641104312483237959e-02,4.882696057951847746e-02,-1.602754975579380181e-01,-7.293812017864528818e-02,5.090237854604580392e-02,-6.564571742957350797e-02,9.819704002461748793e-02,1.543605865345710204e-01,1.973360597267731151e-02,-1.646158181718292753e-03,-1.083336512078630492e-01,-2.485041641567326334e-02,4.215633170534189428e-02,-1.210296156057627005e-02,1.206622812304062181e-01,2.843849507675379890e-02,-5.482657844332034652e-02,4.998976134692304646e-02,-2.186651306953467377e-02,-2.953550127660970609e-02,3.053860703519870393e-02,-3.055629698315288564e-02,3.388481546335918998e-02,-3.506383974455415387e-02,6.075520733939339391e-02,1.716745717737409426e-03,-2.254617925825082303e-02,-9.184168019505704883e-02,-1.708498618793345475e-03,4.068994320108139384e-02,-6.423643481695520685e-02,-1.701504084197546021e-02
-1.333260532790921798e-02,-4.260913430846259456e-04,5.982394974213865735e-02,6.966905504327850114e-03,-7.815327209145984944e-02,-5.283755175154851783e-03,2.111739703567476131e-02,4.428714415377264790e-02,1.380858391513921646e-01,-3.953639888390872437e-02,-6.169563078233107623e-02,-1.733040638390086763e-01,2.202096347821119182e-01,2.557544130416819148e-02,7.465018039395161960e-03,6.373252162774067919e-02,4.704092044578660203e-02,-5.060327857755118203e-02,-4.592555821467676769e-02,-1.053306345789332132e-01,-5.134148688730262589e-02,-8.199046088002860666e-02,1.587423726533893631e-01,4.887804640126778427e-02,8.478889948260129317e-02,6.216763215198438386e-02,-1.498111586214132818e-01,-4.167936902077572225e-02,9.515599546920434915e-02,-1.186409476121687290e-01,-3.650547328325785042e-03,1.741200335357969142e-01,-3.068996740171831689e-02,8.386602271755433380e-02,3.945575143969204390e-02,1.824481252882174595e-02,-4.804296261705898879e-02,-7.023153483777969108e-02,6.394236983263552367e-03,-9.626553516004465738e-02,-3.696794876103252914e-02,-1.045044804848381387e-01,6.002956455448406337e-02,2.009276558871204987e-02,-7.982487777819746722e-02,-3.858601373734035084e-02,9.383731062911679355e-02,-5.337803035100272681e-02,3.470199796375464385e-02,1.043962780539520740e-01,-5.268443865833248238e-03,-1.128976937029111879e-02,2.076940628891273122e-02,9.097833261004172056e-02,-5.285503040946265552e-02,9.912877538366234031e-02,1.337962829535995976e-02,-9.050281684097594148e-02,2.975260917840468269e-02,-6.494078016664582564e-02,1.413742117579152580e-01,4.763734307955937164e-02,-1.447457777242995014e-01,1.103846062345247014e-01
1.710444529301844568e-02,-2.053380710847380747e-02,-3.786462004753175098e-02,-1.839081340444148616e-02,2.881423779362746532e-02,2.234476646849557768e-02,-7.137020319641573796e-02,3.391929673704677933e-02,3.459525308884674102e-03,4.012127679675187714e-02,-2.734338493854883770e-02,9.452068479234995713e-02,-1.460195785440690230e-01,-5.440064388099101998e-03,-5.016198332140302946e-02,-6.317596009741610619e-02,-1.197328022714350820e-02,-1.605972705242181969e-02,3.075898128709086271e-02,8.771277468622788731e-02,6.474800395353559612e-02,8.182048159705845869e-02,-2.170428877926541475e-02,-2.230659813972981145e-02,-5.368917204225973072e-02,1.760608946318652779e-01,-3.666205490143488455e-02,4.062487256397734336e-02,-3.483538639405705465e-03,9.415988537003244785e-02,-5.282313465003878744e-02,9.489840710990241068e-02,-2.160248448444013550e-02,-3.126258533837374121e-02,8.948536694964249116e-04,-9.496356721943689794e-03,1.367445062746414780e-02,3.199597244776660604e-02,2.405449068016048998e-03,1.935329325648622867e-02,1.347976447748295281e-01,-1.153139630985744457e-02,-3.088574709151828759e-02,-4.900673799563168287e-02,8.181046896649855904e-02,-3.313068861425734479e-02,6.254348548011315345e-02,-9.778103013879771432e-02,3.192282804195007567e-02,-5.852342040853750031e-03,-2.204550139543625525e-02,-1.595575196036364551e-01,-3.960003213597661220e-02,-3.351413954478119940e-03,5.433511896367237276e-02,-1.866481447808027855e-02,7.882900066305829900e-02,3.072808529958619833e-02,1.207642798051094812e-01,-2.928392211742803647e-02,2.157603127975843069e-02,4.976055939649778187e-02,2.632681024533822453e-02,-1.158758332454499530e-02
-1.846212667983422248e-02,-6.494813180629064112e-03,-2.424128492268660517e-03,9.218380931196572259e-02,-2.686604260164788746e-02,-6.338100279615395405e-02,1.043419666978501331e-01,1.154167706176559005e-01,-5.643813705669259440e-02,5.927898135961740672e-02,5.802131800099543518e-02,5.488885549763480864e-02,4.815303981718763865e-02,-1.009278523518118698e-01,6.666743598464078269e-02,-7.030355694572622272e-02,1.045606752018408553e-01,4.718225067795920463e-02,-4.967096717066352835e-02,1.997286527543740055e-03,-3.673984639453818819e-03,-2.554302051082353933e-02,8.918907547159175830e-02,1.581810791551624407e-02,3.339275993777469920e-02,1.870687064768022326e-03,2.054968214425137440e-02,1.112340575092804346e-01,6.416051760559404737e-02,-7.952600234284706859e-02,1.111831241137297213e-02,-3.400030068564958031e-03,1.047312717502695695e-01,-6.337087276199142305e-02,7.063409234263713643e-02,-4.275949062250362226e-02,1.769941826730207085e-02,-1.856653396963561797e-02,1.268974377826424284e-02,-1.525377310967517865e-02,-8.302346280026740022e-02,6.374730047989472792e-02,-6.021999476836335276e-03,6.457023739190381750e-02,-6.372789529767566852e-02,-1.012630314983554852e-01,-6.208785690440943306e-02,3.120747776808639653e-03,-4.645710792587108562e-02,-7.377622303736428022e-02,-4.073402560516420357e-02,-3.420782016837890273e-03,4.789411594376737080e-02,-7.854937500725578392e-02,1.018842594592621192e-01,1.310460451022944610e-02,-9.246383409766101638e-03,-3.947363576324712520e-03,1.957929468219575054e-04,3.471355587060301340e-02,2.479558392197162009e-02,6.623336647332436766e-02,-5.482691134820916884e-02,-1.778992892678596741e-02
2.995462675908124994e-03,4.855227742966036937e-03,7.940079882626516206e-02,-6.710508993609920481e-02,-5.187654585730033102e-02,1.278526246010440459e-02,2.900668043097603260e-02,2.026731108570901940e-02,-6.022219695557608221e-02,-4.150052246967692038e-02,9.149623294153409747e-02,6.703641323911493748e-03,7.622577680164720204e-02,-4.046841505410582462e-02,3.351884326367764178e-02,-5.330855498407171406e-02,5.492404770479041021e-02,-7.456076255584034862e-02,6.379132035895783773e-03,-5.366523697492714406e-02,1.520151841252074740e-02,2.037630473545377074e-01,-3.122999166362406404e-02,-1.439722573425138499e-02,1.181639859425461098e-01,5.889365484535606654e-02,-7.636666608516672061e-02,1.616030070878790026e-01,2.456018080588773939e-02,4.865412200201311987e-02,-6.407474729178290473e-02,-1.167575967910020329e-01,-5.525708314958486383e-02,-6.805790402337745515e-02,1.067622768041752018e-01,-1.704232507262536458e-02,-5.653279972996511082e-02,1.666076403404227052e-02,3.269687570713852159e-02,-4.144021804657639467e-03,6.079186135197513913e-02,1.253780342585223339e-03,-1.094081793706616068e-01,-2.045450652010971371e-01,-6.307325131231063253e-03,8.346977508009283120e-02,-1.072746545204384186e-02,-2.951335552266361531e-02,1.217283058182563049e-01,-8.537897180922740525e-02,5.356741205562790681e-03,-6.400970538282060862e-02,5.820980318688991073e-02,-1.366265503302914186e-01,6.596523384197962303e-02,-1.266580141367610601e-01,1.434297428460662438e-01,3.825234389830552226e-03,1.628264335900185544e-02,2.542044436898097462e-02,-5.013261397517911055e-02,5.117686785465518778e-02,1.540466757310611501e-01,-2.296077773523589813e-02
7.776484289770940750e-02,7.161972105115940734e-02,-4.183512677279727435e-03,-1.027503235384692321e-01,-3.049026002965702156e-02,-2.982777291016659726e-02,6.620377114911962790e-02,-1.434399895455817364e-01,8.101092213444495427e-02,-9.689518684180680255e-03,-2.091868964759016347e-01,-1.079767064098056395e-01,-2.719165198291087493e-02,-9.006431985608590041e-02,6.359936948523381428e-02,-5.582681585604806068e-02,-8.518675148953188184e-03,-6.719927998700041261e-02,-7.630805409623596380e-02,-2.077995873580652450e-02,-7.485991789465469559e-02,2.418766785930564697e-02,-2.807880424952787293e-02,-3.533488743839177659e-02,1.080032264847585917e-02,1.121029086542002229e-01,8.037370402808416414e-02,-6.071816561668286205e-02,-1.159640760856219671e-01,9.560586616903451324e-03,3.007943726508336205e-02,-1.628320296368200026e-01,3.775527417538351860e-02,8.102237419394892060e-02,7.016894469062921746e-02,9.273947234124030325e-02,1.843734529808186903e-02,-2.399200549348917341e-02,-3.791427589793103931e-02,3.915144555060262599e-02,-1.211448105786891299e-01,5.938265654416481805e-03,7.433713343178594002e-02,-4.239402368844231994e-02,-7.158106087369406345e-02,3.053221533399539875e-03,1.327972038494154849e-01,-6.257293787260538587e-02,5.803990285615911321e-02,1.103293410624796300e-02,6.290085921794753322e-03,1.556687502257965150e-01,7.822418380596499188e-02,-2.477465643009424123e-01,-4.204477678227584725e-02,1.240321365447495140e-02,-1.086766724904213721e-01,-9.801458244474645087e-02,-5.198583931674843200e-02,-3.915276561203855088e-02,4.675134537721004069e-02,-2.515720453067006937e-02,1.244816528627025465e-01,-9.413300838712057583e-03
2.181835638566644864e-01,1.225852504556247842e-03,-3.854956310176683998e-02,1.712612933501901080e-01,3.904873204157009725e-02,-3.380085316560572147e-03,2.135259860893988781e-01,-1.043730835756164071e-01,2.052862126609973359e-01,-1.932036740593357513e-03,4.848876036330471151e-02,-3.753478004690291754e-03,2.034824405185417240e-01,-6.515016670857418091e-02,-1.148409765679790501e-01,-1.637188137946316707e-02,1.209694288821256021e-02,-1.228982768752169691e-01,-1.638581075222181604e-01,1.854345293806780939e-02,2.129472104291088574e-02,1.078084348000241249e-01,2.459631470416143162e-02,3.765964353126444175e-02,-5.019967896023146484e-03,9.115358952691400563e-02,-7.531489310211897381e-02,-5.869482705531038624e-02,-9.642760835748996617e-02,1.085589699068271845e-02,-1.485743257413927980e-02,-1.835082119831387207e-02,-2.025363871321291254e-01,1.603016199147040133e-01,-4.860129369779586650e-02,6.704575676055142541e-02,-7.688183408611870551e-02,-2.538785690801840730e-02,-1.234336097196721826e-01,5.637372801482483375e-02,9.177271814594491206e-02,5.679446424239766034e-02,-7.139313598307582553e-02,2.006415045833593799e-02,1.091654682082210531e-01,-9.421730541491055155e-02,-9.324047042021359200e-02,-5.623628202895425421e-02,-7.677174001897939248e-02,1.438545034772635844e-01,1.393259779983945304e-02,-5.307111852404503005e-02,-1.052113177249121012e-01,1.125207969741797293e-01,-8.981782761736605003e-02,9.604723359908418079e-02,-1.186121808194013222e-01,6.604083802445544216e-02,1.896392429978979374e-02,6.175626530361195965e-02,1.686175124846698778e-02,-3.100635655976348784e-03,2.229817318288573533e-02,2.976988195373205318e-02
1.555945492061657637e-02,-1.285653343124186151e-02,6.592370816532019256e-03,9.043572051701777303e-02,1.128856622829493700e-01,-9.348531814907560036e-03,-4.703154460033969440e-03,-3.015258728905069116e-02,4.755111510977875350e-02,3.345916731026495755e-02,1.024266677352408256e-01,-1.311036885908878867e-02,6.367092870236483459e-02,-1.006972424445238927e-02,3.531613163338292311e-02,3.565145121582716237e-02,1.122717822792519519e-02,2.232662015631959110e-03,4.532046955196566453e-04,-4.250240812909018145e-02,8.210943580086857430e-02,-7.325859047760179162e-03,-1.057495305356274951e-01,5.448767924646905764e-02,-5.726831491700588861e-02,-9.388163515656440528e-02,5.450750813875137463e-02,9.335350328962678523e-02,-8.932093141448507745e-02,-1.653394332456205318e-02,-2.292952373606379698e-02,3.340479480050013994e-02,1.874899197303014631e-01,-2.464942822446034021e-02,-1.237787163275573810e-01,1.225562893408003867e-01,1.289575931599113157e-01,-2.429284946805228967e-02,-7.471436406151936438e-02,8.330788271931142963e-02,7.390722012123279727e-02,4.195837454645296588e-02,-4.151220194172499864e-03,2.176006828007614330e-02,1.487921881447454645e-02,-1.893409028556982711e-03,-2.168171485980275801e-02,-1.046264835195446080e-01,1.913079245410954227e-02,2.529738250666035276e-02,-7.249094093329239152e-02,5.983470881278519365e-02,1.570545371298062154e-01,-4.210735346840982496e-02,6.971786021742498209e-03,-1.759514363548591101e-02,7.101024669238062415e-02,-3.814163077453387035e-02,1.133401231760511330e-01,-3.278288021815575770e-02,6.387651150151787971e-02,1.460008813954047913e-01,6.521657263497235291e-02,1.015892804655768892e-03
1.250560409131573347e-01,1.653556961479843435e-02,-5.033531269759070059e-02,9.577840551810092029e-02,7.348981953476789453e-02,-1.295067685538865178e-02,2.554577934598194211e-02,7.766771085375048789e-02,-1.799778547594068634e-01,1.796089285105366765e-02,6.040491284445854286e-03,-4.286496710073938593e-02,-2.053008835479912253e-02,-3.283778868732743772e-02,6.971547984517756846e-04,-7.445993044367760216e-02,-9.472042705904704096e-02,2.863319581093436150e-02,9.395419206386525224e-02,1.246940552110368250e-01,3.461515471483993245e-02,-9.541593709201236229e-02,5.306631140623302434e-02,1.106525274784887491e-01,-3.758686610891387447e-02,-5.512839215420898414e-02,-3.141004989760178955e-03,-1.387306694579316380e-01,4.189395577835672985e-02,-3.928021071785465362e-02,-3.655895785280622451e-02,-1.064672151210424023e-01,1.228734575980898122e-02,2.726974959152676445e-02,8.250168778031316541e-02,4.650718211661156870e-02,1.011996422373004217e-01,4.774155636253826079e-03,1.247422036747906360e-01,-1.209092861461177545e-02,-1.493992367621952908e-02,4.609821886752615838e-02,8.494506874048569911e-02,1.185448372065016770e-01,-5.244586052138271864e-02,9.089892193641435636e-02,2.461584340639112745e-02,-3.951094579023683995e-02,1.334790039061503739e-04,-5.573811817257724038e-02,-6.464445242812085412e-04,-5.777333533618954353e-02,-1.221057014192640927e-01,1.197001551699329452e-01,1.216734258195100032e-01,-1.509458041971237924e-02,-4.755697175183525374e-03,-5.772271664768812566e-02,-8.733701611507146750e-04,-1.133545331789874606e-02,9.853830234213466210e-02,-6.263016110370472900e-02,1.605754193957924930e-02,1.866928206618901145e-02
-2.024939064798368660e-01,5.175660263026034269e-02,-4.421128049671017857e-02,-6.548381121528983051e-02,5.450998437578662842e-02,1.573122298991667294e-03,-5.840823556563746327e-02,5.405228857679079957e-02,9.304501267519823746e-03,9.968136575415785169e-04,2.347246570647794697e-02,-1.647761523919493917e-02,-2.835613461573589095e-02,-5.772413236883686127e-02,4.815856310407304330e-02,-1.466574147262164965e-02,-7.958856211123695179e-03,-7.298759403055368744e-02,6.644868354815117173e-02,5.101072715879474695e-02,-9.922516323448637987e-02,4.560344041152071537e-02,6.912832796691907589e-02,-7.078029039687254789e-03,-1.540751049705961322e-02,-8.250344649492646898e-02,-1.308142958475154161e-01,2.220785405441141544e-02,-7.754470645534314310e-02,-1.353285451898182112e-01,-9.412519909750824421e-02,4.000762755523547265e-02,1.326604677331454374e-01,-1.633261856159455017e-01,1.580360609466932575e-01,6.664637515832330661e-02,8.579972083202735966e-02,3.724812480962217537e-02,9.929906911873335150e-04,3.923891490042535207e-02,2.082030606326809585e-02,3.047078327750864582e-02,5.399312656618979536e-03,5.535884804293304123e-02,1.384492651189883107e-02,7.226359606587691442e-02,-8.194790080506851593e-02,-3.186987951489302778e-02,4.223689243990383368e-02,-1.098367813929258391e-01,4.421309653915376364e-02,9.551475222528067743e-02,4.629104294202339431e-02,4.031823716473075664e-02,-1.163266654725433544e-02,-8.856526019507778014e-02,-4.855052331374216240e-02,5.633281739590795256e-02,5.238698669529712887e-02,-1.707902790426324077e-02,1.583446024277655184e-01,5.790003873419206221e-02,7.682152593194294110e-02,7.838637547068001699e-02
3.480784430319600609e-01,3.220886110108531208e-02,1.916617433134196469e-01,6.870487801189237298e-02,-1.397818823824190371e-01,1.108604135039639726e-01,5.146307982519086194e-02,5.397801406893728421e-02,1.311381337741558961e-01,-1.244816557304844612e-01,1.104054127284831710e-01,7.126566413994384064e-02,1.349429051899635468e-01,1.036666921877695408e-01,-5.273218478473683246e-02,-1.232390807675831090e-01,1.684250038437135402e-02,4.673927508371383127e-02,-1.192060361886043696e-01,1.716014718234726332e-03,6.741777295018028249e-02,2.448467646735131079e-02,-8.254613277379593828e-02,5.186601220590907058e-02,-5.779650726608385330e-02,-1.556531137004095976e-02,8.210943899373555899e-02,9.356450329252392895e-02,-5.530542245519606132e-02,6.834230755257615642e-02,-5.742523402219733286e-02,-1.066679328620626921e-01,-4.398850632159985452e-02,1.028887241399145114e-01,-5.712392318301356964e-02,1.450801566931527176e-01,-1.244550834606666379e-01,8.846735539106190260e-02,-7.885233716099117459e-04,1.009366232466691986e-03,3.440755129046478566e-02,-2.136743330082519973e-02,-8.953769218661500329e-02,3.626110960692294910e-02,1.004967362593016666e-01,-1.364713478108663114e-01,-4.497198184673142224e-02,5.661400730592832525e-02,-8.117601827867952646e-02,1.542969622674277286e-01,1.443276077220599918e-01,-2.448301041544303537e-03,-1.822386472116647267e-03,7.286953694187174591e-02,4.846909094207389745e-02,2.643831060433830815e-02,-1.559991689293821308e-02,-5.535889151478849864e-03,8.852379887031443587e-03,-1.823398580231673852e-02,-1.649950103885628469e-03,4.643596232859115158e-02,9.974533657883359605e-02,6.362886965826689001e-02
-2.223695387910250010e-01,-4.708867270058976484e-02,-6.907815775797568336e-02,1.454792849384490827e-01,-2.064536597636233359e-02,9.876896932049382405e-02,7.033154710696316869e-02,1.555130682141863119e-01,-1.220190561434046639e-02,-2.365611603900633769e-02,5.974200103323268340e-02,1.518747645686044645e-01,-9.004618009557731340e-02,-6.639488886613173317e-03,2.454784383380648194e-02,-8.980250485039621700e-02,6.143910197079270608e-02,3.088652372693131889e-03,-1.289331273974587098e-02,-7.634924670290607618e-02,-4.049568374893352390e-02,9.895545335317626479e-02,1.078353076517614140e-01,3.507222212348777568e-02,1.148157980613651909e-02,-1.178019082089853259e-02,-1.218834510086946876e-01,-1.792669142668446569e-01,9.283673030868698495e-02,6.818655530546320707e-04,3.898729371767444690e-02,1.159930938486777308e-01,-1.196393143359889000e-02,2.521496511427252785e-02,2.953200526000936965e-01,-1.878609939380801452e-02,2.467358315617387832e-01,-7.758408304816212520e-02,-8.861749953638867888e-03,2.583589959007095288e-02,-9.843720282376988706e-02,9.177651399634868812e-02,5.951748363488291310e-03,9.058270704631646297e-02,2.656703814816858134e-01,1.585015160545521495e-01,6.146407031720629854e-02,1.654850243754375505e-01,1.241094116976701814e-02,1.517174524222631715e-01,-2.730624328439803638e-03,-9.211261077057790589e-04,-1.343799029587337268e-01,8.119432294210679468e-02,2.089491252843715674e-01,4.622358786003854386e-02,-8.923046462493268438e-02,1.327399697512441912e-01,7.850673525047452417e-02,-3.956220865327753078e-02,1.871219484810896297e-02,-1.502189290167005864e-01,-2.837136555474093283e-02,-1.001497270248444121e-01
-1.443075585480664280e-01,-3.719901587791279302e-02,-1.421373927951239680e-01,-8.388582428143806502e-02,-4.473324680482237969e-02,1.396211085786718160e-02,-1.250758568168533202e-01,7.257397440990974447e-02,1.264261607129597322e-02,5.269259235444941070e-02,1.399050752650710661e-01,-5.666691866653053578e-02,-3.600352887205645128e-03,-2.176782470722847182e-02,-3.698680448661927772e-02,6.452224172682384518e-02,1.135063160265245841e-01,-5.029025706769645054e-02,1.157099005721724458e-02,-3.583618975409542246e-02,4.310800520332773444e-02,-1.734976621561803434e-01,1.219487247639819277e-01,4.285143762708534809e-02,1.479734746218454577e-01,-1.587250130101333298e-02,4.522825619713870780e-03,-5.975427940348601585e-02,1.678217939221988142e-01,1.351800697396151330e-01,-6.282975657414362203e-02,1.369517009052628465e-01,-4.164075471111794435e-02,-3.889647006578142961e-03,-1.041744314167343671e-01,-1.594980209360646051e-01,-1.246075961935715071e-02,-3.166241373135644105e-03,1.720384691246885367e-01,-2.940389755773416616e-02,-5.500523956161334355e-02,7.296009266643971314e-02,-3.421642875586023563e-02,-1.778691139138417060e-02,-3.208272148080065223e-01,-1.106880078333167816e-01,1.141561298756616216e-01,1.044613733477826462e-01,-1.464263149989006134e-02,-9.170637533907759209e-02,1.787760539388455749e-01,-2.064825637603632386e-02,1.315737312362733891e-01,1.941496580956909579e-01,1.655110620290090317e-01,-3.377779174414512198e-02,1.020069462818617850e-01,-7.839283565131008324e-02,3.792912630864883616e-02,8.301186374789779054e-02,-5.140054350308993769e-02,7.022363122760479082e-03,3.494782837839904149e-02,1.186195815526690095e-01
2.572730714835210208e-01,-9.653128518239161016e-02,1.690871249619930669e-02,-3.311522146120052940e-02,-3.698261693321718696e-02,1.982600689159030177e-02,8.061418694198599355e-02,1.615588973604815959e-01,1.455906090786400486e-01,5.113615572206520882e-02,8.452238310355587869e-02,2.600111005591766375e-02,-2.007026373457826071e-02,-7.210064521581838193e-02,5.750747515969242829e-02,-3.508953086533982135e-02,6.842875004244708403e-02,1.013467461733519141e-02,-5.639724427035474469e-02,6.250688539876068928e-02,-3.110248758428247468e-02,5.733408232013209593e-02,-7.750133375166423644e-02,6.317538202167058414e-02,-5.093442132610532386e-02,1.748514392620747343e-02,-1.725407599517177367e-04,6.061048944404625119e-03,5.630719465636454396e-02,4.707691120469148505e-02,6.648127054825045748e-03,-1.242902415524092391e-01,6.201040488957633434e-02,1.526540232105967898e-01,-2.915833912223707997e-02,2.045639673133588937e-02,-1.131760911710301409e-01,4.132138077216859773e-02,6.271088956648866730e-02,8.539816965691753026e-02,1.036211860289180664e-01,-5.340583189795771596e-02,-8.631500884728350587e-02,7.594469039882216499e-02,3.592512110831622835e-02,-2.423524744316023216e-02,1.028215481727614566e-01,-2.550174381168497997e-02,-7.389434612164527683e-02,2.713880820175882183e-02,1.768001398232075042e-02,-3.267200540249605434e-02,9.210157447928267460e-02,3.657039845762043162e-02,4.661627420445361297e-02,-1.101019800920734204e-02,-1.331578836712089264e-01,-1.162859341915936096e-01,5.431258626029152742e-02,-3.888793558138648604e-02,7.722416103952678412e-02,-3.686241701767167811e-02,7.560232832827366856e-02,1.000099980201063637e-01
7.016163605381199597e-02,5.204468725106701360e-02,9.018949351444975615e-02,-6.526727804579727024e-03,-3.043505140029911446e-02,2.599687879039368904e-02,2.249552340835916375e-01,-1.106155738757851406e-02,1.276584470337198685e-01,-3.564932053830049269e-02,9.107121369301605929e-02,9.305294788085026469e-02,1.258445498531484130e-01,-2.103171052784875983e-02,-4.485822895153986946e-03,-4.752820665853916757e-03,-6.799882415540335623e-02,-6.853287585580440655e-02,-4.175752790324422509e-02,3.489365163312133783e-02,-1.147835959784722637e-01,2.130782166093402041e-01,-4.691284589505383823e-02,-1.184048556668569965e-02,-1.257086606599335243e-01,-5.840742421358242897e-02,-8.293724059773630031e-02,9.647762631967515823e-02,-5.724984949089047259e-02,-6.068642611359846561e-02,-2.898413458626033362e-02,-8.168571521341989883e-03,1.202722865600372587e-01,-2.615750572385036957e-02,-1.029584526270630046e-01,5.312874233052992945e-02,-3.342920927774009621e-02,4.396910597799388171e-02,-9.257002014023416395e-04,4.428867606503322091e-02,1.606595422328724043e-01,9.549807297599350112e-03,2.754656511101658684e-02,4.723489445584485961e-03,1.228100732580629656e-01,5.963852137941919561e-03,-1.781787206550480840e-02,-7.272830776932683039e-02,8.919653457384230100e-02,7.314038981939971484e-02,-5.017875588230912703e-02,1.804608713608994719e-02,8.983410219185658518e-02,-1.653573320608950695e-02,-7.637958470262407040e-02,9.313447330121871204e-02,1.182913206593903532e-01,-4.796731319895885387e-02,-4.672877422174820383e-02,1.216977544240763764e-01,8.845051598041912821e-02,-3.849505374652157502e-02,-1.957332268384405494e-02,-2.909534266429054244e-02
-1.631456861174160333e-01,-5.521242805210054699e-02,1.793583927814605683e-02,6.636802281953346760e-02,-2.207486692917172075e-02,1.482159464434229523e-02,5.574389097533392901e-02,-1.327934654601129784e-02,1.374391378434842645e-02,-1.228298154918258805e-01,1.029243096863387413e-01,1.594579794087184295e-03,-1.359408596699012983e-01,-8.887096067207314945e-03,-1.572786901373421642e-01,3.515154553532955778e-02,4.993801677979382153e-02,1.424786479909029638e-02,3.078886119723447945e-02,3.469061492484665221e-02,-1.146750308444971639e-01,-8.383608381384750896e-02,-7.989300957000741721e-02,-5.285641343953003529e-02,-3.364804623939470635e-02,-1.600905022367211245e-02,7.815848300156796880e-02,3.642785392801693028e-02,-2.661492328888037662e-02,3.614451623693703403e-02,-2.501687965691399076e-02,1.183283905172024808e-01,-3.334606983097354593e-02,9.483269616796694002e-02,3.850249063983202796e-02,2.932951780801365538e-02,-7.518233348782608731e-03,-1.627798386667978214e-01,2.037438584878264319e-02,-5.992918476571896386e-02,-8.153646215934512442e-02,8.731788638609799466e-03,-9.962961131121914754e-03,6.917293898453059919e-02,-7.708678903370340396e-02,6.435845652796300109e-02,-5.806200591551905626e-03,-1.036958563012183310e-01,-2.320422260324287236e-02,2.620980592943747758e-02,5.977558683845397847e-02,-3.173339084671960696e-03,-9.273950759838637528e-04,2.545945089805923961e-02,-7.898326939973410177e-02,-7.802357425920063150e-02,4.064925215925231650e-02,-8.239689269961576745e-02,9.101913106103691475e-02,-1.810453967660481320e-02,3.034413104683487267e-03,-2.784452242281845735e-02,-3.004974010948391339e-02,3.208457145677284794e-02
4.322563960932983979e-02,6.368641027043484004e-02,-5.269374253599082292e-02,1.433909649342083592e-01,1.302703872910517258e-01,1.228636201467409386e-02,1.509174963720523455e-01,7.275865070398601642e-02,-3.734230695594177585e-02,1.397479615407070655e-03,-1.215973172434367255e-01,9.392201235833372297e-02,-9.288714615779031236e-02,2.252074068802900966e-02,-4.074160738253599506e-02,-7.504123242974861108e-02,4.827386533597199936e-02,3.976204370724936710e-02,3.897875473649935196e-02,-2.931675159088932212e-02,-7.443395927512790056e-02,-2.033227591709848292e-01,1.989611711551330514e-02,2.275363452823525937e-02,-9.685708485444716187e-02,-9.582507922473574614e-04,1.382160792795859017e-01,-1.006071517116611941e-01,1.122889202984928975e-01,1.630181682080488305e-03,-5.236057689484400340e-02,-8.301417308263363271e-02,2.445167535144626147e-01,4.614908509295129191e-02,-2.803374636844600809e-02,1.137769405190628275e-01,6.372537252637837379e-02,-6.926037674133246613e-02,1.418061450391348011e-01,-6.914963328946850674e-02,-7.427054974493475792e-02,-4.682790818347348089e-02,-1.119961072252064795e-02,2.916705102286019646e-01,-1.156085453606264107e-01,5.095294699997321604e-03,4.425039082603185459e-02,-5.765134283764607181e-02,-2.574157560286078131e-02,1.801178708383441990e-02,-6.814193040029181692e-02,-5.476417759507089256e-02,-6.183856874032925277e-02,1.796624372070076969e-01,1.381497116012481707e-01,6.966830279026381412e-02,-1.185726225891826635e-01,1.913024175874271371e-02,-8.966326410389396928e-02,9.948600282018020546e-02,3.266136968128525997e-02,3.422188400556988239e-03,-2.324729799529311886e-02,9.245033171720636045e-02
-2.250311650598339763e-01,5.627564794855830638e-02,-1.888611068551016847e-01,9.119846892042222236e-03,1.938928279056226917e-02,1.374747061822181350e-02,-2.459102509516505053e-01,1.188932097787412517e-01,-4.612040809288256438e-02,-6.150710241494066616e-02,2.824508453534561869e-02,-1.481475024807113183e-01,-6.371287187737471880e-02,-8.206407380857931588e-02,1.462163038764893036e-02,-6.741333108386925177e-02,-2.642188993400351044e-02,-1.972608020734447493e-02,2.901384047809632896e-02,-1.800634255633471251e-02,-3.356598971256202768e-02,-1.647813342426903971e-01,1.136378474934477412e-01,1.842822727557244245e-01,4.720231735301356341e-02,-2.048503127883391159e-02,9.622586350614251161e-02,-1.067472746489265267e-01,2.848466938444533803e-01,9.197753294927876744e-02,-1.488364540453054885e-02,6.971309190298800862e-02,2.086106226185117582e-02,1.198903621842384304e-01,1.026523746737193626e-01,3.896837353517349509e-04,-3.093421038176088697e-02,-3.689874104458189946e-02,1.258173437110790549e-01,9.068543674236954552e-03,-5.969817376181178054e-02,5.520373037044896958e-02,-6.651275501125390732e-02,-3.936160027042153418e-03,-2.352471037954508293e-01,8.636044824697051980e-02,1.271988385251558162e-01,6.331617212892347302e-02,-6.853227845175400082e-03,-1.064031027383306460e-01,1.004502918809800083e-01,-1.037638870093580100e-02,-3.758872466661745265e-02,3.744296210604931840e-02,1.839534962365869664e-01,-8.407404695401889116e-02,8.879227855029805938e-02,-4.990685992241587071e-02,1.557174668186063699e-03,-3.525829684510631279e-02,-2.466113630276483074e-02,-6.766361271123320920e-02,-5.820556610083427868e-02,7.049369417651171754e-02
8.322896703366731985e-02,-1.005243960989064683e-01,5.780075337119290613e-02,4.420605033909455472e-02,-1.888963529233822838e-02,7.667440536045933008e-02,6.286415419554680119e-03,4.534382279451444620e-03,-3.790349473694699239e-02,-7.489368845095702165e-02,4.862908218445264469e-03,4.891554533263438309e-02,2.141930043003640455e-02,-1.529543425896022490e-01,1.430686127848105130e-02,1.163601870775118757e-01,-6.439827989359771243e-02,-2.981913829107390914e-03,-1.084811809695589019e-01,2.647214910107612007e-02,-2.470149532020626121e-02,-4.298324413073299072e-02,-5.223626904834786228e-02,2.982337180843336669e-02,-2.470095988359563566e-02,3.005329043512550147e-02,-2.900417170060558963e-02,2.965177475451997655e-02,-7.514245061791588465e-02,3.537320961062648955e-02,-9.745555852583602519e-02,8.696125593129143752e-03,1.177878916234433200e-02,-3.343359086861952961e-02,-6.706147213800542350e-02,-3.250597800575921736e-02,-2.410989065647173996e-02,-8.665802125534873002e-02,-2.493486844462968616e-02,3.191258734324104590e-02,9.375777807804028599e-03,-3.231881147560626295e-03,-1.620529025393610198e-02,2.230401803790020565e-02,4.619263956337202326e-02,-3.132516129497723428e-02,8.343414140172746019e-02,2.231971773784194313e-02,9.593812191176801993e-03,5.054711821208881378e-02,4.997140943760402382e-02,5.379041435105658825e-02,-5.449165675200851738e-02,-4.814787200494111130e-02,-1.173910550036624395e-01,-9.811038235199659452e-02,-6.898036853586583805e-02,-1.012125327663437532e-02,4.052284072027786954e-02,1.113954636530426097e-02,-7.070989382990784666e-02,2.406913061941515566e-02,-3.250057898550749030e-02,3.981530653056809810e-02
4.755474827604772720e-02,1.126933350015776464e-01,-3.431862184288562295e-02,-1.007017706895964870e-01,-7.016526194278366324e-03,-6.774713042558891396e-02,3.583000883090354388e-02,1.625515213197738576e-02,1.472447558163980375e-01,1.801801955783143352e-02,1.995268633268312136e-02,1.856874363207675765e-02,-2.167132008822104591e-02,-3.967919169491285897e-02,-2.163767871195288600e-02,1.770830031923504785e-02,-2.392528700391497506e-03,-2.149192483045936006e-02,1.121701690823575792e-01,-9.667843482721115433e-02,-1.121580012344913363e-01,7.135105248017452328e-02,1.229772155865918939e-02,-9.917855670133104984e-03,3.977552884343873996e-02,5.087595458490009465e-02,3.487574076732646161e-02,9.265299493006766765e-03,-5.549763876255188466e-02,3.727195490993844007e-02,-1.480658740899874933e-02,3.834820140109583726e-03,-8.541884683783886045e-02,-5.413590946540509236e-02,-8.851368531685244179e-02,1.277321084280592378e-01,-2.361274599673627433e-02,5.501741788045253281e-03,5.594042146639460755e-02,-1.195051579200705986e-03,5.587600847767914408e-02,-1.633025887489104530e-02,-2.035934270791025374e-02,-7.933335776918794269e-02,-2.714653206367551724e-02,-6.659316419954972033e-03,-1.360295658770928166e-02,5.718614083376220326e-03,1.166081232213210354e-02,-3.777894418077034494e-02,-1.811069162876904198e-02,3.569164204136719698e-02,4.629171028656552112e-02,-8.616243346804020042e-02,-6.487202454191552670e-02,-6.047067438339888412e-02,1.179120498247073767e-01,1.062161739783461095e-01,-1.342652364217708783e-01,-3.868475925364003865e-02,6.758654711926040393e-02,-8.283221691991159152e-02,2.695575681816201555e-03,2.893199254881432050e-02
-5.050279730451796845e-02,-3.227561092430416417e-02,8.390972651562214613e-02,-1.945795320600527192e-03,1.326636385776998849e-02,-1.004940874075729434e-01,7.028312163375821653e-03,2.521470028593038662e-02,4.506197170964567353e-04,6.016647109194019072e-02,-3.850161268725534741e-02,2.071194315997197666e-02,-9.681169602983791256e-02,-6.463165473214062262e-02,6.769619370871779451e-02,-2.540114072354600610e-03,9.415378047059878852e-02,1.693186237599578203e-02,-6.214994101335718363e-02,-3.740287512947570829e-03,6.447492643653328359e-02,5.422275733094646805e-02,1.043682736555547053e-01,-8.429782281248627282e-04,5.634761334688966755e-02,-1.687873418593313288e-02,-4.480495698604335109e-02,1.796332607553524294e-02,5.497310183031248881e-02,-1.639721970105443476e-03,-5.478959461730433661e-02,1.767255208472730960e-02,1.054814216406631533e-01,2.280652603464168940e-02,2.441176902022030790e-02,4.245278762067249828e-02,6.305348119241811766e-02,-4.045131668013467879e-02,-6.982984633162089404e-04,-4.960990212807583205e-02,-2.201399729295660905e-03,3.189286828247196032e-02,3.457657500088943611e-03,4.967071924760652069e-02,5.976513568343926053e-02,6.320299925365284455e-02,4.007048577931015404e-02,-1.491368288192445879e-01,-4.809251598209510897e-02,-2.257657621432424336e-02,-1.069951856350274955e-02,4.344494062307072829e-02,-1.123298338406427711e-02,-4.203535470072471830e-02,-7.725322733539706499e-02,2.414049279719111124e-02,8.780701591566937927e-03,-3.537135491141851773e-02,1.754730416534046322e-01,-3.650359544642363396e-02,4.814892353933964905e-03,-1.055981097054336029e-02,-3.144999241163531217e-02,8.661455248132188256e-02
-1.415145089437113979e-01,-5.487110765679212993e-02,7.053728516513556313e-02,-6.749350039466774087e-02,1.106601124327706992e-01,3.194717024161181085e-02,-3.193565397390533273e-02,-9.502462134902380647e-03,6.111669294933791061e-03,4.239827715142979736e-02,-3.071313651172327339e-02,-1.009278770084969246e-01,1.996516640887268865e-02,4.342355665476122645e-02,-7.635189788417852397e-02,-5.615143135718785733e-02,-5.386546700437948310e-02,3.651467783906644365e-02,3.750651533985806252e-02,-9.764125601426160150e-02,7.946708283583490268e-03,-2.026852568224324358e-02,8.006974222194247759e-02,3.986087563913662951e-02,6.079584715145472384e-02,4.453511627705940279e-02,-1.205169281467406706e-02,1.276350816778079877e-01,-1.299828132496576027e-01,-1.344500503835215251e-02,3.917256206121599860e-02,6.645456956434180875e-04,2.223644102288731966e-02,1.005230860256472319e-02,-6.024858646267405166e-03,3.509844720371435578e-02,-4.274908063913020195e-02,-2.607868487445853117e-02,-1.532136946793454524e-01,1.340873972732062845e-02,-4.586125366154741173e-02,-6.874764739932477664e-02,3.129281756564876449e-02,6.432210410884754703e-02,-6.617839398108264770e-02,6.094068840190501601e-02,-1.263232028644268971e-02,3.030725818523139631e-03,-1.310695906372771613e-01,2.185186394387346812e-02,2.217324730573177159e-03,-3.860755564769572257e-03,-3.484946206417442738e-02,-6.260033424390856749e-02,-8.389316450986802898e-02,5.358436841159836678e-02,-2.023889266192858624e-02,-6.068768885755672360e-02,-3.761392510345019924e-02,3.022288578802486986e-03,3.919909383122225505e-02,6.076025042468621157e-02,6.559530526045821708e-02,-9.419421214257302222e-02
2.207790559815505094e-01,-4.610859410311039797e-02,4.775012053083226710e-02,5.507134906394653417e-02,1.647655492537805355e-01,8.115006154558587759e-02,2.045405521357296016e-02,-9.692799038375665699e-03,8.095726536719510813e-02,-9.848429946000818169e-02,1.071220526870736572e-01,-1.537690316789400435e-01,-9.595132236016817862e-02,-6.575297807723973209e-02,-4.974456945539807579e-02,2.938289914484558743e-02,-7.690707815239786194e-02,2.223454155807107376e-03,4.029412562692138988e-02,-3.019376941559685779e-02,-2.552359072509002152e-02,-6.781663994045072918e-02,6.545761839156741257e-02,3.927226194059026815e-02,5.972586770151778936e-04,1.866456028975392676e-03,-2.654245540852767996e-02,1.396779169581656085e-02,-4.580786431215798371e-02,6.015994458105106829e-02,8.369608946448832409e-02,-1.806467916314740962e-01,4.623019676995866051e-02,-9.249800138491132487e-03,-5.412003062439637441e-02,1.366859446650472293e-02,-4.049369529237049209e-02,2.051885278302993752e-03,-6.404179503825552233e-02,-4.252231161968263867e-03,8.127603531551336191e-02,-4.164313030594709447e-02,-1.650895208133593139e-02,-6.114041625805505947e-02,7.572813363668995379e-02,1.047959212171676729e-01,8.861742548112586104e-02,1.296061225597036903e-01,-5.785152325427615760e-02,8.288704013703791784e-02,-1.254267914707599407e-01,-5.486807697137732059e-02,-3.327697618802361035e-02,1.155622041235852965e-01,7.545417627043944642e-02,1.187332126569847074e-01,-2.379493736717736702e-02,-2.940572788631641132e-03,3.125465904531286171e-02,2.579754309485207675e-02,4.604237159597656531e-02,7.970697535590879484e-03,6.924367199133002471e-02,1.334568575604120136e-02
-2.805061891405763192e-03,5.278816723130354965e-02,1.490358907698400778e-02,-9.077412633317899493e-02,2.227902757794795324e-02,5.335329907463771948e-02,-5.721755236812101422e-03,-8.843092163959391516e-02,-1.123437274568098339e-02,-7.682484495006040859e-02,-5.670859142304186112e-02,-4.319565018244905623e-03,-6.168781557746432637e-02,-9.936921150680064208e-02,-1.164518516835928372e-02,4.478378886752704992e-03,2.427074976612489041e-02,9.822848577324040653e-02,1.001859436073625070e-01,-3.115081927854254640e-02,-1.306562363838615626e-01,4.287392213186014961e-02,2.537387253576691912e-02,9.323487595804545768e-04,5.024367122290104154e-02,-1.145283066171349229e-01,-7.549089596066502206e-02,3.459686662025687753e-03,2.562339571625705387e-02,1.562666726708747400e-02,1.508875844066705565e-02,-1.524377222652287256e-01,-4.287204863368158231e-02,6.944966854462723826e-02,-7.778788117520035392e-03,6.008840639372021314e-02,2.138473765967271057e-03,-5.341520261877239634e-02,6.442626745409523077e-03,-9.741896697815699557e-02,2.887486820863438899e-02,2.960689835397744760e-02,-9.208556106692102061e-02,-9.380355544839300008e-02,8.322725940028771752e-02,1.892191639648796789e-02,4.924028685266074179e-02,8.084714226767519829e-02,-8.538468279812230777e-02,5.124509775105382664e-02,4.536211411903234153e-02,-7.379650793761591276e-02,-4.812059391251707896e-02,-9.562454827583161121e-02,1.222932802906055022e-01,3.460918447467560555e-02,-5.364168137804385672e-02,-3.405506184332903613e-02,2.357015623537515175e-02,-6.749161776259859913e-02,-2.237836928455063518e-02,1.533995313713608540e-02,5.221378620517656138e-02,4.618062009136811308e-02
2.781108470403512514e-02,6.255470996558666619e-02,-2.064439836692483210e-02,-1.520360743910534607e-01,7.295815765335630920e-02,-8.904994407595585165e-03,-5.462314954721791960e-02,-9.567167626389001811e-02,-9.779583620756525375e-02,1.101581585112393624e-01,7.838120379498126136e-03,-4.083618642597056786e-02,-4.531363015095807301e-02,-4.859801574321028633e-02,3.486447388623966064e-03,-6.127270510875770272e-03,1.609938565390860860e-03,4.068534390665017042e-02,-2.320944313053686925e-02,6.329549504815236427e-02,1.147896771204060928e-03,1.417970079386579249e-02,5.388715226370708461e-02,-2.792247115147838271e-02,9.976568237499065794e-02,6.799244403402734949e-02,6.096558914931760054e-02,4.373870996564881847e-02,-2.854303146535954600e-02,-6.777895076305957833e-02,1.140865173153781005e-02,-6.523248947206056192e-02,8.133562578970990331e-02,-1.152664152987797203e-01,5.443948644057505781e-03,-1.264326638348137188e-01,1.109598389020989041e-02,5.615837813308881266e-02,1.648635279711014590e-01,2.029802145360917048e-02,-1.904507536787059668e-02,-7.312441124347056343e-02,6.170843810383078859e-02,4.122917179390640785e-02,-5.897074528349977030e-02,6.135970575238122032e-02,6.414875029382221920e-03,7.495650259149405636e-02,-6.820936658986578860e-02,-1.154729046055630870e-01,5.225961811924108302e-02,-1.557238637573825878e-02,1.797942644342488683e-02,-4.658438176104285483e-02,-2.697331316155483424e-02,-8.167451694034199086e-03,9.396401842820466255e-02,4.646736387942790314e-02,5.105401315997598610e-02,8.606610569929063577e-04,-1.261574324060728280e-01,-2.978013431260183655e-02,-3.374809591496922417e-02,8.134149625355889535e-02
-5.783516978708980183e-02,8.022970648359524504e-02,-1.362146090468083215e-02,-9.286388399923359294e-02,6.933368649415337648e-02,-6.879260118015463610e-02,5.335944744549122459e-02,1.597896957562838782e-01,1.485229486961067435e-01,-4.461556769166044600e-02,-2.960426741339007572e-02,1.260158629463913396e-02,8.883239318403242379e-02,-3.817738691930029626e-02,4.474341913178036395e-02,-4.595304968063315849e-03,1.825043448074971375e-02,4.785023413496480860e-02,2.363017937741056507e-01,4.205426292738901478e-02,-9.918119797593012710e-02,2.382631769937329502e-01,-1.723809032206248884e-02,-2.825105800537712139e-02,1.796278826397404993e-01,-3.734319503387518308e-02,2.886420728639898028e-02,2.180084592286690368e-02,-1.756071258924689349e-01,2.076615177866743614e-02,1.163143071304249127e-02,-2.618395793402284941e-02,1.500603445559045845e-01,-1.691879889086498057e-01,1.066329460566053239e-01,9.935059901686349448e-02,-4.530857816802561638e-02,9.171181785196792779e-02,9.124843958297505775e-02,-6.758751348119129698e-02,-7.372875555826745309e-02,3.341559504376510198e-02,-2.096664894658915521e-02,-2.189918500100682466e-02,5.825533201568523084e-02,-5.941441904644875066e-02,-5.426563060676667383e-02,-9.087166660971647547e-02,3.816753924122647749e-03,-2.367373059863024098e-01,-2.314032277692457118e-01,3.090219615089202787e-02,1.069719669273388185e-01,-1.256663391705252764e-01,-1.085181131561478163e-01,-2.923442110937650787e-02,1.039888372721629699e-02,1.809377904718825411e-02,-9.095763130012497755e-02,-8.261573373451522317e-02,1.168947929312145750e-01,4.753084115643844976e-02,-5.245731064900235191e-02,1.324663456990017932e-02
1.602949413242780174e-01,2.582743834708583694e-03,2.476805026649002775e-02,2.750651969400913499e-02,1.081108376205745514e-01,-4.615093034086041601e-02,1.395134396290440872e-02,-4.939833171127617356e-02,-8.972533544502560299e-02,-1.313495794100418175e-02,4.257944753475351174e-02,-8.142193275708314512e-03,-1.467101121972100020e-01,6.604614917221100778e-02,1.701195531605603425e-02,1.881006025129326395e-02,8.621434823422463589e-02,7.658787777440610733e-02,-1.294701667134144120e-02,-1.048153523641209006e-01,-2.295815324039805067e-02,-1.179523890722935231e-01,-7.033333530178911830e-02,3.639046011132303794e-03,-7.596634336723358250e-02,-4.103148924321205898e-02,5.894829832882834270e-02,1.417003381086280080e-02,3.300339212260397503e-02,1.328502390127057342e-01,-1.676677467373547878e-02,-1.067744621023485052e-01,5.538639898783907084e-02,-2.461353117768512455e-02,1.003072828255816180e-02,5.180894124361409142e-02,3.069356376479426274e-02,4.814851118953877851e-02,7.046454705603084900e-02,3.776050417833323042e-02,1.037204925232203673e-01,-1.430101556141767996e-02,-7.786110248473934736e-02,6.669279939743720520e-02,-3.539441566387339921e-02,-3.546457326811151139e-02,9.977773690416769092e-02,-4.832196506171096417e-02,-4.776467614708979417e-03,-8.159072029477448806e-02,-4.480393176048678289e-02,7.834810152770106673e-02,8.042137802845787664e-02,-3.552521822729091342e-03,-7.076688996632408968e-02,-2.285343839191616641e-02,5.378683321231361031e-02,-7.176799082403044483e-02,1.289428290071223220e-02,-2.335259654171055119e-02,5.382035169583473250e-02,-2.109001303641056414e-03,-5.219556502482743110e-02,6.251156541740210404e-02
1.147099613462330414e-01,6.599500830747216142e-03,3.736273713889395887e-02,3.990877588726923081e-02,-1.538143308105269225e-02,-4.304148964688966211e-02,-5.566368593136483862e-03,-2.808478443328244964e-02,-2.990055506443203143e-02,-3.502383355110156443e-02,5.022861987550888974e-02,-7.821493265931471484e-02,-8.609056614194409221e-03,2.787604230902206853e-02,-5.235748525153425398e-02,-8.963016663632085435e-02,8.724288339269124781e-02,-3.843113765888964140e-02,5.205330644539504087e-02,3.490039737246564827e-02,1.340785630680698670e-01,-6.798528523424239578e-02,-2.509265726138748889e-02,-6.298616516990315772e-02,-7.371075536755847257e-02,3.443439521591272479e-02,-3.646272802832550841e-02,6.343226017732919936e-04,6.885257065584712843e-02,-6.853611849428285774e-02,6.708696427344232327e-02,-4.064691504009652900e-02,3.632267592919825872e-02,-7.972805509827411707e-02,3.773957067253364689e-02,-5.310187096040762389e-02,-1.680167572534723569e-02,1.994959771419353017e-02,1.207806470074406641e-02,3.126937156086757874e-02,1.684727667752892663e-02,-2.968720408365971286e-02,-3.719442355311518289e-02,1.754995900880083198e-02,-1.778347476701407429e-02,6.238460151485974298e-02,5.082959730518791380e-02,1.203378048300366293e-01,-1.050337616271372100e-02,-1.468278507879618444e-01,1.338937979340387979e-03,6.043948079471300749e-02,3.173521402588851126e-02,-6.380240014808129245e-02,5.894199425200413039e-02,4.433169267796146368e-02,-1.457796938296385993e-02,-3.117811956536668122e-02,2.090182120174067029e-02,8.927982713709051166e-03,5.110124796537177799e-02,-4.698803720255141647e-02,2.024228238207299684e-03,1.751982255849873077e-02
